<?xml version='1.0' encoding='UTF-8'?>
<BIF VERSION="0.3">
  <NETWORK>
    <NAME>UNTITLED</NAME>
    <VARIABLE TYPE="nature">
      <NAME>APRESENTACAO_30</NAME>
      <OUTCOME>0_0</OUTCOME>
      <OUTCOME>1_0</OUTCOME>
      <OUTCOME>10_0</OUTCOME>
      <OUTCOME>11_0</OUTCOME>
      <OUTCOME>12_0</OUTCOME>
      <OUTCOME>13_0</OUTCOME>
      <OUTCOME>14_0</OUTCOME>
      <OUTCOME>15_0</OUTCOME>
      <OUTCOME>16_0</OUTCOME>
      <OUTCOME>17_0</OUTCOME>
      <OUTCOME>18_0</OUTCOME>
      <OUTCOME>19_0</OUTCOME>
      <OUTCOME>2_0</OUTCOME>
      <OUTCOME>20_0</OUTCOME>
      <OUTCOME>3_0</OUTCOME>
      <OUTCOME>4_0</OUTCOME>
      <OUTCOME>5_0</OUTCOME>
      <OUTCOME>6_0</OUTCOME>
      <OUTCOME>7_0</OUTCOME>
      <OUTCOME>8_0</OUTCOME>
      <OUTCOME>9_0</OUTCOME>
      <PROPERTY>weight = None</PROPERTY>
    </VARIABLE>
    <VARIABLE TYPE="nature">
      <NAME>APRESENTACAO_ADMISSAO</NAME>
      <OUTCOME>0_0</OUTCOME>
      <OUTCOME>1_0</OUTCOME>
      <OUTCOME>2_0</OUTCOME>
      <OUTCOME>3_0</OUTCOME>
      <OUTCOME>4_0</OUTCOME>
      <PROPERTY>weight = None</PROPERTY>
    </VARIABLE>
    <VARIABLE TYPE="nature">
      <NAME>APRESENTACAO_NO_PARTO</NAME>
      <OUTCOME>0_0</OUTCOME>
      <OUTCOME>1_0</OUTCOME>
      <OUTCOME>2_0</OUTCOME>
      <OUTCOME>3_0</OUTCOME>
      <OUTCOME>4_0</OUTCOME>
      <PROPERTY>weight = None</PROPERTY>
    </VARIABLE>
    <VARIABLE TYPE="nature">
      <NAME>A_GESTA</NAME>
      <OUTCOME>1_0</OUTCOME>
      <OUTCOME>10_0</OUTCOME>
      <OUTCOME>11_0</OUTCOME>
      <OUTCOME>2_0</OUTCOME>
      <OUTCOME>3_0</OUTCOME>
      <OUTCOME>4_0</OUTCOME>
      <OUTCOME>5_0</OUTCOME>
      <OUTCOME>6_0</OUTCOME>
      <OUTCOME>7_0</OUTCOME>
      <OUTCOME>8_0</OUTCOME>
      <OUTCOME>9_0</OUTCOME>
      <PROPERTY>weight = None</PROPERTY>
    </VARIABLE>
    <VARIABLE TYPE="nature">
      <NAME>A_PARA</NAME>
      <OUTCOME>0_0</OUTCOME>
      <OUTCOME>1_0</OUTCOME>
      <OUTCOME>2_0</OUTCOME>
      <OUTCOME>3_0</OUTCOME>
      <OUTCOME>4_0</OUTCOME>
      <OUTCOME>5_0</OUTCOME>
      <OUTCOME>6_0</OUTCOME>
      <OUTCOME>7_0</OUTCOME>
      <OUTCOME>9_0</OUTCOME>
      <PROPERTY>weight = None</PROPERTY>
    </VARIABLE>
    <VARIABLE TYPE="nature">
      <NAME>ESTIMATIVA_PESO_ECO_30</NAME>
      <OUTCOME>0_0</OUTCOME>
      <OUTCOME>1_0</OUTCOME>
      <PROPERTY>weight = None</PROPERTY>
    </VARIABLE>
    <VARIABLE TYPE="nature">
      <NAME>EUTOCITO_ANTERIOR</NAME>
      <OUTCOME>0_0</OUTCOME>
      <OUTCOME>1_0</OUTCOME>
      <OUTCOME>2_0</OUTCOME>
      <OUTCOME>3_0</OUTCOME>
      <OUTCOME>4_0</OUTCOME>
      <OUTCOME>5_0</OUTCOME>
      <OUTCOME>6_0</OUTCOME>
      <OUTCOME>7_0</OUTCOME>
      <OUTCOME>9_0</OUTCOME>
      <PROPERTY>weight = None</PROPERTY>
    </VARIABLE>
    <VARIABLE TYPE="nature">
      <NAME>GRUPO_ROBSON</NAME>
      <OUTCOME>0_0</OUTCOME>
      <OUTCOME>1_0</OUTCOME>
      <OUTCOME>10_0</OUTCOME>
      <OUTCOME>2_0</OUTCOME>
      <OUTCOME>3_0</OUTCOME>
      <OUTCOME>4_0</OUTCOME>
      <OUTCOME>5_0</OUTCOME>
      <OUTCOME>6_0</OUTCOME>
      <OUTCOME>7_0</OUTCOME>
      <OUTCOME>8_0</OUTCOME>
      <OUTCOME>9_0</OUTCOME>
      <PROPERTY>weight = None</PROPERTY>
    </VARIABLE>
    <VARIABLE TYPE="nature">
      <NAME>IDADE_GESTACIONAL_ADMISSAO</NAME>
      <OUTCOME>0_0</OUTCOME>
      <OUTCOME>1_0</OUTCOME>
      <OUTCOME>2_0</OUTCOME>
      <PROPERTY>weight = None</PROPERTY>
    </VARIABLE>
    <VARIABLE TYPE="nature">
      <NAME>IDADE_MATERNA</NAME>
      <OUTCOME>0_0</OUTCOME>
      <OUTCOME>1_0</OUTCOME>
      <OUTCOME>2_0</OUTCOME>
      <PROPERTY>weight = None</PROPERTY>
    </VARIABLE>
    <VARIABLE TYPE="nature">
      <NAME>IMC</NAME>
      <OUTCOME>0_0</OUTCOME>
      <OUTCOME>1_0</OUTCOME>
      <OUTCOME>2_0</OUTCOME>
      <PROPERTY>weight = None</PROPERTY>
    </VARIABLE>
    <VARIABLE TYPE="nature">
      <NAME>NUMERO_CONSULTAS_PRE_NATAL</NAME>
      <OUTCOME>0_0</OUTCOME>
      <OUTCOME>1_0</OUTCOME>
      <OUTCOME>2_0</OUTCOME>
      <PROPERTY>weight = None</PROPERTY>
    </VARIABLE>
    <VARIABLE TYPE="nature">
      <NAME>PESO_INICIAL</NAME>
      <OUTCOME>0_0</OUTCOME>
      <OUTCOME>1_0</OUTCOME>
      <OUTCOME>2_0</OUTCOME>
      <PROPERTY>weight = None</PROPERTY>
    </VARIABLE>
    <VARIABLE TYPE="nature">
      <NAME>SEMANAS_GESTACAO_PARTO</NAME>
      <OUTCOME>0_0</OUTCOME>
      <OUTCOME>1_0</OUTCOME>
      <OUTCOME>2_0</OUTCOME>
      <PROPERTY>weight = None</PROPERTY>
    </VARIABLE>
    <VARIABLE TYPE="nature">
      <NAME>TIPO_GRAVIDEZ</NAME>
      <OUTCOME>0_0</OUTCOME>
      <OUTCOME>1_0</OUTCOME>
      <OUTCOME>2_0</OUTCOME>
      <OUTCOME>3_0</OUTCOME>
      <OUTCOME>4_0</OUTCOME>
      <OUTCOME>5_0</OUTCOME>
      <OUTCOME>6_0</OUTCOME>
      <PROPERTY>weight = None</PROPERTY>
    </VARIABLE>
    <VARIABLE TYPE="nature">
      <NAME>TIPO_PARTO</NAME>
      <OUTCOME>0_0</OUTCOME>
      <OUTCOME>1_0</OUTCOME>
      <OUTCOME>2_0</OUTCOME>
      <OUTCOME>3_0</OUTCOME>
      <OUTCOME>4_0</OUTCOME>
      <OUTCOME>5_0</OUTCOME>
      <PROPERTY>weight = None</PROPERTY>
    </VARIABLE>
    <VARIABLE TYPE="nature">
      <NAME>TRAB_PARTO_ENTRADA_ESPONTANEO</NAME>
      <OUTCOME>0_0</OUTCOME>
      <OUTCOME>1_0</OUTCOME>
      <PROPERTY>weight = None</PROPERTY>
    </VARIABLE>
    <VARIABLE TYPE="nature">
      <NAME>TRAB_PARTO_NO_PARTO</NAME>
      <OUTCOME>0_0</OUTCOME>
      <OUTCOME>1_0</OUTCOME>
      <OUTCOME>2_0</OUTCOME>
      <OUTCOME>3_0</OUTCOME>
      <OUTCOME>4_0</OUTCOME>
      <OUTCOME>5_0</OUTCOME>
      <OUTCOME>6_0</OUTCOME>
      <OUTCOME>7_0</OUTCOME>
      <OUTCOME>8_0</OUTCOME>
      <OUTCOME>9_0</OUTCOME>
      <PROPERTY>weight = None</PROPERTY>
    </VARIABLE>
    <VARIABLE TYPE="nature">
      <NAME>VIGIADA</NAME>
      <OUTCOME>0_0</OUTCOME>
      <OUTCOME>1_0</OUTCOME>
      <OUTCOME>2_0</OUTCOME>
      <PROPERTY>weight = None</PROPERTY>
    </VARIABLE>
    <VARIABLE TYPE="nature">
      <NAME>VIGIADA_CENTRO_SAUDE</NAME>
      <OUTCOME>0_0</OUTCOME>
      <OUTCOME>1_0</OUTCOME>
      <PROPERTY>weight = None</PROPERTY>
    </VARIABLE>
    <VARIABLE TYPE="nature">
      <NAME>VIGIADA_NESTE_HOSPITAL</NAME>
      <OUTCOME>0_0</OUTCOME>
      <OUTCOME>1_0</OUTCOME>
      <PROPERTY>weight = None</PROPERTY>
    </VARIABLE>
    <DEFINITION>
      <FOR>APRESENTACAO_30</FOR>
      <GIVEN>ESTIMATIVA_PESO_ECO_30</GIVEN>
      <TABLE>0.4740293613533047 0.02489008122810938 0.01863030032044115 0.01941277293389968 0.01863030032044115 0.020977718160816738 0.01863030032044115 0.028019971681943492 0.027237499068484966 0.04445189656457259 0.03740964304344584 0.023325136001192324 0.03427975258961172 0.022542663387733794 0.021760190774275268 0.06636112974141138 0.020195245547358208 0.020977718160816738 0.01863030032044115 0.020195245547358208 0.01941277293389968 0.09894619824264851 0.006845142918056253 0.003966984939162745 0.0038070872736686613 0.003966984939162745 0.004446677935644996 0.0042867802701509125 0.007644631245526672 0.005565961594103583 0.009083710234973426 0.005725859259597666 0.005565961594103583 0.007324835914538504 0.7964198151278419 0.004126882604656829 0.011801970548372849 0.003966984939162745 0.004126882604656829 0.004446677935644996 0.004126882604656829 0.0038070872736686613 </TABLE>
    </DEFINITION>
    <DEFINITION>
      <FOR>APRESENTACAO_ADMISSAO</FOR>
      <GIVEN>TRAB_PARTO_ENTRADA_ESPONTANEO</GIVEN>
      <TABLE>0.7143916913946587 0.17099406528189912 0.037091988130563795 0.04043026706231454 0.037091988130563795 0.8234077750206783 0.10959470636889991 0.020885028949545078 0.025227460711331678 0.020885028949545078 </TABLE>
    </DEFINITION>
    <DEFINITION>
      <FOR>APRESENTACAO_NO_PARTO</FOR>
      <GIVEN>GRUPO_ROBSON</GIVEN>
      <TABLE>0.9580558905258741 0.010486027368531431 0.010486027368531431 0.010486027368531431 0.010486027368531431 0.8642917726887193 0.03392705682782019 0.03392705682782019 0.03392705682782019 0.03392705682782019 0.8069089131497473 0.03258921297050676 0.05589050024441909 0.03258921297050676 0.07202216066481994 0.9322148788340958 0.01694628029147602 0.01694628029147602 0.01694628029147602 0.01694628029147602 0.9492450196675547 0.012688745083111278 0.012688745083111278 0.012688745083111278 0.012688745083111278 0.9018404907975462 0.024539877300613508 0.024539877300613508 0.024539877300613508 0.024539877300613508 0.9003611906837716 0.02490970232905718 0.02490970232905718 0.02490970232905718 0.02490970232905718 0.06022282445046673 0.06022282445046673 0.06022282445046673 0.7591087021981331 0.06022282445046673 0.076103500761035 0.076103500761035 0.076103500761035 0.6955859969558599 0.076103500761035 0.2172211350293542 0.19569471624266144 0.19569471624266144 0.19569471624266144 0.19569471624266144 0.1936108422071636 0.22555663117134558 0.1936108422071636 0.1936108422071636 0.1936108422071636 </TABLE>
    </DEFINITION>
    <DEFINITION>
      <FOR>A_GESTA</FOR>
      <GIVEN>GRUPO_ROBSON</GIVEN>
      <TABLE>0.7735494726004869 0.0047663760766051945 0.0047663760766051945 0.14721905787810466 0.03244948832952817 0.009956959624028252 0.007073302097682109 0.0053431075818744225 0.0047663760766051945 0.0053431075818744225 0.0047663760766051945 0.371825121443442 0.01542138946719099 0.01542138946719099 0.2971855964222376 0.12551468887346748 0.056473128228853406 0.04154522322461253 0.02661731822037165 0.0172873775927211 0.01542138946719099 0.0172873775927211 0.3768794347252876 0.014813278622957612 0.014813278622957612 0.28188187891626043 0.13490452841927497 0.06679307331091588 0.03811456589686994 0.023775312189846968 0.018398092049713356 0.014813278622957612 0.014813278622957612 0.6946203262929238 0.007702854677943642 0.007702854677943642 0.18199534747577442 0.045916716735222046 0.01981944508634899 0.008634900093974822 0.010498990926037184 0.007702854677943642 0.007702854677943642 0.007702854677943642 0.005767611401414217 0.006465492380985337 0.006465492380985337 0.4963779400399118 0.2709623836384399 0.10975187735751113 0.05392139899182151 0.019725230992836622 0.0120485402175543 0.010652778258412059 0.007861254340127577 0.013853876185164522 0.011154489682097039 0.011154489682097039 0.4106636921360846 0.2851422197434466 0.1461238148354712 0.04489682097044058 0.031399888455103164 0.017902955939765746 0.015203569436698263 0.01250418293363078 0.012692625595851395 0.011322591967753252 0.011322591967753252 0.4716538910087295 0.23737814060394694 0.11818521495940845 0.06612393709167899 0.027762995504930974 0.019542793736342115 0.012692625595851395 0.011322591967753252 0.5904574197257125 0.027374011113848518 0.027374011113848518 0.13667843749144565 0.047247543182502544 0.030686266458624187 0.030686266458624187 0.027374011113848518 0.027374011113848518 0.027374011113848518 0.027374011113848518 0.03459250034592501 0.03459250034592501 0.03459250034592501 0.3527051335270514 0.20620589456205898 0.11830635118306354 0.0638923481389235 0.05133527051335272 0.03459250034592501 0.03459250034592501 0.03459250034592501 0.11047856253335708 0.08895214374666431 0.08895214374666431 0.08895214374666431 0.08895214374666431 0.08895214374666431 0.08895214374666431 0.08895214374666431 0.08895214374666431 0.08895214374666431 0.08895214374666431 0.08800492827598347 0.08800492827598347 0.08800492827598347 0.08800492827598347 0.09865352459737747 0.09865352459737747 0.08800492827598347 0.09865352459737747 0.08800492827598347 0.08800492827598347 0.08800492827598347 </TABLE>
    </DEFINITION>
    <DEFINITION>
      <FOR>A_PARA</FOR>
      <GIVEN>A_GESTA</GIVEN>
      <TABLE>0.0846862253018559 0.8894033950000368 0.0037014828140152934 0.0037014828140152934 0.0037014828140152934 0.0037014828140152934 0.0037014828140152934 0.0037014828140152934 0.0037014828140152934 0.10990218705352234 0.10990218705352234 0.10990218705352234 0.10990218705352234 0.10990218705352234 0.10990218705352234 0.10990218705352234 0.10990218705352234 0.12078250357182106 0.10990218705352234 0.10990218705352234 0.12078250357182106 0.10990218705352234 0.10990218705352234 0.10990218705352234 0.10990218705352234 0.10990218705352234 0.10990218705352234 0.012825992111191242 0.9546883208234276 0.00577414500805798 0.004451923676220494 0.004451923676220494 0.004451923676220494 0.004451923676220494 0.004451923676220494 0.004451923676220494 0.015519438256836156 0.5645665465812316 0.36400553676355996 0.010074342967668598 0.009166827086140672 0.009166827086140672 0.009166827086140672 0.009166827086140672 0.009166827086140672 0.019693568080664855 0.333589349718382 0.3413880026783253 0.20686123911930365 0.019693568080664855 0.019693568080664855 0.019693568080664855 0.019693568080664855 0.019693568080664855 0.03813009990086173 0.18912529550827423 0.26084801342179514 0.23442385419049797 0.12495233737512391 0.03813009990086173 0.03813009990086173 0.03813009990086173 0.03813009990086173 0.06396724876863046 0.13362758267766903 0.1652913708181411 0.18428964370242434 0.1589586131900467 0.10196379453719695 0.06396724876863046 0.06396724876863046 0.06396724876863046 0.0886760663296976 0.11501285802961779 0.10623392746297773 0.16768644142945816 0.14134964972953798 0.09745499689633766 0.10623392746297773 0.0886760663296976 0.0886760663296976 0.09815469179426775 0.11758932076953277 0.10787200628190026 0.11758932076953277 0.12730663525716526 0.11758932076953277 0.10787200628190026 0.10787200628190026 0.09815469179426775 0.10531858873091099 0.10531858873091099 0.10531858873091099 0.10531858873091099 0.11574512901527118 0.12617166929963136 0.11574512901527118 0.11574512901527118 0.10531858873091099 </TABLE>
    </DEFINITION>
    <DEFINITION>
      <FOR>ESTIMATIVA_PESO_ECO_30</FOR>
      <GIVEN>VIGIADA_CENTRO_SAUDE</GIVEN>
      <GIVEN>VIGIADA_NESTE_HOSPITAL</GIVEN>
      <TABLE>0.1447562776957164 0.8552437223042836 0.17792207792207793 0.8220779220779221 0.20641975308641974 0.7935802469135802 0.2 0.8 </TABLE>
    </DEFINITION>
    <DEFINITION>
      <FOR>EUTOCITO_ANTERIOR</FOR>
      <GIVEN>A_PARA</GIVEN>
      <TABLE>0.037266866618402464 0.7214120729479092 0.034474437204812636 0.034474437204812636 0.034474437204812636 0.034474437204812636 0.034474437204812636 0.034474437204812636 0.034474437204812636 0.002964873858501172 0.9809970396048032 0.0026021022836694575 0.002239330708837743 0.002239330708837743 0.002239330708837743 0.002239330708837743 0.002239330708837743 0.002239330708837743 0.016480437720425848 0.4516628761659908 0.43297405979102793 0.016480437720425848 0.016480437720425848 0.016480437720425848 0.016480437720425848 0.016480437720425848 0.016480437720425848 0.04255500234052513 0.18732712030299162 0.20800885144048684 0.34933401421337085 0.04255500234052513 0.04255500234052513 0.04255500234052513 0.04255500234052513 0.04255500234052513 0.07759155803848543 0.11530105524518933 0.09644630664183738 0.14672563625077592 0.25356921166977037 0.07759155803848543 0.07759155803848543 0.07759155803848543 0.07759155803848543 0.10110201193003739 0.10929127489637042 0.10110201193003739 0.10110201193003739 0.10929127489637042 0.17480537862703463 0.10110201193003739 0.10110201193003739 0.10110201193003739 0.10725010725010724 0.10725010725010724 0.10725010725010724 0.10725010725010724 0.11593736593736592 0.11593736593736592 0.1246246246246246 0.10725010725010724 0.10725010725010724 0.1091464745688714 0.1091464745688714 0.1091464745688714 0.1091464745688714 0.11798733900894999 0.1091464745688714 0.1091464745688714 0.11798733900894999 0.1091464745688714 0.11012003083360862 0.11012003083360862 0.11012003083360862 0.11012003083360862 0.11012003083360862 0.11012003083360862 0.11012003083360862 0.11012003083360862 0.11903975333113091 </TABLE>
    </DEFINITION>
    <DEFINITION>
      <FOR>GRUPO_ROBSON</FOR>
      <TABLE>0.23020566793800992 0.07115096799111667 0.0740718389417274 0.1424467725582967 0.19024284265919952 0.098368174576353 0.09690773910104764 0.04008352242552985 0.031719210157871866 0.012335248394727947 0.012468015256119343 </TABLE>
    </DEFINITION>
    <DEFINITION>
      <FOR>IDADE_GESTACIONAL_ADMISSAO</FOR>
      <GIVEN>SEMANAS_GESTACAO_PARTO</GIVEN>
      <TABLE>0.8751653153930194 0.06733367833937094 0.057501006267609685 0.1280436607892527 0.8180625524769101 0.05389378673383711 0.032481414122076516 0.09192431639067036 0.8755942694872532 </TABLE>
    </DEFINITION>
    <DEFINITION>
      <FOR>IDADE_MATERNA</FOR>
      <GIVEN>A_GESTA</GIVEN>
      <TABLE>0.3925755657716481 0.37315388544650985 0.23427054878184198 0.3297065611605671 0.3297065611605671 0.34058687767886586 0.3297065611605671 0.3297065611605671 0.34058687767886586 0.23548895477735926 0.36638886662927045 0.3981221785933702 0.21172620520859115 0.32062811099194233 0.4676456837994664 0.18775847808105872 0.35542951671983924 0.4568120051991019 0.18233813772592083 0.3484328528940746 0.46922900938000456 0.2045672615620802 0.2995586259834964 0.4958741124544233 0.26602819898909286 0.30114392125565315 0.43282787975525405 0.3041813898704358 0.35276796230859836 0.3430506478209659 0.315955766192733 0.3576619273301738 0.3263823064770932 </TABLE>
    </DEFINITION>
    <DEFINITION>
      <FOR>IMC</FOR>
      <GIVEN>PESO_INICIAL</GIVEN>
      <GIVEN>VIGIADA_NESTE_HOSPITAL</GIVEN>
      <TABLE>0.793480687653494 0.17409019870506806 0.032429113641437815 0.6122556788166931 0.25092445853143164 0.13681986265187535 0.22238002248653763 0.610627847801645 0.16699212971181723 0.17307372274920954 0.7047761690797137 0.12215010817107673 0.03225160256410256 0.16160857371794868 0.8061398237179487 0.15856697819314644 0.24267912772585673 0.5987538940809969 </TABLE>
    </DEFINITION>
    <DEFINITION>
      <FOR>NUMERO_CONSULTAS_PRE_NATAL</FOR>
      <GIVEN>ESTIMATIVA_PESO_ECO_30</GIVEN>
      <GIVEN>VIGIADA_NESTE_HOSPITAL</GIVEN>
      <TABLE>0.18124585818422795 0.32239893969516237 0.49635520212060963 0.31004901960784315 0.383578431372549 0.3063725490196078 0.3572787509020534 0.22620219116971724 0.4165190579282294 0.09576584256891162 0.7632850241545894 0.140949133276499 </TABLE>
    </DEFINITION>
    <DEFINITION>
      <FOR>PESO_INICIAL</FOR>
      <GIVEN>VIGIADA_NESTE_HOSPITAL</GIVEN>
      <TABLE>0.3270357592683862 0.30847160615519414 0.36449263457641967 0.291118800461361 0.4620530565167243 0.2468281430219146 </TABLE>
    </DEFINITION>
    <DEFINITION>
      <FOR>SEMANAS_GESTACAO_PARTO</FOR>
      <GIVEN>GRUPO_ROBSON</GIVEN>
      <TABLE>0.18069172827207747 0.3035355388944232 0.5157727328334993 0.8682499293186317 0.07520497596833475 0.05654509471303365 0.18336863831405137 0.22817880614849817 0.5884525555374504 0.2053324295317178 0.21372083827599841 0.5809467321922837 0.17886900985492535 0.32263249164657615 0.4984984984984984 0.16372188139059304 0.305439672801636 0.530838445807771 0.2237306430854818 0.31004276165566486 0.4662265952588533 0.4315969085616782 0.43490916390645384 0.1334939275318679 0.3989091831557585 0.3654236428209031 0.2356671740233384 0.33692106979778214 0.3261578604044358 0.33692106979778214 0.3546305259761214 0.32268473701193934 0.32268473701193934 </TABLE>
    </DEFINITION>
    <DEFINITION>
      <FOR>TIPO_GRAVIDEZ</FOR>
      <GIVEN>VIGIADA_CENTRO_SAUDE</GIVEN>
      <TABLE>0.5727294228949857 0.01623107852412488 0.01767975402081362 0.015817171239356668 0.01561021759697256 0.016644985808893092 0.34528736991485326 0.5086772486772486 0.031269841269841274 0.08645502645502647 0.04830687830687831 0.03756613756613757 0.045714285714285714 0.242010582010582 </TABLE>
    </DEFINITION>
    <DEFINITION>
      <FOR>TIPO_PARTO</FOR>
      <GIVEN>GRUPO_ROBSON</GIVEN>
      <TABLE>0.18752512277390376 0.008738356140442861 0.0295006903301351 0.3438193607018648 0.4216781139132107 0.008738356140442861 0.2951088493073226 0.028272547356516825 0.037602487984167376 0.149561775515974 0.4611817924795024 0.028272547356516825 0.2960186844821031 0.027157677475422304 0.03970452446906741 0.20281353538645377 0.4071479007115312 0.027157677475422304 0.4083771112240863 0.014121900242896687 0.0234423544032085 0.27509461673162744 0.26484211715528444 0.014121900242896687 0.060821384765046727 0.010573954235926065 0.014761240113352787 0.11106881529416739 0.7922006513555808 0.010573954235926065 0.31603271983640085 0.02044989775051125 0.02584867075664622 0.12302658486707567 0.4941922290388548 0.02044989775051125 0.4249180055631669 0.02075808527421431 0.037198488811392046 0.22489309586083786 0.27147423921617475 0.02075808527421431 0.7358225434106194 0.05349794238683128 0.050185687042055616 0.050185687042055616 0.050185687042055616 0.06012245307638262 0.6410451547437849 0.06341958396752917 0.06341958396752917 0.06341958396752917 0.06341958396752917 0.10527650938609842 0.16307893020221786 0.16307893020221786 0.16307893020221786 0.16307893020221786 0.18460534898891062 0.16307893020221786 0.19328815747015166 0.16134236850596967 0.16134236850596967 0.16134236850596967 0.16134236850596967 0.16134236850596967 </TABLE>
    </DEFINITION>
    <DEFINITION>
      <FOR>TRAB_PARTO_ENTRADA_ESPONTANEO</FOR>
      <GIVEN>TRAB_PARTO_NO_PARTO</GIVEN>
      <TABLE>0.07876230661040788 0.9212376933895922 0.547741273100616 0.45225872689938396 0.12191103789126853 0.8780889621087314 0.19112627986348124 0.8088737201365188 0.4722222222222222 0.5277777777777778 0.06500802568218299 0.934991974317817 0.33962264150943394 0.660377358490566 0.49514563106796117 0.5048543689320388 0.4854368932038835 0.5145631067961165 0.2908496732026144 0.7091503267973857 </TABLE>
    </DEFINITION>
    <DEFINITION>
      <FOR>TRAB_PARTO_NO_PARTO</FOR>
      <GIVEN>GRUPO_ROBSON</GIVEN>
      <TABLE>0.005243013684265719 0.952812876841609 0.005243013684265719 0.005243013684265719 0.005243013684265719 0.005243013684265719 0.005243013684265719 0.005243013684265719 0.005243013684265719 0.005243013684265719 0.17557251908396948 0.4778625954198473 0.07480916030534351 0.041221374045801534 0.016963528413910096 0.1251908396946565 0.018829516539440205 0.016963528413910096 0.016963528413910096 0.0356234096692112 0.03780348704578784 0.05035033403943295 0.7924067133778717 0.01629460648525338 0.01629460648525338 0.019879419912009123 0.018087013198631253 0.01629460648525338 0.01629460648525338 0.01629460648525338 0.09515336383663785 0.012201321809862735 0.01499745805795628 0.016861548890018643 0.010337230977800373 0.7009828842569056 0.04482291137095407 0.00847314014573801 0.009405185561769192 0.08676495509235722 0.006344372541555644 0.9429006471259997 0.006344372541555644 0.006344372541555644 0.006344372541555644 0.006344372541555644 0.006344372541555644 0.006344372541555644 0.006344372541555644 0.006344372541555644 0.17288343558282207 0.01361963190184049 0.020368098159509202 0.11484662576687116 0.016319018404907976 0.4630674846625766 0.03386503067484663 0.014969325153374232 0.012269938650306749 0.13779141104294476 0.11794744052808566 0.5741686386847675 0.049445759123178466 0.13986797857765595 0.016564952048823012 0.02204508656121559 0.013824884792626725 0.013824884792626725 0.01519491842072487 0.037115456470295176 0.5004516711833786 0.25203252032520335 0.033423667570009044 0.030111412225233374 0.030111412225233374 0.033423667570009044 0.030111412225233374 0.030111412225233374 0.030111412225233374 0.030111412225233374 0.37709284627092843 0.29756468797564684 0.04223744292237443 0.04642313546423135 0.0380517503805175 0.0380517503805175 0.04223744292237443 0.0380517503805175 0.0380517503805175 0.04223744292237443 0.09784735812133072 0.09784735812133072 0.1086105675146771 0.09784735812133072 0.09784735812133072 0.1086105675146771 0.09784735812133072 0.09784735812133072 0.09784735812133072 0.09784735812133072 0.1181026137463698 0.10745401742497579 0.0968054211035818 0.0968054211035818 0.0968054211035818 0.0968054211035818 0.0968054211035818 0.0968054211035818 0.0968054211035818 0.0968054211035818 </TABLE>
    </DEFINITION>
    <DEFINITION>
      <FOR>VIGIADA</FOR>
      <GIVEN>VIGIADA_NESTE_HOSPITAL</GIVEN>
      <TABLE>0.02738075680411806 0.9452384863917638 0.02738075680411806 0.1499423298731257 0.7277970011534025 0.12226066897347171 </TABLE>
    </DEFINITION>
    <DEFINITION>
      <FOR>VIGIADA_CENTRO_SAUDE</FOR>
      <GIVEN>IDADE_MATERNA</GIVEN>
      <GIVEN>VIGIADA</GIVEN>
      <TABLE>0.4022526146419952 0.5977473853580049 0.7529910558717621 0.24700894412823785 0.47438330170777987 0.5256166982922201 0.43029259896729777 0.5697074010327022 0.6697226886942313 0.3302773113057686 0.4911591355599214 0.5088408644400786 0.4784688995215311 0.5215311004784688 0.5803973269082148 0.4196026730917852 0.4911591355599214 0.5088408644400786 </TABLE>
    </DEFINITION>
    <DEFINITION>
      <FOR>VIGIADA_NESTE_HOSPITAL</FOR>
      <GIVEN>IDADE_MATERNA</GIVEN>
      <GIVEN>SEMANAS_GESTACAO_PARTO</GIVEN>
      <TABLE>0.5759580291970803 0.4240419708029197 0.7289841565703635 0.2710158434296365 0.8787630554986688 0.12123694450133114 0.6477024070021882 0.3522975929978118 0.7945764688730136 0.20542353112698644 0.8970472268465784 0.10295277315342151 0.7369091423719218 0.2630908576280781 0.856996487119438 0.14300351288056207 0.9020862035032474 0.09791379649675261 </TABLE>
    </DEFINITION>
  </NETWORK>
</BIF>
