net 
{ 
}
node APRESENTACAO_ADMISSAO 
{
  states = ( "0_0" "1_0" "2_0" "3_0" "4_0" "5_0" "6_0" );
}
node APRESENTACAO_NO_PARTO 
{
  states = ( "0_0" "1_0" "2_0" "3_0" "4_0" );
}
node A_GESTA 
{
  states = ( "0_0" "1_0" "2_0" );
}
node A_PARA 
{
  states = ( "0_0" "1_0" );
}
node CESARIANAS_ANTERIOR 
{
  states = ( "0_0" "1_0" );
}
node EUTOCITO_ANTERIOR 
{
  states = ( "0_0" "1_0" );
}
node GRUPO_ROBSON 
{
  states = ( "0_0" "1_0" "2_0" "3_0" "4_0" "5_0" "6_0" "7_0" "8_0" "9_0" "10_0" );
}
node GS 
{
  states = ( "0_0" "1_0" "2_0" "3_0" "4_0" "5_0" "6_0" "7_0" "8_0" "9_0" "10_0" "11_0" "12_0" "13_0" );
}
node IDADE_GESTACIONAL_ADMISSAO 
{
  states = ( "0_0" "1_0" "2_0" "3_0" "4_0" );
}
node IDADE_MATERNA 
{
  states = ( "0_0" "1_0" "2_0" "3_0" "4_0" );
}
node IMC 
{
  states = ( "0_0" "1_0" "2_0" "3_0" "4_0" );
}
node NUMERO_CONSULTAS_PRE_NATAL 
{
  states = ( "0_0" "1_0" "2_0" "3_0" );
}
node PESO_INICIAL 
{
  states = ( "0_0" "1_0" "2_0" "3_0" "4_0" );
}
node SEMANAS_GESTACAO_PARTO 
{
  states = ( "0_0" "1_0" "2_0" "3_0" "4_0" );
}
node TIPO_GRAVIDEZ 
{
  states = ( "0_0" "1_0" "2_0" "3_0" "4_0" "5_0" "6_0" );
}
node TIPO_PARTO 
{
  states = ( "0_0" "1_0" "2_0" "3_0" "4_0" "5_0" "6_0" "7_0" );
}
node TRAB_PARTO_ENTRADA_ESPONTANEO 
{
  states = ( "0_0" "1_0" );
}
node TRAB_PARTO_NO_PARTO 
{
  states = ( "0_0" "1_0" "2_0" "3_0" "4_0" "5_0" "6_0" "7_0" "8_0" "9_0" "10_0" );
}
node VIGIADA 
{
  states = ( "0_0" "1_0" "2_0" "3_0" );
}
node VIGIADA_CENTRO_SAUDE 
{
  states = ( "0_0" "1_0" );
}
node VIGIADA_NESTE_HOSPITAL 
{
  states = ( "0_0" "1_0" );
}
node VIGIADA_PARICULAR 
{
  states = ( "0_0" "1_0" );
}
node silo 
{
  states = ( "0_0" "1_0" "2_0" "3_0" "4_0" "5_0" "6_0" "7_0" "8_0" );
}
potential ( APRESENTACAO_ADMISSAO | APRESENTACAO_NO_PARTO CESARIANAS_ANTERIOR silo ) 
{
  data = ((((0.6666667 0.3333333 0.0000000 0.0000000 0.0000000 0.0000000 0.0000000)(0.585365854 0.413573701 0.000000000 0.000000000 0.000000000 0.001060445 0.000000000)(0.5 0.5 0.0 0.0 0.0 0.0 0.0)(1.0 0.0 0.0 0.0 0.0 0.0 0.0)(0.5451192525 0.4511925252 0.0004917630 0.0007376445 0.0000000000 0.0024588149 0.0000000000)(0.7805989583 0.2174479167 0.0000000000 0.0000000000 0.0000000000 0.0013020833 0.0006510417)(0.27400768 0.72343150 0.00000000 0.00128041 0.00000000 0.00128041 0.00000000)(0.7989691 0.2010309 0.0000000 0.0000000 0.0000000 0.0000000 0.0000000)(0.7529586 0.2470414 0.0000000 0.0000000 0.0000000 0.0000000 0.0000000))((0.8713307241 0.1276908023 0.0000000000 0.0001630789 0.0000000000 0.0006523157 0.0001630789)(0.7907383832 0.2065563335 0.0003182686 0.0007956715 0.0000000000 0.0009548059 0.0006365372)(0.4529746282 0.5426509186 0.0004374453 0.0015310586 0.0000000000 0.0015310586 0.0008748906)(0.96134831 0.03865169 0.00000000 0.00000000 0.00000000 0.00000000 0.00000000)(0.7678491 0.2302649 0.001796138 0.007184553 0.000000 0.008980692 0.0008980692)(0.8473816552 0.1507598120 0.0001093255 0.0002186509 0.0000000000 0.0007652782 0.0007652782)(0.3481186907 0.6503517895 0.0001529520 0.0000000000 0.0003059039 0.0010706638 0.0000000000)(0.8869239014 0.1125401929 0.0000000000 0.0003572705 0.0000000000 0.0001786352 0.0000000000)(0.7430555556 0.2558760684 0.0000000000 0.0002136752 0.0000000000 0.0008547009 0.0000000000)))(((0.1428571 0.1428571 0.1428571 0.1428571 0.1428571 0.1428571 0.1428571)(0.5 0.0 0.5 0.0 0.0 0.0 0.0)(0.1428571 0.1428571 0.1428571 0.1428571 0.1428571 0.1428571 0.1428571)(0.1428571 0.1428571 0.1428571 0.1428571 0.1428571 0.1428571 0.1428571)(0.0 0.0 0.0 1.0 0.0 0.0 0.0)(1.0 0.0 0.0 0.0 0.0 0.0 0.0)(1.0 0.0 0.0 0.0 0.0 0.0 0.0)(0.1428571 0.1428571 0.1428571 0.1428571 0.1428571 0.1428571 0.1428571)(0.1428571 0.1428571 0.1428571 0.1428571 0.1428571 0.1428571 0.1428571))((1.0 0.0 0.0 0.0 0.0 0.0 0.0)(0.8750 0.0625 0.0000 0.0000 0.0000 0.0625 0.0000)(0.6666667 0.0000000 0.0000000 0.0000000 0.0000000 0.3333333 0.0000000)(1.0 0.0 0.0 0.0 0.0 0.0 0.0)(0.750 0.125 0.000 0.000 0.000 0.000 0.125)(0.7142857 0.0000000 0.0000000 0.0000000 0.0000000 0.0000000 0.2857143)(0.625 0.125 0.000 0.125 0.000 0.000 0.125)(1.0 0.0 0.0 0.0 0.0 0.0 0.0)(0.8333333 0.0000000 0.0000000 0.1666667 0.0000000 0.0000000 0.0000000)))(((0.1428571 0.1428571 0.1428571 0.1428571 0.1428571 0.1428571 0.1428571)(1.0 0.0 0.0 0.0 0.0 0.0 0.0)(0.1428571 0.1428571 0.1428571 0.1428571 0.1428571 0.1428571 0.1428571)(0.1428571 0.1428571 0.1428571 0.1428571 0.1428571 0.1428571 0.1428571)(1.0 0.0 0.0 0.0 0.0 0.0 0.0)(1.0 0.0 0.0 0.0 0.0 0.0 0.0)(0.0 1.0 0.0 0.0 0.0 0.0 0.0)(0.1428571 0.1428571 0.1428571 0.1428571 0.1428571 0.1428571 0.1428571)(1.0 0.0 0.0 0.0 0.0 0.0 0.0))((1.0 0.0 0.0 0.0 0.0 0.0 0.0)(0.8181818 0.1818182 0.0000000 0.0000000 0.0000000 0.0000000 0.0000000)(0.3333333 0.6666667 0.0000000 0.0000000 0.0000000 0.0000000 0.0000000)(1.0 0.0 0.0 0.0 0.0 0.0 0.0)(0.6 0.4 0.0 0.0 0.0 0.0 0.0)(1.0 0.0 0.0 0.0 0.0 0.0 0.0)(0.6666667 0.0000000 0.0000000 0.0000000 0.0000000 0.3333333 0.0000000)(0.8 0.2 0.0 0.0 0.0 0.0 0.0)(0.875 0.125 0.000 0.000 0.000 0.000 0.000)))(((0.1428571 0.1428571 0.1428571 0.1428571 0.1428571 0.1428571 0.1428571)(0.6206897 0.0000000 0.0000000 0.0000000 0.0000000 0.3793103 0.0000000)(0.1428571 0.1428571 0.1428571 0.1428571 0.1428571 0.1428571 0.1428571)(0.1428571 0.1428571 0.1428571 0.1428571 0.1428571 0.1428571 0.1428571)(0.573529412 0.022058824 0.000000000 0.000000000 0.000000000 0.397058824 0.007352941)(0.87755102 0.01020408 0.00000000 0.00000000 0.00000000 0.11224490 0.00000000)(0.35897436 0.05128205 0.00000000 0.00000000 0.00000000 0.58974359 0.00000000)(1.0 0.0 0.0 0.0 0.0 0.0 0.0)(0.7777778 0.0000000 0.0000000 0.0000000 0.0000000 0.2222222 0.0000000))((0.91364903 0.01114206 0.00000000 0.00000000 0.00000000 0.07520891 0.00000000)(0.83727811 0.00591716 0.00000000 0.00000000 0.00000000 0.15384615 0.00295858)(0.640350877 0.030701754 0.000000000 0.000000000 0.000000000 0.324561404 0.004385965)(0.92391304 0.01086957 0.00000000 0.00000000 0.00000000 0.06521739 0.00000000)(0.881201044 0.013054830 0.000000000 0.000000000 0.000000000 0.100522193 0.005221932)(0.904530744 0.009708738 0.000000000 0.000000000 0.000000000 0.085760518 0.000000000)(0.484764543 0.052631579 0.000000000 0.008310249 0.000000000 0.448753463 0.005540166)(0.951612903 0.003225806 0.000000000 0.000000000 0.000000000 0.041935484 0.003225806)(0.68442623 0.04303279 0.00000000 0.00204918 0.00000000 0.27049180 0.00000000)))(((0.1428571 0.1428571 0.1428571 0.1428571 0.1428571 0.1428571 0.1428571)(0.1428571 0.1428571 0.1428571 0.1428571 0.1428571 0.1428571 0.1428571)(0.1428571 0.1428571 0.1428571 0.1428571 0.1428571 0.1428571 0.1428571)(0.1428571 0.1428571 0.1428571 0.1428571 0.1428571 0.1428571 0.1428571)(1.0 0.0 0.0 0.0 0.0 0.0 0.0)(1.0 0.0 0.0 0.0 0.0 0.0 0.0)(1.0 0.0 0.0 0.0 0.0 0.0 0.0)(1.0 0.0 0.0 0.0 0.0 0.0 0.0)(0.1428571 0.1428571 0.1428571 0.1428571 0.1428571 0.1428571 0.1428571))((0.8636364 0.1363636 0.0000000 0.0000000 0.0000000 0.0000000 0.0000000)(1.0 0.0 0.0 0.0 0.0 0.0 0.0)(0.4 0.0 0.0 0.0 0.0 0.6 0.0)(0.8888889 0.1111111 0.0000000 0.0000000 0.0000000 0.0000000 0.0000000)(1.0 0.0 0.0 0.0 0.0 0.0 0.0)(0.90243902 0.07317073 0.00000000 0.00000000 0.00000000 0.02439024 0.00000000)(0.25 0.75 0.00 0.00 0.00 0.00 0.00)(1.0 0.0 0.0 0.0 0.0 0.0 0.0)(0.87500000 0.04166667 0.00000000 0.00000000 0.00000000 0.08333333 0.00000000)))) ;
}
potential ( APRESENTACAO_NO_PARTO | GRUPO_ROBSON ) 
{
  data = ((1.0 0.0 0.0 0.0 0.0)(1.0 0.0 0.0 0.0 0.0)(1.0 0.0 0.0 0.0 0.0)(1.0 0.0 0.0 0.0 0.0)(1.0 0.0 0.0 0.0 0.0)(1.0 0.0 0.0 0.0 0.0)(0.0 0.0 0.0 1.0 0.0)(0.0 0.0 0.0 1.0 0.0)(0.94736842 0.00000000 0.00000000 0.05263158 0.00000000)(0.0 1.0 0.0 0.0 0.0)(0.9309921415 0.0002455796 0.0176817289 0.0203831041 0.0306974460)) ;
}
potential ( A_GESTA | A_PARA CESARIANAS_ANTERIOR GRUPO_ROBSON ) 
{
  data = ((((0.000825423 0.800660338 0.198514239)(0.004016064 0.718875502 0.277108434)(0.002597403 0.778354978 0.219047619)(0.0 1.0 0.0)(0.0 0.5 0.5)(0.0 1.0 0.0)(0.0000000 0.8088235 0.1911765)(0.3333333 0.3333333 0.3333333)(0.0000000 0.7692308 0.2307692)(0.0 0.5 0.5)(0.000000 0.822314 0.177686))((0.0005760369 0.8732718894 0.1261520737)(0.0000000 0.8366667 0.1633333)(0.0000000 0.8549757 0.1450243)(0.0 1.0 0.0)(0.0 1.0 0.0)(0.3333333 0.3333333 0.3333333)(0.000000 0.846395 0.153605)(0.3333333 0.3333333 0.3333333)(0.0 1.0 0.0)(0.0 1.0 0.0)(0.000000 0.804428 0.195572)))(((0.0 0.0 1.0)(0.00000000 0.01428571 0.98571429)(0.0 0.6 0.4)(0.000000000 0.002446697 0.997553303)(0.000000000 0.003685504 0.996314496)(0.3333333 0.3333333 0.3333333)(0.3333333 0.3333333 0.3333333)(0.0 0.0 1.0)(0.0 0.0 1.0)(0.0 0.0 1.0)(0.000000000 0.007936508 0.992063492))((0.0001424197 0.8300932849 0.1697642954)(0.000000 0.427752 0.572248)(0.0003170912 0.8056230842 0.1940598245)(0.000000000 0.001093835 0.998906165)(0.000000000 0.001306762 0.998693238)(0.000000000 0.001780944 0.998219056)(0.0005546312 0.8175263450 0.1819190238)(0.0000000000 0.0007326007 0.9992673993)(0.0000000 0.2352941 0.7647059)(0.0000000 0.1666667 0.8333333)(0.000000 0.417599 0.582401)))) ;
}
potential ( A_PARA | GRUPO_ROBSON silo ) 
{
  data = (((0.06999391 0.93000609)(0.1427685 0.8572315)(0.4227156 0.5772844)(0.2236025 0.7763975)(0.3657726 0.6342274)(0.2857593 0.7142407)(0.1731253 0.8268747)(0.1918009 0.8081991)(0.0795968 0.9204032))((0.05842697 0.94157303)(0.1230769 0.8769231)(0.2508591 0.7491409)(0.04651163 0.95348837)(0.1656704 0.8343296)(0.1142473 0.8857527)(0.1098266 0.8901734)(0.1330166 0.8669834)(0.04745167 0.95254833))((0.07331976 0.92668024)(0.1424196 0.8575804)(0.4128959 0.5871041)(0.1052632 0.8947368)(0.349541 0.650459)(0.2798574 0.7201426)(0.1689587 0.8310413)(0.2084885 0.7915115)(0.08901515 0.91098485))((0.0 1.0)(0.000672043 0.999327957)(0.0 1.0)(0.0 1.0)(0.0002773925 0.9997226075)(0.0 1.0)(0.0 1.0)(0.0 1.0)(0.0 1.0))((0.0 1.0)(0.0 1.0)(0.003460208 0.996539792)(0.0 1.0)(0.0005467469 0.9994532531)(0.001515152 0.998484848)(0.0 1.0)(0.0 1.0)(0.0 1.0))((0.0 1.0)(0.0 1.0)(0.0 1.0)(0.0 1.0)(0.0007092199 0.9992907801)(0.0 1.0)(0.001005025 0.998994975)(0.0 1.0)(0.0 1.0))((0.09478673 0.90521327)(0.1173709 0.8826291)(0.5413534 0.4586466)(0.1875 0.8125)(0.3543046 0.6456954)(0.2370203 0.7629797)(0.1447368 0.8552632)(0.1782178 0.8217822)(0.05434783 0.94565217))((0.0 1.0)(0.0 1.0)(0.0 1.0)(0.0 1.0)(0.0 1.0)(0.0 1.0)(0.0 1.0)(0.0 1.0)(0.0 1.0))((0.0 1.0)(0.0 1.0)(0.5 0.5)(0.0 1.0)(0.1428571 0.8571429)(0.4782609 0.5217391)(0.2222222 0.7777778)(0.25 0.75)(0.3 0.7))((0.0 1.0)(0.1111111 0.8888889)(0.6666667 0.3333333)(0.5 0.5)(0.2222222 0.7777778)(0.25 0.75)(0.0 1.0)(0.0 1.0)(0.0 1.0))((0.02997859 0.97002141)(0.2918108 0.7081892)(0.1333333 0.8666667)(0.08647215 0.91352785)(0.2 0.8)(0.08030593 0.91969407)(0.06666667 0.93333333)(0.1230769 0.8769231)(0.1090909 0.8909091))) ;
}
potential ( CESARIANAS_ANTERIOR | A_PARA GRUPO_ROBSON silo ) 
{
  data = ((((0.008695652 0.991304348)(0.4434783 0.5565217)(0.002020202 0.997979798)(0.0 1.0)(0.90590526 0.09409474)(0.615215 0.384785)(0.6017442 0.3982558)(0.1068702 0.8931298)(0.5676856 0.4323144))((0.0 1.0)(0.3541667 0.6458333)(0.0 1.0)(0.0 1.0)(0.8041237 0.1958763)(0.4823529 0.5176471)(0.5789474 0.4210526)(0.01785714 0.98214286)(0.4444444 0.5555556))((0.0 1.0)(0.3978495 0.6021505)(0.002739726 0.997260274)(0.5 0.5)(0.5233463 0.4766537)(0.581741 0.418259)(0.6046512 0.3953488)(0.1107143 0.8892857)(0.5673759 0.4326241))((0.5 0.5)(0.0 1.0)(0.5 0.5)(0.5 0.5)(1.0 0.0)(0.5 0.5)(0.5 0.5)(0.5 0.5)(0.5 0.5))((0.5 0.5)(0.5 0.5)(0.0 1.0)(0.5 0.5)(1.0 0.0)(1.0 0.0)(0.5 0.5)(0.5 0.5)(0.5 0.5))((0.5 0.5)(0.5 0.5)(0.5 0.5)(0.5 0.5)(1.0 0.0)(0.5 0.5)(1.0 0.0)(0.5 0.5)(0.5 0.5))((0.0 1.0)(0.28 0.72)(0.0 1.0)(0.0 1.0)(0.4626168 0.5373832)(0.6380952 0.3619048)(0.6060606 0.3939394)(0.05555556 0.94444444)(0.6 0.4))((0.5 0.5)(0.5 0.5)(0.5 0.5)(0.5 0.5)(0.5 0.5)(0.5 0.5)(0.5 0.5)(0.5 0.5)(0.5 0.5))((0.5 0.5)(0.5 0.5)(0.5 0.5)(0.5 0.5)(1.0 0.0)(0.6363636 0.3636364)(1.0 0.0)(0.0 1.0)(1.0 0.0))((0.5 0.5)(0.5 0.5)(0.0 1.0)(0.5 0.5)(0.0 1.0)(0.5 0.5)(0.5 0.5)(0.5 0.5)(0.5 0.5))((0.0 1.0)(0.8972332 0.1027668)(0.0 1.0)(0.006134969 0.993865031)(0.7142857 0.2857143)(0.04761905 0.95238095)(1.0 0.0)(0.04166667 0.95833333)(0.6666667 0.3333333)))(((0.0 1.0)(0.0 1.0)(0.0 1.0)(0.0 1.0)(0.0003742515 0.9996257485)(0.0 1.0)(0.0 1.0)(0.0 1.0)(0.0 1.0))((0.0 1.0)(0.03508772 0.96491228)(0.0 1.0)(0.0 1.0)(0.111566 0.888434)(0.06828528 0.93171472)(0.05519481 0.94480519)(0.01369863 0.98630137)(0.04059041 0.95940959))((0.0 1.0)(0.0 1.0)(0.0 1.0)(0.0 1.0)(0.001568217 0.998431783)(0.0008250825 0.9991749175)(0.0007880221 0.9992119779)(0.0 1.0)(0.0 1.0))((0.0007451565 0.9992548435)(0.1499664 0.8500336)(0.003659652 0.996340348)(0.007352941 0.992647059)(0.4214761 0.5785239)(0.1936153 0.8063847)(0.1545012 0.8454988)(0.07058824 0.92941176)(0.1106803 0.8893197))((0.001538462 0.998461538)(0.1329562 0.8670438)(0.0 1.0)(0.0 1.0)(0.1810722 0.8189278)(0.1729894 0.8270106)(0.1476846 0.8523154)(0.06144578 0.93855422)(0.1193182 0.8806818))((0.0 1.0)(0.0 1.0)(0.0 1.0)(0.0 1.0)(0.0 1.0)(0.0 1.0)(0.0 1.0)(0.0 1.0)(0.0 1.0))((0.0 1.0)(0.0 1.0)(0.0 1.0)(0.0 1.0)(0.0 1.0)(0.0 1.0)(0.0 1.0)(0.0 1.0)(0.0 1.0))((0.0 1.0)(0.07142857 0.92857143)(0.0 1.0)(0.0 1.0)(0.1241611 0.8758389)(0.1115242 0.8884758)(0.1104651 0.8895349)(0.01785714 0.98214286)(0.07627119 0.92372881))((0.0 1.0)(0.0 1.0)(0.5 0.5)(0.0 1.0)(0.1666667 0.8333333)(0.0 1.0)(0.2857143 0.7142857)(0.0 1.0)(0.2857143 0.7142857))((0.0 1.0)(0.0625 0.9375)(0.0 1.0)(0.5 0.5)(0.1428571 0.8571429)(0.0 1.0)(0.1111111 0.8888889)(0.0 1.0)(0.0 1.0))((0.0 1.0)(0.3387622 0.6612378)(0.0 1.0)(0.00116144 0.99883856)(0.2142857 0.7857143)(0.06029106 0.93970894)(0.07142857 0.92857143)(0.0 1.0)(0.1020408 0.8979592)))) ;
}
potential ( EUTOCITO_ANTERIOR | A_PARA CESARIANAS_ANTERIOR GRUPO_ROBSON silo ) 
{
  data = (((((1.0 0.0)(1.0 0.0)(1.0 0.0)(0.5 0.5)(0.9992836676 0.0007163324)(1.0 0.0)(1.0 0.0)(1.0 0.0)(1.0 0.0))((0.5 0.5)(1.0 0.0)(0.5 0.5)(0.5 0.5)(1.0 0.0)(1.0 0.0)(1.0 0.0)(1.0 0.0)(1.0 0.0))((0.5 0.5)(1.0 0.0)(1.0 0.0)(1.0 0.0)(1.0 0.0)(0.996350365 0.003649635)(0.993589744 0.006410256)(1.0 0.0)(1.0 0.0))((0.5 0.5)(0.5 0.5)(0.5 0.5)(0.5 0.5)(1.0 0.0)(0.5 0.5)(0.5 0.5)(0.5 0.5)(0.5 0.5))((0.5 0.5)(0.5 0.5)(0.5 0.5)(0.5 0.5)(1.0 0.0)(1.0 0.0)(0.5 0.5)(0.5 0.5)(0.5 0.5))((0.5 0.5)(0.5 0.5)(0.5 0.5)(0.5 0.5)(1.0 0.0)(0.5 0.5)(1.0 0.0)(0.5 0.5)(0.5 0.5))((0.5 0.5)(1.0 0.0)(0.5 0.5)(0.5 0.5)(1.0 0.0)(0.98507463 0.01492537)(1.0 0.0)(1.0 0.0)(1.0 0.0))((0.5 0.5)(0.5 0.5)(0.5 0.5)(0.5 0.5)(0.5 0.5)(0.5 0.5)(0.5 0.5)(0.5 0.5)(0.5 0.5))((0.5 0.5)(0.5 0.5)(0.5 0.5)(0.5 0.5)(1.0 0.0)(1.0 0.0)(1.0 0.0)(0.5 0.5)(1.0 0.0))((0.5 0.5)(1.0 0.0)(0.5 0.5)(0.5 0.5)(0.5 0.5)(1.0 0.0)(0.5 0.5)(0.5 0.5)(0.5 0.5))((0.5 0.5)(1.0 0.0)(0.5 0.5)(1.0 0.0)(1.0 0.0)(1.0 0.0)(1.0 0.0)(1.0 0.0)(1.0 0.0)))(((0.0 1.0)(0.0 1.0)(0.0 1.0)(0.0 1.0)(0.1448276 0.8551724)(0.01432665 0.98567335)(0.0 1.0)(0.0 1.0)(0.0 1.0))((0.0 1.0)(0.0 1.0)(0.0 1.0)(0.0 1.0)(0.3421053 0.6578947)(0.04545455 0.95454545)(0.0 1.0)(0.01818182 0.98181818)(0.0 1.0))((0.0 1.0)(0.0 1.0)(0.0 1.0)(0.0 1.0)(0.8530612 0.1469388)(0.03045685 0.96954315)(0.0 1.0)(0.004016064 0.995983936)(0.0 1.0))((0.5 0.5)(0.0 1.0)(0.5 0.5)(0.5 0.5)(0.5 0.5)(0.5 0.5)(0.5 0.5)(0.5 0.5)(0.5 0.5))((0.5 0.5)(0.5 0.5)(0.0 1.0)(0.5 0.5)(0.5 0.5)(0.5 0.5)(0.5 0.5)(0.5 0.5)(0.5 0.5))((0.5 0.5)(0.5 0.5)(0.5 0.5)(0.5 0.5)(0.5 0.5)(0.5 0.5)(0.5 0.5)(0.5 0.5)(0.5 0.5))((0.0 1.0)(0.0 1.0)(0.0 1.0)(0.0 1.0)(0.8521739 0.1478261)(0.05263158 0.94736842)(0.07692308 0.92307692)(0.05882353 0.94117647)(0.0 1.0))((0.5 0.5)(0.5 0.5)(0.5 0.5)(0.5 0.5)(0.5 0.5)(0.5 0.5)(0.5 0.5)(0.5 0.5)(0.5 0.5))((0.5 0.5)(0.5 0.5)(0.5 0.5)(0.5 0.5)(0.5 0.5)(0.0 1.0)(0.5 0.5)(0.0 1.0)(0.5 0.5))((0.5 0.5)(0.0 1.0)(0.0 1.0)(0.5 0.5)(1.0 0.0)(0.0 1.0)(0.5 0.5)(0.5 0.5)(0.5 0.5))((0.0 1.0)(0.0 1.0)(0.0 1.0)(0.0 1.0)(0.5 0.5)(0.025 0.975)(0.5 0.5)(0.0 1.0)(0.0 1.0))))((((0.5 0.5)(0.5 0.5)(0.5 0.5)(0.5 0.5)(0.0 1.0)(0.5 0.5)(0.5 0.5)(0.5 0.5)(0.5 0.5))((0.5 0.5)(0.25 0.75)(0.5 0.5)(0.5 0.5)(0.2385321 0.7614679)(0.08888889 0.91111111)(0.1764706 0.8235294)(0.4 0.6)(0.1363636 0.8636364))((0.5 0.5)(0.5 0.5)(0.5 0.5)(0.5 0.5)(1.0 0.0)(0.0 1.0)(0.0 1.0)(0.5 0.5)(0.5 0.5))((0.0 1.0)(0.1838565 0.8161435)(0.25 0.75)(1.0 0.0)(0.2672811 0.7327189)(0.1584582 0.8415418)(0.1614173 0.8385827)(0.1923077 0.8076923)(0.2356688 0.7643312))((0.0 1.0)(0.1702128 0.8297872)(0.5 0.5)(0.5 0.5)(0.2809668 0.7190332)(0.1315789 0.8684211)(0.1949153 0.8050847)(0.3137255 0.6862745)(0.2 0.8))((0.5 0.5)(0.5 0.5)(0.5 0.5)(0.5 0.5)(0.5 0.5)(0.5 0.5)(0.5 0.5)(0.5 0.5)(0.5 0.5))((0.5 0.5)(0.5 0.5)(0.5 0.5)(0.5 0.5)(0.5 0.5)(0.5 0.5)(0.5 0.5)(0.5 0.5)(0.5 0.5))((0.5 0.5)(0.1 0.9)(0.5 0.5)(0.5 0.5)(0.2702703 0.7297297)(0.06666667 0.93333333)(0.2631579 0.7368421)(0.0 1.0)(0.2777778 0.7222222))((0.5 0.5)(0.5 0.5)(0.5 0.5)(0.5 0.5)(0.0 1.0)(0.5 0.5)(0.0 1.0)(0.5 0.5)(0.5 0.5))((0.5 0.5)(0.0 1.0)(0.5 0.5)(0.5 0.5)(0.0 1.0)(0.5 0.5)(0.0 1.0)(0.5 0.5)(0.5 0.5))((0.5 0.5)(0.1730769 0.8269231)(0.5 0.5)(0.0 1.0)(0.3333333 0.6666667)(0.2758621 0.7241379)(0.0 1.0)(0.5 0.5)(0.0 1.0)))(((0.0 1.0)(0.0 1.0)(0.0 1.0)(0.0 1.0)(0.0007487832 0.9992512168)(0.0004411116 0.9995588884)(0.0 1.0)(0.0 1.0)(0.0 1.0))((0.0 1.0)(0.01818182 0.98181818)(0.0 1.0)(0.0 1.0)(0.05299539 0.94700461)(0.01954397 0.98045603)(0.01718213 0.98281787)(0.002777778 0.997222222)(0.009615385 0.990384615))((0.0 1.0)(0.0 1.0)(0.0 1.0)(0.0 1.0)(0.0005235602 0.9994764398)(0.0 1.0)(0.0 1.0)(0.0 1.0)(0.0 1.0))((0.002237136 0.997762864)(0.003955696 0.996044304)(0.001836547 0.998163453)(0.007407407 0.992592593)(0.01390887 0.98609113)(0.001542416 0.998457584)(0.004316547 0.995683453)(0.004868549 0.995131451)(0.003567182 0.996432818))((0.001540832 0.998459168)(0.001631321 0.998368679)(0.003472222 0.996527778)(0.0 1.0)(0.2157649 0.7842351)(0.0 1.0)(0.002936858 0.997063142)(0.02695764 0.97304236)(0.00516129 0.99483871))((0.0 1.0)(0.1320542 0.8679458)(0.001805054 0.998194946)(0.0 1.0)(0.3612491 0.6387509)(0.2005242 0.7994758)(0.1619718 0.8380282)(0.05762082 0.94237918)(0.1015873 0.8984127))((0.0 1.0)(0.0 1.0)(0.0 1.0)(0.0 1.0)(0.0 1.0)(0.0 1.0)(0.0 1.0)(0.0 1.0)(0.0 1.0))((0.0 1.0)(0.03846154 0.96153846)(0.0 1.0)(0.0 1.0)(0.2145594 0.7854406)(0.07949791 0.92050209)(0.05228758 0.94771242)(0.02727273 0.97272727)(0.03211009 0.96788991))((0.0 1.0)(0.0 1.0)(0.5 0.5)(0.0 1.0)(0.0 1.0)(0.4166667 0.5833333)(0.2 0.8)(0.0 1.0)(0.0 1.0))((0.0 1.0)(0.0 1.0)(0.0 1.0)(0.5 0.5)(0.0 1.0)(0.3333333 0.6666667)(0.125 0.875)(0.0 1.0)(0.0 1.0))((0.0 1.0)(0.1182266 0.8817734)(0.0 1.0)(0.0 1.0)(0.1818182 0.8181818)(0.006637168 0.993362832)(0.07692308 0.92307692)(0.01754386 0.98245614)(0.04545455 0.95454545))))) ;
}
potential ( GRUPO_ROBSON | TIPO_PARTO ) 
{
  data = ((0.142150179 0.065899106 0.234004949 0.025602181 0.073423219 0.216179367 0.115184568 0.070898349 0.001262435 0.002928849 0.052466798)(0.0 0.0 0.0 0.0 0.0 0.0 0.6 0.4 0.0 0.0 0.0)(0.381773399 0.083743842 0.197044335 0.088669951 0.041871921 0.110837438 0.000000000 0.000000000 0.001231527 0.000000000 0.094827586)(0.4019587558 0.0364852748 0.2400855231 0.1039382026 0.0573142975 0.1043520243 0.0000000000 0.0000000000 0.0009655838 0.0000000000 0.0549003380)(0.2429975 0.06613590 0.1049451 0.3566661 0.1213937 0.05199958 5.255137e-05 7.882705e-05 4.466866e-04 2.627568e-05 5.525776e-02)(0.000000000 0.000000000 0.000000000 0.007874016 0.007874016 0.000000000 0.314960630 0.566929134 0.000000000 0.000000000 0.102362205)(0.0 0.0 0.0 0.0 0.0 0.0 0.0 0.0 0.0 0.0 1.0)(0.04347826 0.02173913 0.00000000 0.02173913 0.00000000 0.00000000 0.00000000 0.00000000 0.00000000 0.00000000 0.91304348)) ;
}
potential ( GS | VIGIADA ) 
{
  data = ((0.0 0.0 0.0 0.0 0.0 0.0 0.0 0.0 0.0 1.0 0.0 0.0 0.0 0.0)(0.0000000000 0.0000000000 0.0740025740 0.3854568855 0.0000000000 0.0057915058 0.0321750322 0.0000000000 0.0109395109 0.0823680824 0.0006435006 0.0553410553 0.3204633205 0.0328185328)(1.395401e-05 5.581603e-05 7.791918e-02 3.975636e-01 1.395401e-05 6.209533e-03 3.036392e-02 1.395401e-05 1.275396e-02 6.979795e-02 9.767805e-05 6.513731e-02 3.378963e-01 2.162871e-03)(0.00000000 0.00000000 0.09022556 0.27067669 0.00000000 0.00000000 0.05263158 0.00000000 0.01503759 0.09022556 0.00000000 0.05263158 0.32330827 0.10526316)) ;
}
potential ( IDADE_GESTACIONAL_ADMISSAO | SEMANAS_GESTACAO_PARTO TRAB_PARTO_ENTRADA_ESPONTANEO silo ) 
{
  data = ((((0.32970027 0.65667575 0.01362398 0.00000000 0.00000000)(0.85433071 0.13385827 0.01181102 0.00000000 0.00000000)(0.888888889 0.106060606 0.005050505 0.000000000 0.000000000)(0.78666667 0.10666667 0.09333333 0.00000000 0.01333333)(0.86314526 0.11284514 0.02160864 0.00120048 0.00120048)(0.846011132 0.150278293 0.003710575 0.000000000 0.000000000)(0.912213740 0.076335878 0.007633588 0.003816794 0.000000000)(0.908823529 0.082352941 0.008823529 0.000000000 0.000000000)(0.863720074 0.128913444 0.007366483 0.000000000 0.000000000))((0.63636364 0.35227273 0.01136364 0.00000000 0.00000000)(0.915306122 0.077551020 0.007142857 0.000000000 0.000000000)(0.927215190 0.064873418 0.007911392 0.000000000 0.000000000)(0.90651558 0.03116147 0.06232295 0.00000000 0.00000000)(0.94159928 0.04043127 0.01796945 0.00000000 0.00000000)(0.915264798 0.062928349 0.021183801 0.000623053 0.000000000)(0.944881890 0.051181102 0.003937008 0.000000000 0.000000000)(0.93144208 0.05319149 0.01536643 0.00000000 0.00000000)(0.938438438 0.053303303 0.008258258 0.000000000 0.000000000)))(((0.2 0.2 0.2 0.2 0.2)(0.002898551 0.997101449 0.000000000 0.000000000 0.000000000)(0.007575758 0.992424242 0.000000000 0.000000000 0.000000000)(0.017391304 0.939130435 0.026086957 0.008695652 0.008695652)(0.0016501650 0.9851485149 0.0123762376 0.0008250825 0.0000000000)(0.002051282 0.994871795 0.003076923 0.000000000 0.000000000)(0.004618938 0.995381062 0.000000000 0.000000000 0.000000000)(0.005988024 0.992015968 0.001996008 0.000000000 0.000000000)(0.001321004 0.996036988 0.002642008 0.000000000 0.000000000))((0.2 0.2 0.2 0.2 0.2)(0.007122507 0.990028490 0.002849003 0.000000000 0.000000000)(0.066225166 0.931567329 0.000000000 0.000000000 0.002207506)(0.13586957 0.82608696 0.03804348 0.00000000 0.00000000)(0.136423841 0.848344371 0.013907285 0.001324503 0.000000000)(0.0200153965 0.9576597383 0.0215550423 0.0007698229 0.0000000000)(0.033747780 0.960923623 0.005328597 0.000000000 0.000000000)(0.056962025 0.938291139 0.004746835 0.000000000 0.000000000)(0.01097695 0.98682766 0.00219539 0.00000000 0.00000000)))(((0.000000000 0.033033033 0.965465465 0.001501502 0.000000000)(0.00000000 0.05524862 0.78637201 0.15837937 0.00000000)(0.002192982 0.054824561 0.769736842 0.171052632 0.002192982)(0.01010101 0.05555556 0.80808081 0.11616162 0.01010101)(0.0000000000 0.0415314731 0.7962362103 0.1615833874 0.0006489293)(0.00000000 0.06163753 0.78196872 0.15639374 0.00000000)(0.0000000 0.0770416 0.7750385 0.1479199 0.0000000)(0.00000000 0.05018587 0.80855019 0.14126394 0.00000000)(0.0009746589 0.0448343080 0.7875243665 0.1666666667 0.0000000000))((0.004472272 0.118962433 0.874776386 0.001788909 0.000000000)(0.0006830601 0.0471311475 0.8456284153 0.1058743169 0.0006830601)(0.078832117 0.113868613 0.722627737 0.083211679 0.001459854)(0.04713805 0.24579125 0.64309764 0.06397306 0.00000000)(0.1224576271 0.2648305085 0.5512711864 0.0605932203 0.0008474576)(0.001043841 0.067327766 0.848643006 0.082985386 0.000000000)(0.0017777778 0.0631111111 0.8773333333 0.0568888889 0.0008888889)(0.03715415 0.10750988 0.80869565 0.04664032 0.00000000)(0.0005730659 0.0722063037 0.8613180516 0.0659025788 0.0000000000)))(((0.00000000 0.00000000 0.05610561 0.94279428 0.00110011)(0.000000000 0.004651163 0.004651163 0.990697674 0.000000000)(0.00000000 0.00234192 0.01170960 0.98594848 0.00000000)(0.000000000 0.010471204 0.036649215 0.947643979 0.005235602)(0.000000000 0.000000000 0.006379585 0.992025518 0.001594896)(0.000000000 0.000000000 0.009615385 0.987980769 0.002403846)(0.000000000 0.000000000 0.004411765 0.994117647 0.001470588)(0.000000000 0.000000000 0.007556675 0.992443325 0.000000000)(0.000000000 0.000000000 0.000000000 0.998819362 0.001180638))((0.0000000000 0.0017667845 0.1360424028 0.8613074205 0.0008833922)(0.000000000 0.000000000 0.017117117 0.981081081 0.001801802)(0.000000000 0.011976048 0.053892216 0.932135729 0.001996008)(0.00000000 0.02061856 0.10309278 0.86597938 0.01030928)(0.015396459 0.079291763 0.114703618 0.788298691 0.002309469)(0.0009496676 0.0000000000 0.0389363723 0.9582146249 0.0018993352)(0.00000000 0.00000000 0.03196347 0.96651446 0.00152207)(0.008752735 0.019693654 0.054704595 0.916849015 0.000000000)(0.000000000 0.001011122 0.008088979 0.987866532 0.003033367)))(((0.0000000 0.0000000 0.0000000 0.1653543 0.8346457)(0.000000000 0.000000000 0.002298851 0.080459770 0.917241379)(0.000000000 0.000000000 0.002710027 0.086720867 0.910569106)(0.00000000 0.00000000 0.01556420 0.07392996 0.91050584)(0.000000000 0.000000000 0.004037685 0.060565276 0.935397039)(0.000000000 0.000000000 0.004255319 0.087943262 0.907801418)(0.00000000 0.00000000 0.00000000 0.08934708 0.91065292)(0.00000000 0.00000000 0.00000000 0.06142506 0.93857494)(0.00000000 0.00000000 0.00000000 0.05617978 0.94382022))((0.000000000 0.000000000 0.004683841 0.274004684 0.721311475)(0.000000000 0.000000000 0.004398827 0.093108504 0.902492669)(0.000000000 0.001201923 0.008413462 0.098557692 0.891826923)(0.000000000 0.006382979 0.038297872 0.165957447 0.789361702)(0.001249479 0.023323615 0.059142024 0.261141191 0.655143690)(0.00000000 0.00000000 0.01100413 0.07634113 0.91265475)(0.000000000 0.000000000 0.001722158 0.102181401 0.896096441)(0.001358696 0.004076087 0.016304348 0.110054348 0.868206522)(0.000000000 0.000000000 0.001290323 0.045806452 0.952903226)))) ;
}
potential ( IDADE_MATERNA | A_GESTA GRUPO_ROBSON TIPO_GRAVIDEZ VIGIADA_PARICULAR ) 
{
  data = (((((0.2 0.2 0.2 0.2 0.2)(0.25 0.25 0.25 0.00 0.25))((0.2 0.2 0.2 0.2 0.2)(0.2 0.2 0.2 0.2 0.2))((0.2 0.2 0.2 0.2 0.2)(0.0 0.0 0.0 0.0 1.0))((0.2 0.2 0.2 0.2 0.2)(0.2 0.2 0.2 0.2 0.2))((0.2 0.2 0.2 0.2 0.2)(0.2 0.2 0.2 0.2 0.2))((0.2 0.2 0.2 0.2 0.2)(0.2 0.2 0.2 0.2 0.2))((0.2 0.2 0.2 0.2 0.2)(0.2 0.2 0.2 0.2 0.2)))(((0.2 0.2 0.2 0.2 0.2)(0.2 0.2 0.2 0.2 0.2))((0.2 0.2 0.2 0.2 0.2)(0.2 0.2 0.2 0.2 0.2))((0.2 0.2 0.2 0.2 0.2)(0.2 0.2 0.2 0.2 0.2))((0.2 0.2 0.2 0.2 0.2)(0.2 0.2 0.2 0.2 0.2))((0.2 0.2 0.2 0.2 0.2)(0.2 0.2 0.2 0.2 0.2))((0.2 0.2 0.2 0.2 0.2)(0.2 0.2 0.2 0.2 0.2))((0.2 0.2 0.2 0.2 0.2)(0.0 0.0 1.0 0.0 0.0)))(((0.0 0.0 0.0 1.0 0.0)(0.2 0.2 0.2 0.2 0.2))((0.2 0.2 0.2 0.2 0.2)(0.2 0.2 0.2 0.2 0.2))((0.2 0.2 0.2 0.2 0.2)(0.2 0.2 0.2 0.2 0.2))((0.0 0.0 0.0 0.0 1.0)(0.2 0.2 0.2 0.2 0.2))((0.2 0.2 0.2 0.2 0.2)(0.2 0.2 0.2 0.2 0.2))((0.2 0.2 0.2 0.2 0.2)(0.2 0.2 0.2 0.2 0.2))((0.0 0.0 0.0 1.0 0.0)(0.3333333 0.3333333 0.0000000 0.3333333 0.0000000)))(((0.2 0.2 0.2 0.2 0.2)(0.2 0.2 0.2 0.2 0.2))((0.2 0.2 0.2 0.2 0.2)(0.2 0.2 0.2 0.2 0.2))((0.2 0.2 0.2 0.2 0.2)(0.2 0.2 0.2 0.2 0.2))((0.2 0.2 0.2 0.2 0.2)(0.2 0.2 0.2 0.2 0.2))((0.2 0.2 0.2 0.2 0.2)(0.2 0.2 0.2 0.2 0.2))((0.2 0.2 0.2 0.2 0.2)(0.2 0.2 0.2 0.2 0.2))((0.2 0.2 0.2 0.2 0.2)(0.2 0.2 0.2 0.2 0.2)))(((0.2 0.2 0.2 0.2 0.2)(0.2 0.2 0.2 0.2 0.2))((0.2 0.2 0.2 0.2 0.2)(0.2 0.2 0.2 0.2 0.2))((0.2 0.2 0.2 0.2 0.2)(0.2 0.2 0.2 0.2 0.2))((0.2 0.2 0.2 0.2 0.2)(0.2 0.2 0.2 0.2 0.2))((0.2 0.2 0.2 0.2 0.2)(0.2 0.2 0.2 0.2 0.2))((0.2 0.2 0.2 0.2 0.2)(0.2 0.2 0.2 0.2 0.2))((0.2 0.2 0.2 0.2 0.2)(0.2 0.2 0.2 0.2 0.2)))(((0.2 0.2 0.2 0.2 0.2)(0.2 0.2 0.2 0.2 0.2))((0.2 0.2 0.2 0.2 0.2)(0.2 0.2 0.2 0.2 0.2))((0.2 0.2 0.2 0.2 0.2)(0.2 0.2 0.2 0.2 0.2))((0.2 0.2 0.2 0.2 0.2)(0.2 0.2 0.2 0.2 0.2))((0.2 0.2 0.2 0.2 0.2)(0.2 0.2 0.2 0.2 0.2))((0.2 0.2 0.2 0.2 0.2)(0.2 0.2 0.2 0.2 0.2))((0.2 0.2 0.2 0.2 0.2)(0.2 0.2 0.2 0.2 0.2)))(((0.2 0.2 0.2 0.2 0.2)(1.0 0.0 0.0 0.0 0.0))((0.2 0.2 0.2 0.2 0.2)(0.2 0.2 0.2 0.2 0.2))((0.2 0.2 0.2 0.2 0.2)(0.2 0.2 0.2 0.2 0.2))((0.2 0.2 0.2 0.2 0.2)(0.2 0.2 0.2 0.2 0.2))((0.2 0.2 0.2 0.2 0.2)(0.2 0.2 0.2 0.2 0.2))((0.2 0.2 0.2 0.2 0.2)(0.2 0.2 0.2 0.2 0.2))((0.2 0.2 0.2 0.2 0.2)(0.2 0.2 0.2 0.2 0.2)))(((0.2 0.2 0.2 0.2 0.2)(0.2 0.2 0.2 0.2 0.2))((0.2 0.2 0.2 0.2 0.2)(0.2 0.2 0.2 0.2 0.2))((0.2 0.2 0.2 0.2 0.2)(0.2 0.2 0.2 0.2 0.2))((0.2 0.2 0.2 0.2 0.2)(0.2 0.2 0.2 0.2 0.2))((0.2 0.2 0.2 0.2 0.2)(0.2 0.2 0.2 0.2 0.2))((0.2 0.2 0.2 0.2 0.2)(0.2 0.2 0.2 0.2 0.2))((0.2 0.2 0.2 0.2 0.2)(0.2 0.2 0.2 0.2 0.2)))(((0.2 0.2 0.2 0.2 0.2)(0.2 0.2 0.2 0.2 0.2))((0.2 0.2 0.2 0.2 0.2)(0.2 0.2 0.2 0.2 0.2))((0.2 0.2 0.2 0.2 0.2)(0.2 0.2 0.2 0.2 0.2))((0.2 0.2 0.2 0.2 0.2)(0.2 0.2 0.2 0.2 0.2))((0.2 0.2 0.2 0.2 0.2)(0.2 0.2 0.2 0.2 0.2))((0.2 0.2 0.2 0.2 0.2)(0.2 0.2 0.2 0.2 0.2))((0.2 0.2 0.2 0.2 0.2)(0.2 0.2 0.2 0.2 0.2)))(((0.2 0.2 0.2 0.2 0.2)(0.2 0.2 0.2 0.2 0.2))((0.2 0.2 0.2 0.2 0.2)(0.2 0.2 0.2 0.2 0.2))((0.2 0.2 0.2 0.2 0.2)(0.2 0.2 0.2 0.2 0.2))((0.2 0.2 0.2 0.2 0.2)(0.2 0.2 0.2 0.2 0.2))((0.2 0.2 0.2 0.2 0.2)(0.2 0.2 0.2 0.2 0.2))((0.2 0.2 0.2 0.2 0.2)(0.2 0.2 0.2 0.2 0.2))((0.2 0.2 0.2 0.2 0.2)(0.2 0.2 0.2 0.2 0.2)))(((0.2 0.2 0.2 0.2 0.2)(0.2 0.2 0.2 0.2 0.2))((0.2 0.2 0.2 0.2 0.2)(0.2 0.2 0.2 0.2 0.2))((0.2 0.2 0.2 0.2 0.2)(0.2 0.2 0.2 0.2 0.2))((0.2 0.2 0.2 0.2 0.2)(0.2 0.2 0.2 0.2 0.2))((0.2 0.2 0.2 0.2 0.2)(0.2 0.2 0.2 0.2 0.2))((0.2 0.2 0.2 0.2 0.2)(0.2 0.2 0.2 0.2 0.2))((0.2 0.2 0.2 0.2 0.2)(0.2 0.2 0.2 0.2 0.2))))((((0.1119883 0.3119883 0.2921053 0.1839181 0.1000000)(0.37078885 0.27687364 0.18430600 0.10013476 0.06789676))((0.03333333 0.30000000 0.36666667 0.20000000 0.10000000)(0.1190476 0.3095238 0.2857143 0.1428571 0.1428571))((0.00000000 0.06666667 0.20000000 0.24444444 0.48888889)(0.006410256 0.121794872 0.275641026 0.269230769 0.326923077))((0.00000000 0.08695652 0.17391304 0.34782609 0.39130435)(0.03797468 0.12658228 0.15189873 0.32911392 0.35443038))((0.0 0.1 0.3 0.2 0.4)(0.02631579 0.18421053 0.34210526 0.15789474 0.28947368))((0.0000000 0.1666667 0.1666667 0.3333333 0.3333333)(0.05263158 0.05263158 0.31578947 0.21052632 0.36842105))((0.1046512 0.2558140 0.3284884 0.1976744 0.1133721)(0.35247209 0.27910686 0.17862839 0.10925040 0.08054226)))(((0.08061002 0.23965142 0.31154684 0.17429194 0.19389978)(0.2904884 0.2733505 0.1893745 0.1448158 0.1019709))((0.0 0.4 0.0 0.2 0.4)(0.1666667 0.3333333 0.3333333 0.0000000 0.1666667))((0.00000000 0.07692308 0.00000000 0.23076923 0.69230769)(0.00 0.12 0.16 0.20 0.52))((0.0000000 0.1666667 0.0000000 0.5000000 0.3333333)(0.04166667 0.08333333 0.25000000 0.25000000 0.37500000))((0.0000000 0.0000000 0.6666667 0.0000000 0.3333333)(0.0000000 0.0000000 0.1666667 0.1666667 0.6666667))((0.0 0.0 0.5 0.0 0.5)(0.0 0.2 0.0 0.2 0.6))((0.04761905 0.20634921 0.38095238 0.14285714 0.22222222)(0.3488372 0.2418605 0.1674419 0.1069767 0.1348837)))(((0.0916442 0.2488769 0.2857143 0.2228212 0.1509434)(0.2987402 0.2686614 0.1932283 0.1321260 0.1072441))((0.05555556 0.33333333 0.27777778 0.05555556 0.27777778)(0.08695652 0.26086957 0.30434783 0.19565217 0.15217391))((0.00000000 0.05555556 0.13888889 0.16666667 0.63888889)(0.008333333 0.033333333 0.250000000 0.208333333 0.500000000))((0.0000000 0.1034483 0.1034483 0.3103448 0.4827586)(0.03125000 0.05208333 0.22916667 0.26041667 0.42708333))((0.00000000 0.09090909 0.09090909 0.36363636 0.45454545)(0.03030303 0.21212121 0.21212121 0.27272727 0.27272727))((0.0 0.0 0.0 0.4 0.6)(0.04347826 0.04347826 0.13043478 0.34782609 0.43478261))((0.07623318 0.27802691 0.25112108 0.24215247 0.15246637)(0.2887029 0.2510460 0.1896792 0.1548117 0.1157601)))(((0.25 0.50 0.00 0.00 0.25)(0.0625 0.3750 0.2500 0.1875 0.1250))((0.2 0.2 0.2 0.2 0.2)(0.2 0.2 0.2 0.2 0.2))((0.2 0.2 0.2 0.2 0.2)(0.2 0.2 0.2 0.2 0.2))((0.2 0.2 0.2 0.2 0.2)(0.2 0.2 0.2 0.2 0.2))((0.2 0.2 0.2 0.2 0.2)(0.2 0.2 0.2 0.2 0.2))((0.2 0.2 0.2 0.2 0.2)(0.2 0.2 0.2 0.2 0.2))((0.0 0.0 0.0 0.0 1.0)(0.0 0.0 1.0 0.0 0.0)))(((0.2 0.4 0.4 0.0 0.0)(0.125 0.125 0.125 0.000 0.625))((0.2 0.2 0.2 0.2 0.2)(0.2 0.2 0.2 0.2 0.2))((0.2 0.2 0.2 0.2 0.2)(0.2 0.2 0.2 0.2 0.2))((0.2 0.2 0.2 0.2 0.2)(0.2 0.2 0.2 0.2 0.2))((0.2 0.2 0.2 0.2 0.2)(0.2 0.2 0.2 0.2 0.2))((0.2 0.2 0.2 0.2 0.2)(0.2 0.2 0.2 0.2 0.2))((0.2 0.2 0.2 0.2 0.2)(1.0 0.0 0.0 0.0 0.0)))(((0.0 0.0 0.0 0.4 0.6)(0.125 0.000 0.250 0.250 0.375))((0.2 0.2 0.2 0.2 0.2)(0.2 0.2 0.2 0.2 0.2))((0.2 0.2 0.2 0.2 0.2)(0.2 0.2 0.2 0.2 0.2))((0.2 0.2 0.2 0.2 0.2)(0.2 0.2 0.2 0.2 0.2))((0.2 0.2 0.2 0.2 0.2)(0.2 0.2 0.2 0.2 0.2))((0.2 0.2 0.2 0.2 0.2)(0.2 0.2 0.2 0.2 0.2))((0.0 0.5 0.0 0.5 0.0)(0.0 0.0 0.0 0.0 1.0)))(((0.05681818 0.21590909 0.35037879 0.22348485 0.15340909)(0.2374886 0.2447680 0.2202002 0.1519563 0.1455869))((0.0000000 0.7142857 0.1428571 0.0000000 0.1428571)(0.00 0.75 0.25 0.00 0.00))((0.0000000 0.0000000 0.1818182 0.1818182 0.6363636)(0.00000 0.03125 0.25000 0.28125 0.43750))((0.0 0.0 0.0 0.5 0.5)(0.00000000 0.06666667 0.33333333 0.26666667 0.33333333))((0.0 0.5 0.5 0.0 0.0)(0.0 0.0 0.4 0.4 0.2))((0.0 0.0 0.0 1.0 0.0)(0.0000000 0.3333333 0.0000000 0.0000000 0.6666667))((0.03921569 0.19607843 0.33333333 0.33333333 0.09803922)(0.2312925 0.2380952 0.2176871 0.1632653 0.1496599)))(((0.0 0.0 0.0 1.0 0.0)(0.2 0.2 0.2 0.2 0.2))((0.2 0.2 0.2 0.2 0.2)(0.2 0.2 0.2 0.2 0.2))((0.2 0.2 0.2 0.2 0.2)(0.2 0.2 0.2 0.2 0.2))((0.2 0.2 0.2 0.2 0.2)(0.2 0.2 0.2 0.2 0.2))((0.2 0.2 0.2 0.2 0.2)(0.2 0.2 0.2 0.2 0.2))((0.2 0.2 0.2 0.2 0.2)(0.2 0.2 0.2 0.2 0.2))((0.2 0.2 0.2 0.2 0.2)(0.2 0.2 0.2 0.2 0.2)))(((0.0 0.2 0.6 0.0 0.2)(0.46153846 0.07692308 0.23076923 0.15384615 0.07692308))((0.2 0.2 0.2 0.2 0.2)(0.2 0.2 0.2 0.2 0.2))((0.2 0.2 0.2 0.2 0.2)(0.0 0.0 1.0 0.0 0.0))((0.2 0.2 0.2 0.2 0.2)(0.2 0.2 0.2 0.2 0.2))((0.2 0.2 0.2 0.2 0.2)(0.2 0.2 0.2 0.2 0.2))((0.2 0.2 0.2 0.2 0.2)(0.2 0.2 0.2 0.2 0.2))((0.0 0.0 1.0 0.0 0.0)(0.3333333 0.3333333 0.3333333 0.0000000 0.0000000)))(((0.0000000 0.3333333 0.6666667 0.0000000 0.0000000)(0.1 0.1 0.5 0.0 0.3))((0.2 0.2 0.2 0.2 0.2)(0.2 0.2 0.2 0.2 0.2))((0.2 0.2 0.2 0.2 0.2)(0.2 0.2 0.2 0.2 0.2))((0.2 0.2 0.2 0.2 0.2)(0.0 0.0 0.0 1.0 0.0))((0.2 0.2 0.2 0.2 0.2)(0.2 0.2 0.2 0.2 0.2))((0.2 0.2 0.2 0.2 0.2)(0.2 0.2 0.2 0.2 0.2))((0.2 0.2 0.2 0.2 0.2)(1.0 0.0 0.0 0.0 0.0)))(((0.1176471 0.2794118 0.2617647 0.1676471 0.1735294)(0.3333333 0.2747014 0.1715527 0.1118350 0.1085776))((0.0000000 0.3333333 0.0000000 0.3333333 0.3333333)(0.1666667 0.1666667 0.1666667 0.3333333 0.1666667))((0.00000000 0.00000000 0.08333333 0.16666667 0.75000000)(0.00000000 0.08823529 0.11764706 0.26470588 0.52941176))((0.0000000 0.1666667 0.1666667 0.1666667 0.5000000)(0.0 0.1 0.0 0.4 0.5))((0.0 0.0 0.0 1.0 0.0)(0.0000000 0.1666667 0.1666667 0.3333333 0.3333333))((0.0 0.0 0.0 0.0 1.0)(0.05555556 0.16666667 0.11111111 0.27777778 0.38888889))((0.07142857 0.25510204 0.24489796 0.18367347 0.24489796)(0.3450292 0.2631579 0.1695906 0.1052632 0.1169591))))((((0.0982659 0.2312139 0.2500000 0.2109827 0.2095376)(0.2942398 0.2516866 0.1909704 0.1328490 0.1302543))((0.0000000 0.2500000 0.5833333 0.0000000 0.1666667)(0.00000000 0.08333333 0.50000000 0.33333333 0.08333333))((0.0000000 0.0000000 0.0000000 0.2857143 0.7142857)(0.0000000 0.0754717 0.2075472 0.2641509 0.4528302))((0.00 0.00 0.25 0.25 0.50)(0.00000000 0.05555556 0.00000000 0.22222222 0.72222222))((0.2 0.2 0.2 0.2 0.2)(0.000 0.000 0.125 0.125 0.750))((0.0 0.0 0.0 0.5 0.5)(0.0000000 0.2857143 0.0000000 0.2857143 0.4285714))((0.07042254 0.15492958 0.23943662 0.26760563 0.26760563)(0.2943396 0.2566038 0.2000000 0.1320755 0.1169811)))(((0.01687764 0.09282700 0.14978903 0.27637131 0.46413502)(0.1348089 0.1723675 0.1556003 0.2045607 0.3326626))((0.0000000 0.2222222 0.2222222 0.3333333 0.2222222)(0.0000000 0.4285714 0.1428571 0.4285714 0.0000000))((0.0000000 0.0000000 0.0000000 0.1176471 0.8823529)(0.00000000 0.07692308 0.07692308 0.26923077 0.57692308))((0.0000000 0.0000000 0.0000000 0.1666667 0.8333333)(0.0 0.0 0.0 0.0 1.0))((0.2 0.2 0.2 0.2 0.2)(0.0000000 0.3333333 0.0000000 0.3333333 0.3333333))((0.2 0.2 0.2 0.2 0.2)(0.0000000 0.0000000 0.0000000 0.3333333 0.6666667))((0.00000000 0.07594937 0.16455696 0.26582278 0.49367089)(0.1870748 0.1326531 0.1632653 0.1836735 0.3333333)))(((0.06398537 0.21389397 0.24862888 0.22303473 0.25045704)(0.2399719 0.2083040 0.1935257 0.1688951 0.1893033))((0.1111111 0.1111111 0.2222222 0.4444444 0.1111111)(0.125 0.125 0.250 0.125 0.375))((0.00000000 0.05263158 0.10526316 0.21052632 0.63157895)(0.00000000 0.05263158 0.21052632 0.18421053 0.55263158))((0.0 0.0 0.0 0.0 1.0)(0.00 0.00 0.16 0.24 0.60))((0.000 0.000 0.125 0.125 0.750)(0.0 0.0 0.5 0.0 0.5))((0.0 0.0 0.0 0.0 1.0)(0.0 0.1 0.0 0.3 0.6))((0.05357143 0.23214286 0.19642857 0.21428571 0.30357143)(0.2359551 0.1629213 0.2303371 0.2022472 0.1685393)))(((0.01644009 0.10116978 0.20803035 0.30856782 0.36579197)(0.1350941 0.2001710 0.2025461 0.2120464 0.2501425))((0.08333333 0.08333333 0.08333333 0.25000000 0.50000000)(0.05882353 0.17647059 0.17647059 0.23529412 0.35294118))((0.0000000 0.0000000 0.1111111 0.2222222 0.6666667)(0.06896552 0.06896552 0.24137931 0.24137931 0.37931034))((0.0 0.0 0.0 0.0 1.0)(0.00000000 0.00000000 0.16666667 0.08333333 0.75000000))((0.0000000 0.0000000 0.0000000 0.3333333 0.6666667)(0.0 0.0 0.2 0.2 0.6))((0.0 0.0 0.0 0.0 1.0)(0.00000000 0.07142857 0.21428571 0.21428571 0.50000000))((0.01955307 0.06703911 0.19273743 0.36871508 0.35195531)(0.1672286 0.1962239 0.1894808 0.2245448 0.2225219)))(((0.01176471 0.08627451 0.17568627 0.30196078 0.42431373)(0.08961771 0.17171506 0.19260497 0.21286818 0.33319407))((0.00 0.00 0.00 0.25 0.75)(0.0000000 0.2857143 0.1428571 0.3571429 0.2142857))((0.00000000 0.00000000 0.00000000 0.08333333 0.91666667)(0.0000000 0.0000000 0.0000000 0.1333333 0.8666667))((0.0 0.0 0.0 0.0 1.0)(0.00000000 0.07142857 0.21428571 0.28571429 0.42857143))((0.2 0.2 0.2 0.2 0.2)(0.0 0.0 0.0 0.0 1.0))((0.2 0.2 0.2 0.2 0.2)(0.0 0.0 0.2 0.0 0.8))((0.01744186 0.09883721 0.22674419 0.22674419 0.43023256)(0.09935897 0.13621795 0.19070513 0.26282051 0.31089744)))(((0.01309795 0.06890661 0.15717540 0.32232346 0.43849658)(0.07263447 0.15056930 0.19434629 0.24401256 0.33843738))((0.00 0.00 0.25 0.25 0.50)(0.0000000 0.0000000 0.1428571 0.4285714 0.4285714))((0.0 0.0 0.0 0.4 0.6)(0.04166667 0.08333333 0.00000000 0.16666667 0.70833333))((0.0000000 0.0000000 0.0000000 0.1666667 0.8333333)(0.0000000 0.0000000 0.0000000 0.3333333 0.6666667))((0.0000000 0.0000000 0.3333333 0.0000000 0.6666667)(0.000 0.000 0.250 0.375 0.375))((0.0 0.0 0.0 0.0 1.0)(0.0 0.0 0.2 0.2 0.6))((0.01604278 0.07486631 0.14973262 0.25133690 0.50802139)(0.08653846 0.16071429 0.17582418 0.26236264 0.31456044)))(((0.05102041 0.19387755 0.26530612 0.27551020 0.21428571)(0.1637168 0.1460177 0.1725664 0.2212389 0.2964602))((0.0 0.5 0.0 0.5 0.0)(0.0 0.0 0.0 1.0 0.0))((0.000 0.000 0.125 0.375 0.500)(0.0000000 0.0000000 0.2142857 0.2142857 0.5714286))((0.2 0.2 0.2 0.2 0.2)(0.0 0.0 0.0 0.5 0.5))((0.2 0.2 0.2 0.2 0.2)(0.0 0.0 0.0 0.0 1.0))((0.2 0.2 0.2 0.2 0.2)(0.0000000 0.0000000 0.0000000 0.3333333 0.6666667))((0.20000000 0.00000000 0.20000000 0.06666667 0.53333333)(0.18181818 0.31818182 0.06818182 0.15909091 0.27272727)))(((0.00295858 0.05029586 0.13905325 0.34911243 0.45857988)(0.05609493 0.14347357 0.15318231 0.24811219 0.39913700))((0.2 0.2 0.2 0.2 0.2)(0.0 0.0 1.0 0.0 0.0))((0.0 0.0 0.0 0.0 1.0)(0.0000000 0.0000000 0.1428571 0.0000000 0.8571429))((0.2 0.2 0.2 0.2 0.2)(0.0 0.0 0.0 0.0 1.0))((0.2 0.2 0.2 0.2 0.2)(0.0 0.0 0.0 0.0 1.0))((0.0 0.0 0.0 1.0 0.0)(0.0 0.0 0.5 0.0 0.5))((0.00000000 0.03030303 0.15151515 0.33333333 0.48484848)(0.09638554 0.15662651 0.22891566 0.19277108 0.32530120)))(((0.0000000 0.1111111 0.4444444 0.1111111 0.3333333)(0.1 0.1 0.4 0.1 0.3))((0.2 0.2 0.2 0.2 0.2)(0.2 0.2 0.2 0.2 0.2))((0.2 0.2 0.2 0.2 0.2)(0.0 0.0 1.0 0.0 0.0))((0.2 0.2 0.2 0.2 0.2)(0.2 0.2 0.2 0.2 0.2))((0.2 0.2 0.2 0.2 0.2)(0.2 0.2 0.2 0.2 0.2))((0.2 0.2 0.2 0.2 0.2)(0.2 0.2 0.2 0.2 0.2))((1.0 0.0 0.0 0.0 0.0)(0.3333333 0.0000000 0.6666667 0.0000000 0.0000000)))(((0.0 0.0 0.2 0.4 0.4)(0.06250 0.09375 0.12500 0.15625 0.56250))((0.0 0.0 0.0 0.0 1.0)(0.2 0.2 0.2 0.2 0.2))((0.2 0.2 0.2 0.2 0.2)(0.2 0.2 0.2 0.2 0.2))((0.2 0.2 0.2 0.2 0.2)(0.2 0.2 0.2 0.2 0.2))((0.2 0.2 0.2 0.2 0.2)(0.2 0.2 0.2 0.2 0.2))((0.2 0.2 0.2 0.2 0.2)(0.2 0.2 0.2 0.2 0.2))((0.2 0.2 0.2 0.2 0.2)(0.0000000 0.0000000 0.0000000 0.1666667 0.8333333)))(((0.03692308 0.10769231 0.14461538 0.29846154 0.41230769)(0.1491023 0.2006245 0.1779859 0.1584699 0.3138173))((0.0000000 0.1666667 0.1666667 0.1666667 0.5000000)(0.0 0.0 0.5 0.0 0.5))((0.0 0.0 0.0 0.0 1.0)(0.00000000 0.05263158 0.05263158 0.21052632 0.68421053))((0.0 0.0 0.0 0.0 1.0)(0.00000000 0.08333333 0.00000000 0.33333333 0.58333333))((0.0 0.0 0.0 0.0 1.0)(0.0 0.0 0.0 1.0 0.0))((0.0 0.0 0.0 0.0 1.0)(0.06666667 0.13333333 0.06666667 0.40000000 0.33333333))((0.008928571 0.116071429 0.151785714 0.294642857 0.428571429)(0.1820041 0.1840491 0.2024540 0.1738241 0.2576687))))) ;
}
potential ( IMC | PESO_INICIAL VIGIADA_NESTE_HOSPITAL silo ) 
{
  data = ((((0.759832636 0.206694561 0.025104603 0.008368201 0.000000000)(0.706627680 0.191033138 0.090643275 0.009746589 0.001949318)(0.750260146 0.213319459 0.027055151 0.009365245 0.000000000)(0.777327935 0.206477733 0.004048583 0.012145749 0.000000000)(0.736036725 0.225707728 0.029074216 0.009181331 0.000000000)(0.711656442 0.233128834 0.033742331 0.019938650 0.001533742)(0.733598410 0.228628231 0.026838966 0.008946322 0.001988072)(0.760504202 0.205882353 0.028361345 0.004201681 0.001050420)(0.694781553 0.246966019 0.049757282 0.008495146 0.000000000))((0.733333333 0.233333333 0.026666667 0.006666667 0.000000000)(0.702882483 0.223946785 0.064301552 0.006651885 0.002217295)(0.715736041 0.253807107 0.025380711 0.000000000 0.005076142)(0.792517007 0.180272109 0.020408163 0.003401361 0.003401361)(0.764478764 0.183397683 0.048262548 0.002895753 0.000965251)(0.70011025 0.25689085 0.03197354 0.01102536 0.00000000)(0.759162304 0.211169284 0.026178010 0.003490401 0.000000000)(0.82882883 0.15765766 0.01351351 0.00000000 0.00000000)(0.696378830 0.267409471 0.027855153 0.008356546 0.000000000)))(((0.2343594836 0.5183714002 0.1122144985 0.1340615690 0.0009930487)(0.210473313 0.542799597 0.132930514 0.112789527 0.001007049)(0.196950445 0.522236341 0.121982211 0.156289708 0.002541296)(0.241545894 0.526570048 0.101449275 0.120772947 0.009661836)(0.231956612 0.521485190 0.105548602 0.137254902 0.003754693)(0.21894410 0.51708075 0.12111801 0.13975155 0.00310559)(0.259924386 0.548204159 0.082230624 0.107750473 0.001890359)(0.256438970 0.543113102 0.094064950 0.101903695 0.004479283)(0.200122399 0.528151775 0.123011016 0.145042840 0.003671971))((0.298701299 0.461038961 0.123376623 0.110389610 0.006493506)(0.220048900 0.491442543 0.154034230 0.132029340 0.002444988)(0.3118812 0.4603960 0.1138614 0.1138614 0.0000000)(0.317689531 0.498194946 0.090252708 0.090252708 0.003610108)(0.271259419 0.518837460 0.094725511 0.111948332 0.003229279)(0.23793103 0.54942529 0.09195402 0.12068966 0.00000000)(0.28526149 0.51030111 0.10459588 0.09984152 0.00000000)(0.34632035 0.45887446 0.10822511 0.08658009 0.00000000)(0.226256983 0.522346369 0.120111732 0.128491620 0.002793296)))(((0.03422053 0.31178707 0.39733840 0.23954373 0.01711027)(0.015847861 0.109350238 0.791600634 0.079239303 0.003961965)(0.03292181 0.37448560 0.23045267 0.33333333 0.02880658)(0.026548673 0.283185841 0.477876106 0.203539823 0.008849558)(0.04396843 0.37542277 0.23900789 0.32356257 0.01803833)(0.008528785 0.063965885 0.855721393 0.066098081 0.005685856)(0.04507042 0.42535211 0.22253521 0.28732394 0.01971831)(0.04938272 0.43518519 0.23456790 0.26851852 0.01234568)(0.02266010 0.20886700 0.55270936 0.20098522 0.01477833))((0.01069519 0.06684492 0.88502674 0.03743316 0.00000000)(0.02185792 0.12841530 0.75409836 0.09562842 0.00000000)(0.01724138 0.05603448 0.82758621 0.09051724 0.00862069)(0.04216867 0.14457831 0.62650602 0.16867470 0.01807229)(0.015447154 0.117886179 0.809756098 0.047154472 0.009756098)(0.004224980 0.029310800 0.940850277 0.023765514 0.001848429)(0.034090909 0.191287879 0.683712121 0.085227273 0.005681818)(0.004508566 0.038773670 0.945897205 0.010820559 0.000000000)(0.004032258 0.098790323 0.796370968 0.096774194 0.004032258)))(((0.007575758 0.152892562 0.115013774 0.563360882 0.161157025)(0.00838223 0.12321878 0.16848282 0.54987427 0.15004191)(0.008648649 0.104864865 0.120000000 0.576216216 0.190270270)(0.008510638 0.136170213 0.102127660 0.604255319 0.148936170)(0.01406926 0.14898990 0.11544012 0.56421356 0.15728716)(0.01772152 0.12658228 0.13291139 0.56202532 0.16075949)(0.01265823 0.15274262 0.13502110 0.55189873 0.14767932)(0.01290963 0.15690169 0.12015889 0.58093347 0.12909633)(0.00802139 0.11898396 0.13146168 0.56283422 0.17869875))((0.006993007 0.146853147 0.069930070 0.643356643 0.132867133)(0.007317073 0.117073171 0.156097561 0.575609756 0.143902439)(0.02027027 0.18918919 0.16216216 0.44594595 0.18243243)(0.02713178 0.16666667 0.16279070 0.52325581 0.12015504)(0.02348993 0.16331096 0.15100671 0.52460850 0.13758389)(0.01232033 0.16221766 0.14065708 0.55441478 0.13039014)(0.01213961 0.17754173 0.13960546 0.55235205 0.11836115)(0.01716738 0.16738197 0.19313305 0.53218884 0.09012876)(0.008595989 0.123209169 0.131805158 0.624641834 0.111747851)))(((0.0000000000 0.0007107321 0.0021321962 0.1620469083 0.8351101635)(0.000000000 0.001665279 0.024979184 0.168193172 0.805162365)(0.000000000 0.002028398 0.016227181 0.133874239 0.847870183)(0.000000000 0.000000000 0.009708738 0.152103560 0.838187702)(0.000000000 0.002192982 0.008771930 0.132675439 0.856359649)(0.00000 0.00375 0.00750 0.14625 0.84250)(0.0000000000 0.0007763975 0.0108695652 0.1490683230 0.8392857143)(0.000000000 0.003083248 0.009249743 0.162384378 0.825282631)(0.000000000 0.001374885 0.019248396 0.134280477 0.845096242))((0.000000000 0.000000000 0.008064516 0.161290323 0.830645161)(0.00000000 0.00000000 0.06962025 0.16139241 0.76898734)(0.00000000 0.01470588 0.03676471 0.13235294 0.81617647)(0.000000000 0.000000000 0.004385965 0.197368421 0.798245614)(0.000000000 0.004784689 0.011164274 0.161084530 0.822966507)(0.000000000 0.003154574 0.025236593 0.179810726 0.791798107)(0.000000000 0.002159827 0.015118790 0.209503240 0.773218143)(0.00000000 0.00000000 0.02285714 0.25142857 0.72571429)(0.000000000 0.009836066 0.013114754 0.196721311 0.780327869)))) ;
}
potential ( NUMERO_CONSULTAS_PRE_NATAL | CESARIANAS_ANTERIOR VIGIADA VIGIADA_CENTRO_SAUDE VIGIADA_NESTE_HOSPITAL VIGIADA_PARICULAR silo ) 
{
  data = (((((((0.25 0.25 0.25 0.25)(0.25 0.25 0.25 0.25)(0.25 0.25 0.25 0.25)(0.25 0.25 0.25 0.25)(0.25 0.25 0.25 0.25)(0.25 0.25 0.25 0.25)(0.25 0.25 0.25 0.25)(0.25 0.25 0.25 0.25)(0.25 0.25 0.25 0.25))((0.25 0.25 0.25 0.25)(0.25 0.25 0.25 0.25)(0.25 0.25 0.25 0.25)(0.25 0.25 0.25 0.25)(0.25 0.25 0.25 0.25)(0.25 0.25 0.25 0.25)(0.25 0.25 0.25 0.25)(0.25 0.25 0.25 0.25)(0.25 0.25 0.25 0.25)))(((0.25 0.25 0.25 0.25)(0.25 0.25 0.25 0.25)(0.25 0.25 0.25 0.25)(0.25 0.25 0.25 0.25)(0.25 0.25 0.25 0.25)(0.25 0.25 0.25 0.25)(0.25 0.25 0.25 0.25)(0.25 0.25 0.25 0.25)(0.25 0.25 0.25 0.25))((0.25 0.25 0.25 0.25)(0.25 0.25 0.25 0.25)(0.25 0.25 0.25 0.25)(0.25 0.25 0.25 0.25)(0.25 0.25 0.25 0.25)(0.25 0.25 0.25 0.25)(0.25 0.25 0.25 0.25)(0.25 0.25 0.25 0.25)(0.25 0.25 0.25 0.25))))((((0.25 0.25 0.25 0.25)(0.25 0.25 0.25 0.25)(0.25 0.25 0.25 0.25)(0.25 0.25 0.25 0.25)(0.25 0.25 0.25 0.25)(0.25 0.25 0.25 0.25)(0.25 0.25 0.25 0.25)(0.25 0.25 0.25 0.25)(0.25 0.25 0.25 0.25))((0.25 0.25 0.25 0.25)(0.25 0.25 0.25 0.25)(0.25 0.25 0.25 0.25)(0.25 0.25 0.25 0.25)(0.25 0.25 0.25 0.25)(0.25 0.25 0.25 0.25)(0.25 0.25 0.25 0.25)(0.25 0.25 0.25 0.25)(0.25 0.25 0.25 0.25)))(((0.25 0.25 0.25 0.25)(0.25 0.25 0.25 0.25)(0.25 0.25 0.25 0.25)(0.25 0.25 0.25 0.25)(0.25 0.25 0.25 0.25)(0.25 0.25 0.25 0.25)(0.25 0.25 0.25 0.25)(0.25 0.25 0.25 0.25)(0.25 0.25 0.25 0.25))((0.25 0.25 0.25 0.25)(0.25 0.25 0.25 0.25)(0.25 0.25 0.25 0.25)(0.25 0.25 0.25 0.25)(0.25 0.25 0.25 0.25)(0.25 0.25 0.25 0.25)(0.25 0.25 0.25 0.25)(0.25 0.25 0.25 0.25)(0.25 0.25 0.25 0.25)))))(((((0.25 0.25 0.25 0.25)(0.25 0.25 0.25 0.25)(0.25 0.25 0.25 0.25)(0.25 0.25 0.25 0.25)(0.25 0.25 0.25 0.25)(0.25 0.25 0.25 0.25)(0.25 0.25 0.25 0.25)(0.25 0.25 0.25 0.25)(0.25 0.25 0.25 0.25))((0.25 0.25 0.25 0.25)(0.25 0.25 0.25 0.25)(0.25 0.25 0.25 0.25)(0.25 0.25 0.25 0.25)(0.25 0.25 0.25 0.25)(0.25 0.25 0.25 0.25)(0.25 0.25 0.25 0.25)(0.25 0.25 0.25 0.25)(0.25 0.25 0.25 0.25)))(((0.25 0.25 0.25 0.25)(0.25 0.25 0.25 0.25)(0.25 0.25 0.25 0.25)(0.25 0.25 0.25 0.25)(0.25 0.25 0.25 0.25)(0.25 0.25 0.25 0.25)(0.25 0.25 0.25 0.25)(0.25 0.25 0.25 0.25)(0.25 0.25 0.25 0.25))((0.25 0.25 0.25 0.25)(0.25 0.25 0.25 0.25)(0.25 0.25 0.25 0.25)(0.25 0.25 0.25 0.25)(0.25 0.25 0.25 0.25)(0.25 0.25 0.25 0.25)(0.25 0.25 0.25 0.25)(0.25 0.25 0.25 0.25)(0.25 0.25 0.25 0.25))))((((0.25 0.25 0.25 0.25)(0.25 0.25 0.25 0.25)(0.25 0.25 0.25 0.25)(0.25 0.25 0.25 0.25)(0.25 0.25 0.25 0.25)(0.25 0.25 0.25 0.25)(0.25 0.25 0.25 0.25)(0.25 0.25 0.25 0.25)(0.25 0.25 0.25 0.25))((0.25 0.25 0.25 0.25)(0.25 0.25 0.25 0.25)(0.25 0.25 0.25 0.25)(0.25 0.25 0.25 0.25)(0.25 0.25 0.25 0.25)(0.25 0.25 0.25 0.25)(0.25 0.25 0.25 0.25)(0.25 0.25 0.25 0.25)(0.25 0.25 0.25 0.25)))(((0.25 0.25 0.25 0.25)(0.25 0.25 0.25 0.25)(0.25 0.25 0.25 0.25)(0.25 0.25 0.25 0.25)(0.25 0.25 0.25 0.25)(0.25 0.25 0.25 0.25)(0.25 0.25 0.25 0.25)(0.25 0.25 0.25 0.25)(0.25 0.25 0.25 0.25))((0.25 0.25 0.25 0.25)(0.0 0.0 1.0 0.0)(0.25 0.25 0.25 0.25)(0.25 0.25 0.25 0.25)(0.02631579 0.02631579 0.94736842 0.00000000)(0.0 0.0 1.0 0.0)(0.0 0.0 1.0 0.0)(0.0 0.0 1.0 0.0)(0.0 0.0 1.0 0.0)))))(((((0.0 0.0 1.0 0.0)(0.54285714 0.17142857 0.02857143 0.25714286)(1.0 0.0 0.0 0.0)(0.25 0.25 0.25 0.25)(0.05523256 0.10755814 0.22965116 0.60755814)(0.35483871 0.04301075 0.07526882 0.52688172)(0.1886792 0.1509434 0.2264151 0.4339623)(0.3333333 0.0000000 0.2222222 0.4444444)(0.2435897 0.2179487 0.1153846 0.4230769))((0.0 1.0 0.0 0.0)(0.5069930 0.1993007 0.1678322 0.1258741)(0.0 1.0 0.0 0.0)(0.25 0.25 0.25 0.25)(0.08354956 0.23975091 0.30202387 0.37467566)(0.4913295 0.1647399 0.1502890 0.1936416)(0.1489362 0.2198582 0.3723404 0.2588652)(0.1979167 0.1458333 0.1354167 0.5208333)(0.3235294 0.2083333 0.1421569 0.3259804)))(((0.25 0.25 0.25 0.25)(0.00000000 0.03225806 0.77419355 0.19354839)(0.0 0.0 0.0 1.0)(0.25 0.25 0.25 0.25)(0.06214689 0.22598870 0.33898305 0.37288136)(0.00617284 0.01851852 0.63580247 0.33950617)(0.0250 0.2875 0.3750 0.3125)(0.00 0.25 0.50 0.25)(0.40 0.10 0.45 0.05))((0.25 0.25 0.25 0.25)(0.07874016 0.11811024 0.73228346 0.07086614)(0.25 0.25 0.25 0.25)(0.0000000 0.3333333 0.6666667 0.0000000)(0.15959253 0.55008489 0.22410866 0.06621392)(0.02551020 0.08163265 0.73979592 0.15306122)(0.05511811 0.34251969 0.44488189 0.15748031)(0.19047619 0.19047619 0.57142857 0.04761905)(0.52112676 0.14084507 0.30985915 0.02816901))))((((0.25 0.25 0.25 0.25)(0.62162162 0.21621622 0.05405405 0.10810811)(0.25 0.25 0.25 0.25)(0.25 0.25 0.25 0.25)(0.1461187 0.1735160 0.2420091 0.4383562)(0.63440860 0.12903226 0.08602151 0.15053763)(0.5 0.1 0.2 0.2)(0.27272727 0.18181818 0.09090909 0.45454545)(0.4285714 0.0000000 0.2857143 0.2857143))((0.0 0.0 0.0 1.0)(0.5521886 0.1582492 0.1212121 0.1683502)(0.5 0.5 0.0 0.0)(0.0 0.0 1.0 0.0)(0.1086556 0.1804788 0.2228361 0.4880295)(0.5384615 0.2307692 0.1057692 0.1250000)(0.2533333 0.2400000 0.2133333 0.2933333)(0.1836735 0.1836735 0.2857143 0.3469388)(0.38043478 0.11956522 0.09782609 0.40217391)))(((0.25 0.25 0.25 0.25)(0.04878049 0.07317073 0.75609756 0.12195122)(0.25 0.25 0.25 0.25)(0.0 1.0 0.0 0.0)(0.04262295 0.22295082 0.45901639 0.27540984)(0.004975124 0.049751244 0.920398010 0.024875622)(0.0212766 0.2127660 0.5106383 0.2553191)(0.0 0.0 1.0 0.0)(0.1428571 0.1428571 0.7142857 0.0000000))((0.25 0.25 0.25 0.25)(0.05263158 0.00000000 0.89473684 0.05263158)(0.25 0.25 0.25 0.25)(0.25 0.25 0.25 0.25)(0.1311475 0.1147541 0.6065574 0.1475410)(0.10526316 0.11111111 0.74853801 0.03508772)(0.00 0.15 0.70 0.15)(0.5 0.0 0.5 0.0)(0.125 0.000 0.875 0.000)))))(((((0.25 0.25 0.25 0.25)(0.25 0.25 0.25 0.25)(0.25 0.25 0.25 0.25)(0.25 0.25 0.25 0.25)(0.25 0.25 0.25 0.25)(0.25 0.25 0.25 0.25)(0.25 0.25 0.25 0.25)(0.25 0.25 0.25 0.25)(0.25 0.25 0.25 0.25))((0.25 0.25 0.25 0.25)(0.25 0.25 0.25 0.25)(0.25 0.25 0.25 0.25)(0.25 0.25 0.25 0.25)(0.25 0.25 0.25 0.25)(0.25 0.25 0.25 0.25)(0.25 0.25 0.25 0.25)(0.25 0.25 0.25 0.25)(0.25 0.25 0.25 0.25)))(((0.25 0.25 0.25 0.25)(0.25 0.25 0.25 0.25)(0.25 0.25 0.25 0.25)(0.25 0.25 0.25 0.25)(0.25 0.25 0.25 0.25)(0.25 0.25 0.25 0.25)(0.25 0.25 0.25 0.25)(0.25 0.25 0.25 0.25)(0.25 0.25 0.25 0.25))((0.25 0.25 0.25 0.25)(0.25 0.25 0.25 0.25)(0.25 0.25 0.25 0.25)(0.25 0.25 0.25 0.25)(0.25 0.25 0.25 0.25)(0.0 0.0 1.0 0.0)(0.25 0.25 0.25 0.25)(0.25 0.25 0.25 0.25)(0.25 0.25 0.25 0.25))))((((0.25 0.25 0.25 0.25)(0.25 0.25 0.25 0.25)(0.25 0.25 0.25 0.25)(0.25 0.25 0.25 0.25)(0.25 0.25 0.25 0.25)(0.25 0.25 0.25 0.25)(0.25 0.25 0.25 0.25)(0.25 0.25 0.25 0.25)(0.25 0.25 0.25 0.25))((0.25 0.25 0.25 0.25)(0.25 0.25 0.25 0.25)(0.25 0.25 0.25 0.25)(0.25 0.25 0.25 0.25)(0.25 0.25 0.25 0.25)(0.25 0.25 0.25 0.25)(0.25 0.25 0.25 0.25)(0.25 0.25 0.25 0.25)(0.25 0.25 0.25 0.25)))(((0.25 0.25 0.25 0.25)(0.25 0.25 0.25 0.25)(0.25 0.25 0.25 0.25)(0.25 0.25 0.25 0.25)(0.25 0.25 0.25 0.25)(0.25 0.25 0.25 0.25)(0.25 0.25 0.25 0.25)(0.25 0.25 0.25 0.25)(0.25 0.25 0.25 0.25))((0.25 0.25 0.25 0.25)(0.0 0.0 1.0 0.0)(0.25 0.25 0.25 0.25)(0.25 0.25 0.25 0.25)(0.0 0.0 1.0 0.0)(0.0 0.0 1.0 0.0)(0.25 0.25 0.25 0.25)(0.25 0.25 0.25 0.25)(0.0 0.0 1.0 0.0))))))((((((0.25 0.25 0.25 0.25)(0.25 0.25 0.25 0.25)(0.25 0.25 0.25 0.25)(0.25 0.25 0.25 0.25)(0.25 0.25 0.25 0.25)(0.25 0.25 0.25 0.25)(0.25 0.25 0.25 0.25)(0.25 0.25 0.25 0.25)(0.25 0.25 0.25 0.25))((0.25 0.25 0.25 0.25)(0.25 0.25 0.25 0.25)(0.25 0.25 0.25 0.25)(0.25 0.25 0.25 0.25)(0.25 0.25 0.25 0.25)(0.25 0.25 0.25 0.25)(0.25 0.25 0.25 0.25)(0.25 0.25 0.25 0.25)(0.25 0.25 0.25 0.25)))(((0.25 0.25 0.25 0.25)(0.25 0.25 0.25 0.25)(0.25 0.25 0.25 0.25)(0.25 0.25 0.25 0.25)(0.25 0.25 0.25 0.25)(0.25 0.25 0.25 0.25)(0.25 0.25 0.25 0.25)(0.25 0.25 0.25 0.25)(0.25 0.25 0.25 0.25))((0.25 0.25 0.25 0.25)(0.25 0.25 0.25 0.25)(0.25 0.25 0.25 0.25)(0.25 0.25 0.25 0.25)(0.25 0.25 0.25 0.25)(0.25 0.25 0.25 0.25)(0.25 0.25 0.25 0.25)(0.25 0.25 0.25 0.25)(0.25 0.25 0.25 0.25))))((((0.25 0.25 0.25 0.25)(0.25 0.25 0.25 0.25)(0.25 0.25 0.25 0.25)(0.25 0.25 0.25 0.25)(0.25 0.25 0.25 0.25)(0.25 0.25 0.25 0.25)(0.25 0.25 0.25 0.25)(0.25 0.25 0.25 0.25)(0.25 0.25 0.25 0.25))((0.25 0.25 0.25 0.25)(0.25 0.25 0.25 0.25)(0.25 0.25 0.25 0.25)(0.25 0.25 0.25 0.25)(0.25 0.25 0.25 0.25)(0.25 0.25 0.25 0.25)(0.25 0.25 0.25 0.25)(0.25 0.25 0.25 0.25)(0.25 0.25 0.25 0.25)))(((0.25 0.25 0.25 0.25)(0.25 0.25 0.25 0.25)(0.25 0.25 0.25 0.25)(0.25 0.25 0.25 0.25)(0.25 0.25 0.25 0.25)(0.25 0.25 0.25 0.25)(0.25 0.25 0.25 0.25)(0.25 0.25 0.25 0.25)(0.25 0.25 0.25 0.25))((0.25 0.25 0.25 0.25)(0.0 0.0 1.0 0.0)(0.25 0.25 0.25 0.25)(0.25 0.25 0.25 0.25)(0.25 0.25 0.25 0.25)(0.25 0.25 0.25 0.25)(0.25 0.25 0.25 0.25)(0.25 0.25 0.25 0.25)(0.25 0.25 0.25 0.25)))))(((((0.25 0.25 0.25 0.25)(0.25 0.25 0.25 0.25)(0.25 0.25 0.25 0.25)(0.25 0.25 0.25 0.25)(0.25 0.25 0.25 0.25)(0.25 0.25 0.25 0.25)(0.25 0.25 0.25 0.25)(0.25 0.25 0.25 0.25)(0.25 0.25 0.25 0.25))((0.25 0.25 0.25 0.25)(0.25 0.25 0.25 0.25)(0.25 0.25 0.25 0.25)(0.25 0.25 0.25 0.25)(0.25 0.25 0.25 0.25)(0.25 0.25 0.25 0.25)(0.25 0.25 0.25 0.25)(0.0 0.0 0.0 1.0)(0.25 0.25 0.25 0.25)))(((0.25 0.25 0.25 0.25)(0.25 0.25 0.25 0.25)(0.25 0.25 0.25 0.25)(0.25 0.25 0.25 0.25)(0.25 0.25 0.25 0.25)(0.25 0.25 0.25 0.25)(0.25 0.25 0.25 0.25)(0.25 0.25 0.25 0.25)(0.25 0.25 0.25 0.25))((0.25 0.25 0.25 0.25)(0.25 0.25 0.25 0.25)(0.25 0.25 0.25 0.25)(0.25 0.25 0.25 0.25)(0.25 0.25 0.25 0.25)(0.25 0.25 0.25 0.25)(0.25 0.25 0.25 0.25)(0.25 0.25 0.25 0.25)(0.25 0.25 0.25 0.25))))((((0.25 0.25 0.25 0.25)(0.25 0.25 0.25 0.25)(0.25 0.25 0.25 0.25)(0.25 0.25 0.25 0.25)(0.25 0.25 0.25 0.25)(0.25 0.25 0.25 0.25)(0.25 0.25 0.25 0.25)(0.25 0.25 0.25 0.25)(0.25 0.25 0.25 0.25))((0.25 0.25 0.25 0.25)(0.25 0.25 0.25 0.25)(0.25 0.25 0.25 0.25)(0.25 0.25 0.25 0.25)(0.25 0.25 0.25 0.25)(0.25 0.25 0.25 0.25)(0.25 0.25 0.25 0.25)(0.25 0.25 0.25 0.25)(0.25 0.25 0.25 0.25)))(((0.25 0.25 0.25 0.25)(0.25 0.25 0.25 0.25)(0.25 0.25 0.25 0.25)(0.25 0.25 0.25 0.25)(0.25 0.25 0.25 0.25)(0.25 0.25 0.25 0.25)(0.25 0.25 0.25 0.25)(0.25 0.25 0.25 0.25)(0.25 0.25 0.25 0.25))((0.0 0.0 1.0 0.0)(0.003906250 0.001953125 0.994140625 0.000000000)(0.0 0.0 1.0 0.0)(0.0 0.0 1.0 0.0)(0.019417476 0.009708738 0.970873786 0.000000000)(0.000000000 0.003378378 0.996621622 0.000000000)(0.025 0.000 0.975 0.000)(0.008849558 0.008849558 0.982300885 0.000000000)(0.0 0.0 1.0 0.0)))))(((((0.5319149 0.1356383 0.1489362 0.1835106)(0.5033113 0.1015453 0.1302428 0.2649007)(0.3551724 0.3344828 0.1482759 0.1620690)(0.5862069 0.1034483 0.1724138 0.1379310)(0.05893358 0.06267540 0.14593078 0.73246024)(0.4017413 0.1380597 0.1592040 0.3009950)(0.1331853 0.1875694 0.3107658 0.3684795)(0.18038529 0.08581436 0.12959720 0.60420315)(0.1548863 0.1942225 0.1481254 0.5027658))((0.3351776 0.2119977 0.2157833 0.2370414)(0.4936387 0.1162002 0.1183206 0.2718405)(0.3264095 0.3913617 0.1190241 0.1632047)(0.4723708 0.2245989 0.1836007 0.1194296)(0.07815142 0.10952470 0.18654894 0.62577494)(0.3508887 0.1961817 0.2080316 0.2448980)(0.1561483 0.2690306 0.3064411 0.2683800)(0.1726439 0.1171810 0.1730609 0.5371143)(0.2160416 0.1810515 0.1629284 0.4399785)))(((0.00000000 0.13095238 0.78571429 0.08333333)(0.02283105 0.13242009 0.80821918 0.03652968)(0.06565657 0.04545455 0.85858586 0.03030303)(0.00000000 0.08823529 0.88235294 0.02941176)(0.06042885 0.17348928 0.35477583 0.41130604)(0.007617729 0.076869806 0.734072022 0.181440443)(0.09388336 0.34281650 0.37268848 0.19061166)(0.02868852 0.19262295 0.61065574 0.16803279)(0.4452214 0.1678322 0.2750583 0.1118881))((0.050458716 0.151376147 0.793577982 0.004587156)(0.02702703 0.07927928 0.87927928 0.01441441)(0.09251101 0.06167401 0.82378855 0.02202643)(0.05253623 0.11594203 0.82065217 0.01086957)(0.1428571 0.4179894 0.3257748 0.1133787)(0.02653800 0.13630881 0.74306393 0.09408926)(0.12775018 0.38608943 0.39105749 0.09510291)(0.05927342 0.25047801 0.64818356 0.04206501)(0.42527583 0.21564694 0.34102307 0.01805416))))((((0.5089820 0.1586826 0.1347305 0.1976048)(0.5879828 0.1201717 0.0944206 0.1974249)(0.53086420 0.29629630 0.09876543 0.07407407)(0.59504132 0.19834711 0.12396694 0.08264463)(0.08521739 0.14260870 0.14434783 0.62782609)(0.4923077 0.2102564 0.1487179 0.1487179)(0.2608696 0.2826087 0.1811594 0.2753623)(0.2661597 0.1102662 0.1444867 0.4790875)(0.3257576 0.1742424 0.1136364 0.3863636))((0.2152778 0.3083333 0.2388889 0.2375000)(0.60222672 0.09868421 0.07540486 0.22368421)(0.4117647 0.3367140 0.1075051 0.1440162)(0.3208020 0.2406015 0.2832080 0.1553885)(0.10953058 0.06827881 0.10241821 0.71977240)(0.3673469 0.2470462 0.1836735 0.2019334)(0.2590529 0.2813370 0.1866295 0.2729805)(0.3142477 0.1304927 0.1251664 0.4300932)(0.33250620 0.11290323 0.09801489 0.45657568)))(((0.01470588 0.07843137 0.83333333 0.07352941)(0.01595745 0.04255319 0.93085106 0.01063830)(0.01063830 0.05319149 0.87765957 0.05851064)(0.009677419 0.035483871 0.925806452 0.029032258)(0.0390417 0.2129547 0.4232476 0.3247560)(0.01251739 0.05424200 0.88456189 0.04867872)(0.04597701 0.20114943 0.54597701 0.20689655)(0.01630435 0.12771739 0.69701087 0.15896739)(0.22352941 0.07058824 0.63529412 0.07058824))((0.03105590 0.04347826 0.90062112 0.02484472)(0.01459854 0.00729927 0.94890511 0.02919708)(0.02816901 0.02816901 0.88732394 0.05633803)(0.005235602 0.036649215 0.947643979 0.010471204)(0.08333333 0.16441441 0.56306306 0.18918919)(0.1641209 0.1205720 0.5576861 0.1576211)(0.07377049 0.18852459 0.65573770 0.08196721)(0.01351351 0.07094595 0.84459459 0.07094595)(0.08074534 0.05590062 0.83850932 0.02484472)))))(((((0.25 0.25 0.25 0.25)(0.25 0.25 0.25 0.25)(0.25 0.25 0.25 0.25)(0.25 0.25 0.25 0.25)(0.25 0.25 0.25 0.25)(0.25 0.25 0.25 0.25)(0.25 0.25 0.25 0.25)(0.25 0.25 0.25 0.25)(0.25 0.25 0.25 0.25))((0.25 0.25 0.25 0.25)(0.25 0.25 0.25 0.25)(0.25 0.25 0.25 0.25)(0.25 0.25 0.25 0.25)(0.25 0.25 0.25 0.25)(0.25 0.25 0.25 0.25)(0.25 0.25 0.25 0.25)(0.25 0.25 0.25 0.25)(0.25 0.25 0.25 0.25)))(((0.25 0.25 0.25 0.25)(0.25 0.25 0.25 0.25)(0.25 0.25 0.25 0.25)(0.25 0.25 0.25 0.25)(0.25 0.25 0.25 0.25)(0.25 0.25 0.25 0.25)(0.25 0.25 0.25 0.25)(0.25 0.25 0.25 0.25)(0.25 0.25 0.25 0.25))((0.25 0.25 0.25 0.25)(0.25 0.25 0.25 0.25)(0.25 0.25 0.25 0.25)(0.25 0.25 0.25 0.25)(0.25 0.25 0.25 0.25)(0.25 0.25 0.25 0.25)(0.25 0.25 0.25 0.25)(0.25 0.25 0.25 0.25)(0.25 0.25 0.25 0.25))))((((0.25 0.25 0.25 0.25)(0.25 0.25 0.25 0.25)(0.25 0.25 0.25 0.25)(0.25 0.25 0.25 0.25)(0.25 0.25 0.25 0.25)(0.25 0.25 0.25 0.25)(0.25 0.25 0.25 0.25)(0.25 0.25 0.25 0.25)(0.25 0.25 0.25 0.25))((0.25 0.25 0.25 0.25)(0.25 0.25 0.25 0.25)(0.25 0.25 0.25 0.25)(0.25 0.25 0.25 0.25)(0.25 0.25 0.25 0.25)(0.25 0.25 0.25 0.25)(0.25 0.25 0.25 0.25)(0.25 0.25 0.25 0.25)(0.25 0.25 0.25 0.25)))(((0.25 0.25 0.25 0.25)(0.25 0.25 0.25 0.25)(0.25 0.25 0.25 0.25)(0.25 0.25 0.25 0.25)(0.25 0.25 0.25 0.25)(0.25 0.25 0.25 0.25)(0.25 0.25 0.25 0.25)(0.25 0.25 0.25 0.25)(0.25 0.25 0.25 0.25))((0.0 0.0 1.0 0.0)(0.00000000 0.05263158 0.94736842 0.00000000)(0.0 0.0 1.0 0.0)(0.0 0.0 1.0 0.0)(0.0 0.0 1.0 0.0)(0.0 0.0 1.0 0.0)(0.0 0.0 1.0 0.0)(0.0 0.0 1.0 0.0)(0.0 0.0 1.0 0.0))))))) ;
}
potential ( PESO_INICIAL | CESARIANAS_ANTERIOR GRUPO_ROBSON silo ) 
{
  data = ((((0.0 0.0 0.0 1.0 0.0)(0.34313725 0.18627451 0.06862745 0.24509804 0.15686275)(0.0 0.0 0.0 1.0 0.0)(0.2 0.2 0.2 0.2 0.2)(0.2949177 0.2240515 0.1138153 0.2319256 0.1352899)(0.2508961 0.2132616 0.2150538 0.1917563 0.1290323)(0.2028986 0.3140097 0.1497585 0.1594203 0.1739130)(0.2142857 0.1428571 0.1071429 0.2500000 0.2857143)(0.2615385 0.2000000 0.1307692 0.2076923 0.2000000))((0.2 0.2 0.2 0.2 0.2)(0.2413793 0.2068966 0.1379310 0.2068966 0.2068966)(0.2 0.2 0.2 0.2 0.2)(0.2 0.2 0.2 0.2 0.2)(0.2867925 0.2000000 0.1584906 0.1698113 0.1849057)(0.23255814 0.06976744 0.41860465 0.15116279 0.12790698)(0.2307692 0.1794872 0.2307692 0.2564103 0.1025641)(0.1666667 0.0000000 0.5000000 0.0000000 0.3333333)(0.35294118 0.05882353 0.08823529 0.20588235 0.29411765))((0.2 0.2 0.2 0.2 0.2)(0.17567568 0.29729730 0.09459459 0.24324324 0.18918919)(0.0 0.0 0.0 1.0 0.0)(0.0 0.0 1.0 0.0 0.0)(0.1940850 0.2310536 0.1016636 0.2513863 0.2218115)(0.1890909 0.1745455 0.1818182 0.2618182 0.1927273)(0.1783439 0.2165605 0.1273885 0.2420382 0.2356688)(0.29032258 0.16129032 0.03225806 0.25806452 0.25806452)(0.175 0.150 0.125 0.225 0.325))((1.0 0.0 0.0 0.0 0.0)(0.21973094 0.20179372 0.08520179 0.23766816 0.25560538)(0.25 0.00 0.00 0.75 0.00)(0.0 0.0 0.0 0.0 1.0)(0.2315789 0.1973684 0.1256579 0.2447368 0.2006579)(0.1541756 0.1820128 0.3019272 0.2119914 0.1498929)(0.1771654 0.2283465 0.1692913 0.2440945 0.1811024)(0.2435897 0.1410256 0.1538462 0.2948718 0.1666667)(0.1974522 0.2165605 0.1242038 0.2611465 0.2006369))((0.0 0.0 1.0 0.0 0.0)(0.12765957 0.09574468 0.23404255 0.21276596 0.32978723)(0.2 0.2 0.2 0.2 0.2)(0.2 0.2 0.2 0.2 0.2)(0.1867470 0.1837349 0.1024096 0.2409639 0.2861446)(0.19130435 0.18260870 0.08695652 0.26956522 0.26956522)(0.1779661 0.1610169 0.1355932 0.2372881 0.2881356)(0.13725490 0.29411765 0.07843137 0.15686275 0.33333333)(0.1333333 0.2000000 0.1142857 0.1714286 0.3809524))((0.2 0.2 0.2 0.2 0.2)(0.2 0.2 0.2 0.2 0.2)(0.2 0.2 0.2 0.2 0.2)(0.2 0.2 0.2 0.2 0.2)(0.0 1.0 0.0 0.0 0.0)(0.2 0.2 0.2 0.2 0.2)(0.0 0.0 0.0 1.0 0.0)(0.2 0.2 0.2 0.2 0.2)(0.2 0.2 0.2 0.2 0.2))((0.2 0.2 0.2 0.2 0.2)(0.7142857 0.1428571 0.0000000 0.0000000 0.1428571)(0.2 0.2 0.2 0.2 0.2)(0.2 0.2 0.2 0.2 0.2)(0.2727273 0.1212121 0.1313131 0.2929293 0.1818182)(0.14925373 0.14925373 0.40298507 0.22388060 0.07462687)(0.25 0.30 0.20 0.10 0.15)(0.0 0.0 0.5 0.5 0.0)(0.1111111 0.3333333 0.1111111 0.1111111 0.3333333))((0.2 0.2 0.2 0.2 0.2)(0.1 0.2 0.4 0.2 0.1)(0.2 0.2 0.2 0.2 0.2)(0.2 0.2 0.2 0.2 0.2)(0.13513514 0.21621622 0.08108108 0.45945946 0.10810811)(0.1000000 0.1333333 0.3666667 0.2000000 0.2000000)(0.1578947 0.1578947 0.1578947 0.4210526 0.1052632)(0.0 0.0 0.0 1.0 0.0)(0.1666667 0.2222222 0.2777778 0.1666667 0.1666667))((0.2 0.2 0.2 0.2 0.2)(0.2 0.2 0.2 0.2 0.2)(0.2 0.2 0.2 0.2 0.2)(0.2 0.2 0.2 0.2 0.2)(0.5 0.5 0.0 0.0 0.0)(0.1428571 0.0000000 0.2857143 0.2857143 0.2857143)(0.00 0.25 0.50 0.25 0.00)(0.2 0.2 0.2 0.2 0.2)(0.0 0.6 0.0 0.4 0.0))((0.2 0.2 0.2 0.2 0.2)(0.0 0.0 1.0 0.0 0.0)(0.2 0.2 0.2 0.2 0.2)(0.2 0.2 0.2 0.2 0.2)(0.0 0.0 0.0 0.0 1.0)(0.0 0.0 0.0 1.0 0.0)(0.0 0.0 0.0 1.0 0.0)(0.2 0.2 0.2 0.2 0.2)(0.2 0.2 0.2 0.2 0.2))((0.2 0.2 0.2 0.2 0.2)(0.2045977 0.2022989 0.1356322 0.2321839 0.2252874)(0.2 0.2 0.2 0.2 0.2)(0.3333333 0.6666667 0.0000000 0.0000000 0.0000000)(0.54545455 0.09090909 0.09090909 0.09090909 0.18181818)(0.12903226 0.03225806 0.77419355 0.03225806 0.03225806)(0.25 0.00 0.00 0.25 0.50)(0.0 0.0 0.0 1.0 0.0)(0.2222222 0.0000000 0.5555556 0.1111111 0.1111111)))(((0.2600487 0.2015834 0.1315469 0.2320341 0.1747868)(0.2803181 0.2233267 0.1272366 0.2253148 0.1438038)(0.2982906 0.2239316 0.1000000 0.2170940 0.1606838)(0.2546584 0.2298137 0.2360248 0.1428571 0.1366460)(0.2691761 0.2272727 0.1484375 0.2073864 0.1477273)(0.15940367 0.14793578 0.45221713 0.14373089 0.09671254)(0.26460674 0.24775281 0.09775281 0.23988764 0.15000000)(0.2436472 0.2167414 0.2234679 0.1913303 0.1248132)(0.2533673 0.2180561 0.1427011 0.2322534 0.1536221))((0.1595506 0.1505618 0.2831461 0.2089888 0.1977528)(0.2382271 0.1939058 0.1689751 0.2354571 0.1634349)(0.2199313 0.1890034 0.1649485 0.1958763 0.2302405)(0.2558140 0.1627907 0.2558140 0.2093023 0.1162791)(0.2483444 0.1788079 0.2086093 0.1898455 0.1743929)(0.09574468 0.07446809 0.65653495 0.08966565 0.08358663)(0.1986971 0.1856678 0.1856678 0.2182410 0.2117264)(0.1180723 0.1397590 0.4120482 0.1590361 0.1710843)(0.1943925 0.1738318 0.2336449 0.1943925 0.2037383))((0.2240326 0.1741344 0.1323829 0.2474542 0.2219959)(0.1534091 0.1590909 0.3051948 0.1931818 0.1891234)(0.23895810 0.21744054 0.07361268 0.23782559 0.23216308)(0.0000000 0.1666667 0.5555556 0.1111111 0.1666667)(0.2104167 0.1937500 0.1037500 0.2391667 0.2529167)(0.1257102 0.1420455 0.4453125 0.1498580 0.1370739)(0.19124088 0.21678832 0.09781022 0.22700730 0.26715328)(0.1943598 0.1928354 0.2057927 0.2111280 0.1958841)(0.1622340 0.1768617 0.1216755 0.2566489 0.2825798))((0.1991051 0.1722595 0.1372110 0.2475764 0.2438479)(0.1984190 0.2094862 0.1256917 0.2379447 0.2284585)(0.2112029 0.2176309 0.1000918 0.2314050 0.2396694)(0.1703704 0.1259259 0.3555556 0.1851852 0.1629630)(0.1971223 0.2081535 0.1649880 0.2282974 0.2014388)(0.1280206 0.1187661 0.4632391 0.1670951 0.1228792)(0.2093525 0.2100719 0.1323741 0.2417266 0.2064748)(0.1966894 0.1801363 0.2599805 0.1840312 0.1791626)(0.1791518 0.1902497 0.1399128 0.2615933 0.2290924))((0.1386749 0.1571649 0.1140216 0.2357473 0.3543914)(0.1141925 0.1321370 0.3491028 0.1876020 0.2169657)(0.1782007 0.1730104 0.0899654 0.2352941 0.3235294)(0.0000000 0.0000000 0.2857143 0.2857143 0.4285714)(0.17368069 0.19839679 0.08550434 0.23246493 0.30995324)(0.1027523 0.1155963 0.4403670 0.1614679 0.1798165)(0.13215859 0.19383260 0.08370044 0.26872247 0.32158590)(0.1501926 0.1553273 0.2066752 0.2195122 0.2682927)(0.09290323 0.14193548 0.13677419 0.28258065 0.34580645))((0.16431925 0.15649452 0.09546166 0.26760563 0.31611894)(0.1320542 0.1591422 0.2674944 0.1952596 0.2460497)(0.22202166 0.16245487 0.09025271 0.21841155 0.30685921)(0.1636364 0.1454545 0.3454545 0.2000000 0.1454545)(0.1760114 0.1845280 0.1348474 0.2370476 0.2675656)(0.1094364 0.1310616 0.4266055 0.1723460 0.1605505)(0.1539235 0.1911469 0.1086519 0.2384306 0.3078471)(0.1542751 0.1579926 0.2527881 0.2026022 0.2323420)(0.1563492 0.1531746 0.1341270 0.2373016 0.3190476))((0.2180095 0.2132701 0.2227488 0.2417062 0.1042654)(0.2038835 0.2135922 0.3446602 0.1213592 0.1165049)(0.31578947 0.24060150 0.16541353 0.09022556 0.18796992)(0.1250 0.1250 0.3125 0.1875 0.2500)(0.2594059 0.2772277 0.1227723 0.2079208 0.1326733)(0.13829787 0.11170213 0.55585106 0.10106383 0.09308511)(0.26923077 0.20673077 0.09134615 0.26442308 0.16826923)(0.240 0.220 0.205 0.210 0.125)(0.2022472 0.2284644 0.1498127 0.2322097 0.1872659))((0.1689189 0.2162162 0.1689189 0.2364865 0.2094595)(0.1692308 0.1307692 0.2692308 0.1846154 0.2461538)(0.2736842 0.2000000 0.1052632 0.2315789 0.1894737)(0.09090909 0.27272727 0.36363636 0.00000000 0.27272727)(0.2222222 0.1609195 0.1340996 0.2413793 0.2413793)(0.10878661 0.08368201 0.56485356 0.12552301 0.11715481)(0.2156863 0.2287582 0.1241830 0.2287582 0.2026144)(0.2000000 0.1545455 0.2000000 0.2363636 0.2090909)(0.1513761 0.1651376 0.2110092 0.2522936 0.2201835))((0.0 0.0 0.5 0.5 0.0)(0.0 1.0 0.0 0.0 0.0)(0.2 0.2 0.2 0.2 0.2)(0.0 1.0 0.0 0.0 0.0)(0.0 0.4 0.2 0.0 0.4)(0.1875 0.1250 0.2500 0.1875 0.2500)(0.4 0.2 0.0 0.0 0.4)(0.25 0.50 0.00 0.25 0.00)(0.2 0.4 0.4 0.0 0.0))((0.0000000 0.3333333 0.3333333 0.0000000 0.3333333)(0.1875 0.0625 0.2500 0.1875 0.3125)(0.6666667 0.0000000 0.0000000 0.0000000 0.3333333)(0.2 0.2 0.2 0.2 0.2)(0.125 0.125 0.000 0.500 0.250)(0.2857143 0.0000000 0.4285714 0.2857143 0.0000000)(0.000 0.375 0.125 0.125 0.375)(0.3333333 0.3333333 0.0000000 0.0000000 0.3333333)(0.0000000 0.1666667 0.0000000 0.0000000 0.8333333))((0.19914347 0.17344754 0.07280514 0.28693790 0.26766595)(0.1458333 0.1319444 0.3587963 0.1712963 0.1921296)(0.4666667 0.1333333 0.1333333 0.2666667 0.0000000)(0.2407014 0.2146652 0.0749203 0.2221041 0.2476089)(0.29166667 0.33333333 0.12500000 0.08333333 0.16666667)(0.04674797 0.05284553 0.78861789 0.04471545 0.06707317)(0.23076923 0.19230769 0.07692308 0.26923077 0.23076923)(0.1443299 0.1701031 0.2164948 0.2731959 0.1958763)(0.26086957 0.26086957 0.06521739 0.23913043 0.17391304)))) ;
}
potential ( SEMANAS_GESTACAO_PARTO | APRESENTACAO_NO_PARTO GRUPO_ROBSON TRAB_PARTO_NO_PARTO silo ) 
{
  data = (((((0.2 0.2 0.2 0.2 0.2)(0.2 0.2 0.2 0.2 0.2)(0.2 0.2 0.2 0.2 0.2)(0.2 0.2 0.2 0.2 0.2)(0.2 0.2 0.2 0.2 0.2)(0.2 0.2 0.2 0.2 0.2)(0.2 0.2 0.2 0.2 0.2)(0.2 0.2 0.2 0.2 0.2)(0.2 0.2 0.2 0.2 0.2))((0.1722459 0.0000000 0.3018868 0.3998783 0.1259890)(0.09807573 0.18187461 0.26443203 0.23463687 0.22098076)(0.09649872 0.16737831 0.25875320 0.24508967 0.23228010)(0.1304348 0.1118012 0.1987578 0.2981366 0.2608696)(0.1027771 0.1820555 0.2516022 0.2043674 0.2591977)(0.1090107 0.2151859 0.2681159 0.2155009 0.1921865)(0.2 0.2 0.2 0.2 0.2)(0.1207906 0.2276720 0.2445095 0.1844802 0.2225476)(0.1056656 0.1824818 0.2610358 0.2075078 0.2433090))((0.2 0.2 0.2 0.2 0.2)(0.2 0.2 0.2 0.2 0.2)(0.2 0.2 0.2 0.2 0.2)(0.2 0.2 0.2 0.2 0.2)(0.2 0.2 0.2 0.2 0.2)(0.2 0.2 0.2 0.2 0.2)(0.2 0.2 0.2 0.2 0.2)(0.2 0.2 0.2 0.2 0.2)(0.2 0.2 0.2 0.2 0.2))((0.2 0.2 0.2 0.2 0.2)(0.2 0.2 0.2 0.2 0.2)(0.2 0.2 0.2 0.2 0.2)(0.2 0.2 0.2 0.2 0.2)(0.2 0.2 0.2 0.2 0.2)(0.2 0.2 0.2 0.2 0.2)(0.2 0.2 0.2 0.2 0.2)(0.2 0.2 0.2 0.2 0.2)(0.2 0.2 0.2 0.2 0.2))((0.2 0.2 0.2 0.2 0.2)(0.2 0.2 0.2 0.2 0.2)(0.2 0.2 0.2 0.2 0.2)(0.2 0.2 0.2 0.2 0.2)(0.2 0.2 0.2 0.2 0.2)(0.2 0.2 0.2 0.2 0.2)(0.2 0.2 0.2 0.2 0.2)(0.2 0.2 0.2 0.2 0.2)(0.2 0.2 0.2 0.2 0.2))((0.2 0.2 0.2 0.2 0.2)(0.2 0.2 0.2 0.2 0.2)(0.2 0.2 0.2 0.2 0.2)(0.2 0.2 0.2 0.2 0.2)(0.2 0.2 0.2 0.2 0.2)(0.2 0.2 0.2 0.2 0.2)(0.2 0.2 0.2 0.2 0.2)(0.2 0.2 0.2 0.2 0.2)(0.2 0.2 0.2 0.2 0.2))((0.2 0.2 0.2 0.2 0.2)(0.2 0.2 0.2 0.2 0.2)(0.2 0.2 0.2 0.2 0.2)(0.2 0.2 0.2 0.2 0.2)(0.2 0.2 0.2 0.2 0.2)(0.2 0.2 0.2 0.2 0.2)(0.2 0.2 0.2 0.2 0.2)(0.2 0.2 0.2 0.2 0.2)(0.2 0.2 0.2 0.2 0.2))((0.2 0.2 0.2 0.2 0.2)(0.2 0.2 0.2 0.2 0.2)(0.2 0.2 0.2 0.2 0.2)(0.2 0.2 0.2 0.2 0.2)(0.2 0.2 0.2 0.2 0.2)(0.2 0.2 0.2 0.2 0.2)(0.2 0.2 0.2 0.2 0.2)(0.2 0.2 0.2 0.2 0.2)(0.2 0.2 0.2 0.2 0.2))((0.2 0.2 0.2 0.2 0.2)(0.2 0.2 0.2 0.2 0.2)(0.2 0.2 0.2 0.2 0.2)(0.2 0.2 0.2 0.2 0.2)(0.2 0.2 0.2 0.2 0.2)(0.2 0.2 0.2 0.2 0.2)(0.2 0.2 0.2 0.2 0.2)(0.2 0.2 0.2 0.2 0.2)(0.2 0.2 0.2 0.2 0.2))((0.2 0.2 0.2 0.2 0.2)(0.2 0.2 0.2 0.2 0.2)(0.2 0.2 0.2 0.2 0.2)(0.2 0.2 0.2 0.2 0.2)(0.2 0.2 0.2 0.2 0.2)(0.2 0.2 0.2 0.2 0.2)(0.2 0.2 0.2 0.2 0.2)(0.2 0.2 0.2 0.2 0.2)(0.2 0.2 0.2 0.2 0.2))((0.2 0.2 0.2 0.2 0.2)(0.2 0.2 0.2 0.2 0.2)(0.2 0.2 0.2 0.2 0.2)(0.2 0.2 0.2 0.2 0.2)(0.2 0.2 0.2 0.2 0.2)(0.2 0.2 0.2 0.2 0.2)(0.08002013 0.15098138 0.22194263 0.21439356 0.33266230)(0.2 0.2 0.2 0.2 0.2)(0.2 0.2 0.2 0.2 0.2)))(((1.0 0.0 0.0 0.0 0.0)(0.98648649 0.00000000 0.01351351 0.00000000 0.00000000)(1.0 0.0 0.0 0.0 0.0)(1.0 0.0 0.0 0.0 0.0)(0.991869919 0.000000000 0.008130081 0.000000000 0.000000000)(0.98360656 0.00000000 0.01639344 0.00000000 0.00000000)(0.2 0.2 0.2 0.2 0.2)(1.0 0.0 0.0 0.0 0.0)(0.9875 0.0000 0.0125 0.0000 0.0000))((0.96356275 0.00000000 0.03643725 0.00000000 0.00000000)(0.96581197 0.00000000 0.03418803 0.00000000 0.00000000)(0.93220339 0.00000000 0.06779661 0.00000000 0.00000000)(0.92592593 0.00000000 0.07407407 0.00000000 0.00000000)(0.96526773 0.00000000 0.03473227 0.00000000 0.00000000)(0.96629213 0.00000000 0.03370787 0.00000000 0.00000000)(0.2 0.2 0.2 0.2 0.2)(0.97942387 0.00000000 0.02057613 0.00000000 0.00000000)(0.95128205 0.00000000 0.04871795 0.00000000 0.00000000))((0.96774194 0.00000000 0.03225806 0.00000000 0.00000000)(0.98780488 0.00000000 0.01219512 0.00000000 0.00000000)(1.0 0.0 0.0 0.0 0.0)(1.0 0.0 0.0 0.0 0.0)(0.2 0.2 0.2 0.2 0.2)(1.0 0.0 0.0 0.0 0.0)(0.2 0.2 0.2 0.2 0.2)(1.0 0.0 0.0 0.0 0.0)(0.2 0.2 0.2 0.2 0.2))((1.0 0.0 0.0 0.0 0.0)(0.2 0.2 0.2 0.2 0.2)(0.2 0.2 0.2 0.2 0.2)(0.2 0.2 0.2 0.2 0.2)(0.990196078 0.000000000 0.009803922 0.000000000 0.000000000)(1.0 0.0 0.0 0.0 0.0)(0.2 0.2 0.2 0.2 0.2)(1.0 0.0 0.0 0.0 0.0)(1.0 0.0 0.0 0.0 0.0))((0.2 0.2 0.2 0.2 0.2)(0.2 0.2 0.2 0.2 0.2)(0.2 0.2 0.2 0.2 0.2)(0.2 0.2 0.2 0.2 0.2)(0.96666667 0.00000000 0.03333333 0.00000000 0.00000000)(1.0 0.0 0.0 0.0 0.0)(0.2 0.2 0.2 0.2 0.2)(0.2 0.2 0.2 0.2 0.2)(1.0 0.0 0.0 0.0 0.0))((1.0 0.0 0.0 0.0 0.0)(0.2 0.2 0.2 0.2 0.2)(0.2 0.2 0.2 0.2 0.2)(0.2 0.2 0.2 0.2 0.2)(1.0 0.0 0.0 0.0 0.0)(0.98571429 0.00000000 0.01428571 0.00000000 0.00000000)(0.2 0.2 0.2 0.2 0.2)(1.0 0.0 0.0 0.0 0.0)(1.0 0.0 0.0 0.0 0.0))((1.0 0.0 0.0 0.0 0.0)(0.2 0.2 0.2 0.2 0.2)(0.2 0.2 0.2 0.2 0.2)(0.2 0.2 0.2 0.2 0.2)(1.0 0.0 0.0 0.0 0.0)(0.2 0.2 0.2 0.2 0.2)(0.2 0.2 0.2 0.2 0.2)(0.2 0.2 0.2 0.2 0.2)(1.0 0.0 0.0 0.0 0.0))((0.2 0.2 0.2 0.2 0.2)(0.2 0.2 0.2 0.2 0.2)(0.2 0.2 0.2 0.2 0.2)(0.2 0.2 0.2 0.2 0.2)(1.0 0.0 0.0 0.0 0.0)(0.2 0.2 0.2 0.2 0.2)(0.2 0.2 0.2 0.2 0.2)(1.0 0.0 0.0 0.0 0.0)(0.2 0.2 0.2 0.2 0.2))((0.2 0.2 0.2 0.2 0.2)(0.2 0.2 0.2 0.2 0.2)(0.2 0.2 0.2 0.2 0.2)(0.2 0.2 0.2 0.2 0.2)(1.0 0.0 0.0 0.0 0.0)(0.2 0.2 0.2 0.2 0.2)(0.2 0.2 0.2 0.2 0.2)(0.2 0.2 0.2 0.2 0.2)(1.0 0.0 0.0 0.0 0.0))((1.0 0.0 0.0 0.0 0.0)(0.2 0.2 0.2 0.2 0.2)(0.2 0.2 0.2 0.2 0.2)(0.2 0.2 0.2 0.2 0.2)(0.96428571 0.00000000 0.03571429 0.00000000 0.00000000)(1.0 0.0 0.0 0.0 0.0)(0.2 0.2 0.2 0.2 0.2)(1.0 0.0 0.0 0.0 0.0)(1.0 0.0 0.0 0.0 0.0))((0.2 0.2 0.2 0.2 0.2)(0.2 0.2 0.2 0.2 0.2)(0.2 0.2 0.2 0.2 0.2)(0.2 0.2 0.2 0.2 0.2)(0.2 0.2 0.2 0.2 0.2)(0.2 0.2 0.2 0.2 0.2)(0.97398844 0.00000000 0.02601156 0.00000000 0.00000000)(0.2 0.2 0.2 0.2 0.2)(0.2 0.2 0.2 0.2 0.2)))(((0.33333333 0.00000000 0.37634409 0.20430108 0.08602151)(0.25609756 0.08536585 0.37804878 0.18292683 0.09756098)(0.30434783 0.17391304 0.23913043 0.06521739 0.21739130)(0.46153846 0.23076923 0.23076923 0.00000000 0.07692308)(0.26046512 0.21395349 0.36279070 0.09302326 0.06976744)(0.29292929 0.22222222 0.40404040 0.04040404 0.04040404)(0.2 0.2 0.2 0.2 0.2)(0.17073171 0.25609756 0.32926829 0.09756098 0.14634146)(0.34883721 0.09302326 0.38372093 0.12790698 0.04651163))((0.25 0.00 0.25 0.25 0.25)(0.1111111 0.1111111 0.3333333 0.2222222 0.2222222)(0.1666667 0.1666667 0.1666667 0.3333333 0.1666667)(0.0 0.0 0.0 0.0 1.0)(0.250 0.175 0.275 0.075 0.225)(0.10714286 0.32142857 0.35714286 0.03571429 0.17857143)(0.2 0.2 0.2 0.2 0.2)(0.375 0.125 0.000 0.250 0.250)(0.0 0.0 0.0 1.0 0.0))((0.7142857 0.0000000 0.1428571 0.1428571 0.0000000)(0.08477366 0.09382716 0.22633745 0.23950617 0.35555556)(0.07572115 0.11899038 0.17067308 0.18149038 0.45312500)(0.4 0.0 0.0 0.0 0.6)(0.2 0.2 0.2 0.2 0.2)(0.2187500 0.1979167 0.1979167 0.1250000 0.2604167)(0.2 0.2 0.2 0.2 0.2)(0.05135952 0.09969789 0.67371601 0.07250755 0.10271903)(0.2 0.2 0.2 0.2 0.2))((0.3333333 0.0000000 0.3333333 0.0000000 0.3333333)(0.2 0.2 0.2 0.2 0.2)(0.2 0.2 0.2 0.2 0.2)(0.2 0.2 0.2 0.2 0.2)(0.1332611 0.1570964 0.2394366 0.1733478 0.2968581)(0.2906977 0.1860465 0.1860465 0.1860465 0.1511628)(0.2 0.2 0.2 0.2 0.2)(0.1655172 0.1241379 0.2172414 0.1448276 0.3482759)(0.1553273 0.1026958 0.1874198 0.1489089 0.4056483))((0.0 0.0 0.0 0.5 0.5)(0.2 0.2 0.2 0.2 0.2)(0.2 0.2 0.2 0.2 0.2)(0.2 0.2 0.2 0.2 0.2)(0.1195652 0.1521739 0.2500000 0.1449275 0.3333333)(0.0 0.5 0.5 0.0 0.0)(0.2 0.2 0.2 0.2 0.2)(0.21428571 0.14285714 0.07142857 0.21428571 0.35714286)(0.1336406 0.1336406 0.2165899 0.1152074 0.4009217))((0.1722746 0.0000000 0.1749664 0.2799462 0.3728129)(0.2 0.2 0.2 0.2 0.2)(0.2 0.2 0.2 0.2 0.2)(0.2 0.2 0.2 0.2 0.2)(0.04564315 0.04564315 0.14107884 0.10788382 0.65975104)(0.08840701 0.15929942 0.22768974 0.16430359 0.36030025)(0.2 0.2 0.2 0.2 0.2)(0.08527132 0.15116279 0.24031008 0.13759690 0.38565891)(0.16049383 0.08641975 0.19753086 0.08641975 0.46913580))((0.1282051 0.0000000 0.1538462 0.3589744 0.3589744)(0.2 0.2 0.2 0.2 0.2)(0.2 0.2 0.2 0.2 0.2)(0.2 0.2 0.2 0.2 0.2)(0.03623188 0.07971014 0.20289855 0.18115942 0.50000000)(0.20 0.24 0.12 0.08 0.36)(0.2 0.2 0.2 0.2 0.2)(0.2222222 0.1111111 0.2222222 0.0000000 0.4444444)(0.03703704 0.07407407 0.22222222 0.11111111 0.55555556))((0.2 0.2 0.2 0.2 0.2)(0.2 0.2 0.2 0.2 0.2)(0.2 0.2 0.2 0.2 0.2)(0.2 0.2 0.2 0.2 0.2)(0.22950820 0.03278689 0.19672131 0.09836066 0.44262295)(0.0 0.0 0.0 0.5 0.5)(0.2 0.2 0.2 0.2 0.2)(0.08333333 0.25000000 0.41666667 0.08333333 0.16666667)(0.0 1.0 0.0 0.0 0.0))((0.0 0.0 1.0 0.0 0.0)(0.2 0.2 0.2 0.2 0.2)(0.2 0.2 0.2 0.2 0.2)(0.2 0.2 0.2 0.2 0.2)(0.2564103 0.2435897 0.1794872 0.1153846 0.2051282)(0.0 0.0 0.0 1.0 0.0)(0.2 0.2 0.2 0.2 0.2)(0.2 0.2 0.2 0.2 0.2)(0.1666667 0.1666667 0.0000000 0.3333333 0.3333333))((0.2023810 0.0000000 0.2619048 0.3571429 0.1785714)(0.2 0.2 0.2 0.2 0.2)(0.2 0.2 0.2 0.2 0.2)(0.2 0.2 0.2 0.2 0.2)(0.09615385 0.12912088 0.20329670 0.12637363 0.44505495)(0.08965517 0.20689655 0.26206897 0.24137931 0.20000000)(0.2 0.2 0.2 0.2 0.2)(0.1052632 0.2236842 0.1973684 0.1710526 0.3026316)(0.1145833 0.1432292 0.2291667 0.1822917 0.3307292))((0.2 0.2 0.2 0.2 0.2)(0.2 0.2 0.2 0.2 0.2)(0.2 0.2 0.2 0.2 0.2)(0.2 0.2 0.2 0.2 0.2)(0.2 0.2 0.2 0.2 0.2)(0.2 0.2 0.2 0.2 0.2)(0.07531107 0.08251473 0.16437459 0.13032089 0.54747872)(0.2 0.2 0.2 0.2 0.2)(0.2 0.2 0.2 0.2 0.2)))(((0.2 0.2 0.2 0.2 0.2)(0.2 0.2 0.2 0.2 0.2)(0.2 0.2 0.2 0.2 0.2)(0.2 0.2 0.2 0.2 0.2)(0.2 0.2 0.2 0.2 0.2)(0.2 0.2 0.2 0.2 0.2)(0.2 0.2 0.2 0.2 0.2)(0.2 0.2 0.2 0.2 0.2)(0.2 0.2 0.2 0.2 0.2))((0.1684054 0.0000000 0.3219076 0.4038748 0.1058122)(0.1129032 0.2123656 0.2735215 0.2083333 0.1928763)(0.1225984 0.1701738 0.2662397 0.2314730 0.2095151)(0.1323529 0.2279412 0.2500000 0.1397059 0.2500000)(0.1237171 0.2269071 0.2579750 0.1977809 0.1936200)(0.1438640 0.2562189 0.2728027 0.1894693 0.1376451)(0.2 0.2 0.2 0.2 0.2)(0.1466063 0.2515837 0.2633484 0.1782805 0.1601810)(0.1279521 0.2125485 0.2615439 0.2033839 0.1945717))((0.2 0.2 0.2 0.2 0.2)(0.2 0.2 0.2 0.2 0.2)(0.2 0.2 0.2 0.2 0.2)(0.2 0.2 0.2 0.2 0.2)(0.2 0.2 0.2 0.2 0.2)(0.2 0.2 0.2 0.2 0.2)(0.2 0.2 0.2 0.2 0.2)(0.2 0.2 0.2 0.2 0.2)(0.2 0.2 0.2 0.2 0.2))((0.2 0.2 0.2 0.2 0.2)(0.2 0.2 0.2 0.2 0.2)(0.2 0.2 0.2 0.2 0.2)(0.2 0.2 0.2 0.2 0.2)(0.2 0.2 0.2 0.2 0.2)(0.2 0.2 0.2 0.2 0.2)(0.2 0.2 0.2 0.2 0.2)(0.2 0.2 0.2 0.2 0.2)(0.2 0.2 0.2 0.2 0.2))((0.2 0.2 0.2 0.2 0.2)(0.2 0.2 0.2 0.2 0.2)(0.2 0.2 0.2 0.2 0.2)(0.2 0.2 0.2 0.2 0.2)(0.2 0.2 0.2 0.2 0.2)(0.2 0.2 0.2 0.2 0.2)(0.2 0.2 0.2 0.2 0.2)(0.2 0.2 0.2 0.2 0.2)(0.2 0.2 0.2 0.2 0.2))((0.2 0.2 0.2 0.2 0.2)(0.2 0.2 0.2 0.2 0.2)(0.2 0.2 0.2 0.2 0.2)(0.2 0.2 0.2 0.2 0.2)(0.2 0.2 0.2 0.2 0.2)(0.2 0.2 0.2 0.2 0.2)(0.2 0.2 0.2 0.2 0.2)(0.2 0.2 0.2 0.2 0.2)(0.2 0.2 0.2 0.2 0.2))((0.2 0.2 0.2 0.2 0.2)(0.2 0.2 0.2 0.2 0.2)(0.2 0.2 0.2 0.2 0.2)(0.2 0.2 0.2 0.2 0.2)(0.2 0.2 0.2 0.2 0.2)(0.2 0.2 0.2 0.2 0.2)(0.2 0.2 0.2 0.2 0.2)(0.2 0.2 0.2 0.2 0.2)(0.2 0.2 0.2 0.2 0.2))((0.2 0.2 0.2 0.2 0.2)(0.2 0.2 0.2 0.2 0.2)(0.2 0.2 0.2 0.2 0.2)(0.2 0.2 0.2 0.2 0.2)(0.2 0.2 0.2 0.2 0.2)(0.2 0.2 0.2 0.2 0.2)(0.2 0.2 0.2 0.2 0.2)(0.2 0.2 0.2 0.2 0.2)(0.2 0.2 0.2 0.2 0.2))((0.2 0.2 0.2 0.2 0.2)(0.2 0.2 0.2 0.2 0.2)(0.2 0.2 0.2 0.2 0.2)(0.2 0.2 0.2 0.2 0.2)(0.2 0.2 0.2 0.2 0.2)(0.2 0.2 0.2 0.2 0.2)(0.2 0.2 0.2 0.2 0.2)(0.2 0.2 0.2 0.2 0.2)(0.2 0.2 0.2 0.2 0.2))((0.2 0.2 0.2 0.2 0.2)(0.2 0.2 0.2 0.2 0.2)(0.2 0.2 0.2 0.2 0.2)(0.2 0.2 0.2 0.2 0.2)(0.2 0.2 0.2 0.2 0.2)(0.2 0.2 0.2 0.2 0.2)(0.2 0.2 0.2 0.2 0.2)(0.2 0.2 0.2 0.2 0.2)(0.2 0.2 0.2 0.2 0.2))((0.2 0.2 0.2 0.2 0.2)(0.2 0.2 0.2 0.2 0.2)(0.2 0.2 0.2 0.2 0.2)(0.2 0.2 0.2 0.2 0.2)(0.2 0.2 0.2 0.2 0.2)(0.2 0.2 0.2 0.2 0.2)(0.08272506 0.17639903 0.24391727 0.24695864 0.25000000)(0.2 0.2 0.2 0.2 0.2)(0.2 0.2 0.2 0.2 0.2)))(((0.15966387 0.00000000 0.68067227 0.10084034 0.05882353)(0.31428571 0.11428571 0.31428571 0.17142857 0.08571429)(0.13636364 0.25000000 0.53409091 0.05681818 0.02272727)(0.2857143 0.2857143 0.1428571 0.1428571 0.1428571)(0.1388889 0.2194444 0.3611111 0.1277778 0.1527778)(0.34782609 0.21739130 0.34782609 0.08695652 0.00000000)(0.2 0.2 0.2 0.2 0.2)(0.09090909 0.25874126 0.45454545 0.06993007 0.12587413)(0.28888889 0.17777778 0.33333333 0.08888889 0.11111111))((1.0 0.0 0.0 0.0 0.0)(0.0 0.5 0.0 0.5 0.0)(0.0 0.0 1.0 0.0 0.0)(0.2 0.2 0.2 0.2 0.2)(0.00 0.25 0.50 0.00 0.25)(0.3333333 0.1666667 0.1666667 0.0000000 0.3333333)(0.2 0.2 0.2 0.2 0.2)(0.00 0.75 0.25 0.00 0.00)(1.0 0.0 0.0 0.0 0.0))((0.1666667 0.0000000 0.1666667 0.6666667 0.0000000)(0.10895522 0.07910448 0.31791045 0.23731343 0.25671642)(0.1172840 0.1481481 0.2304527 0.2345679 0.2695473)(0.2 0.2 0.2 0.2 0.2)(0.2 0.2 0.2 0.2 0.2)(0.1428571 0.2000000 0.2571429 0.1714286 0.2285714)(0.2 0.2 0.2 0.2 0.2)(0.06666667 0.12777778 0.70555556 0.05000000 0.05000000)(0.2 0.2 0.2 0.2 0.2))((0.05263158 0.00000000 0.19736842 0.31578947 0.43421053)(0.2 0.2 0.2 0.2 0.2)(0.2 0.2 0.2 0.2 0.2)(0.2 0.2 0.2 0.2 0.2)(0.1533546 0.1980831 0.2619808 0.1853035 0.2012780)(0.20833333 0.12500000 0.41666667 0.16666667 0.08333333)(0.2 0.2 0.2 0.2 0.2)(0.2457627 0.1440678 0.2796610 0.1949153 0.1355932)(0.1657895 0.1052632 0.2421053 0.1763158 0.3105263))((0.0000000 0.0000000 0.0000000 0.3333333 0.6666667)(0.2 0.2 0.2 0.2 0.2)(0.2 0.2 0.2 0.2 0.2)(0.2 0.2 0.2 0.2 0.2)(0.1785714 0.2321429 0.2500000 0.1964286 0.1428571)(0.0 0.0 1.0 0.0 0.0)(0.2 0.2 0.2 0.2 0.2)(0.5 0.0 0.0 0.5 0.0)(0.2592593 0.1481481 0.2222222 0.1111111 0.2592593))((0.1526946 0.0000000 0.2125749 0.2934132 0.3413174)(0.2 0.2 0.2 0.2 0.2)(0.2 0.2 0.2 0.2 0.2)(0.2 0.2 0.2 0.2 0.2)(0.06091371 0.09137056 0.22335025 0.13705584 0.48730964)(0.1106719 0.1818182 0.2470356 0.1561265 0.3043478)(0.2 0.2 0.2 0.2 0.2)(0.1456311 0.1747573 0.2880259 0.1294498 0.2621359)(0.12244898 0.04081633 0.28571429 0.16326531 0.38775510))((0.1875 0.0000 0.1875 0.1875 0.4375)(0.2 0.2 0.2 0.2 0.2)(0.2 0.2 0.2 0.2 0.2)(0.2 0.2 0.2 0.2 0.2)(0.05405405 0.24324324 0.18918919 0.05405405 0.45945946)(0.5 0.0 0.5 0.0 0.0)(0.2 0.2 0.2 0.2 0.2)(0.00 0.00 0.75 0.25 0.00)(0.0000000 0.0000000 0.3333333 0.0000000 0.6666667))((0.0 0.0 0.0 1.0 0.0)(0.2 0.2 0.2 0.2 0.2)(0.2 0.2 0.2 0.2 0.2)(0.2 0.2 0.2 0.2 0.2)(0.09677419 0.04838710 0.22580645 0.08064516 0.54838710)(0.2 0.2 0.2 0.2 0.2)(0.2 0.2 0.2 0.2 0.2)(0.1428571 0.0000000 0.1428571 0.1428571 0.5714286)(0.2 0.2 0.2 0.2 0.2))((0.2 0.2 0.2 0.2 0.2)(0.2 0.2 0.2 0.2 0.2)(0.2 0.2 0.2 0.2 0.2)(0.2 0.2 0.2 0.2 0.2)(0.12903226 0.08602151 0.27956989 0.12903226 0.37634409)(0.2 0.2 0.2 0.2 0.2)(0.2 0.2 0.2 0.2 0.2)(0.0 0.0 1.0 0.0 0.0)(0.25 0.00 0.50 0.00 0.25))((0.1290323 0.0000000 0.2688172 0.3870968 0.2150538)(0.2 0.2 0.2 0.2 0.2)(0.2 0.2 0.2 0.2 0.2)(0.2 0.2 0.2 0.2 0.2)(0.08486563 0.11881188 0.23762376 0.15841584 0.40028289)(0.17460317 0.26984127 0.33333333 0.03174603 0.19047619)(0.2 0.2 0.2 0.2 0.2)(0.14516129 0.30645161 0.29032258 0.09677419 0.16129032)(0.1124260 0.1242604 0.2514793 0.1686391 0.3431953))((0.2 0.2 0.2 0.2 0.2)(0.2 0.2 0.2 0.2 0.2)(0.2 0.2 0.2 0.2 0.2)(0.2 0.2 0.2 0.2 0.2)(0.2 0.2 0.2 0.2 0.2)(0.2 0.2 0.2 0.2 0.2)(0.08635795 0.09261577 0.20650814 0.17396746 0.44055069)(0.2 0.2 0.2 0.2 0.2)(0.2 0.2 0.2 0.2 0.2)))(((0.38961039 0.00000000 0.38961039 0.19480519 0.02597403)(0.08959538 0.07514451 0.41329480 0.17052023 0.25144509)(0.1888889 0.2555556 0.3222222 0.1222222 0.1111111)(0.21052632 0.10526316 0.42105263 0.21052632 0.05263158)(0.17299578 0.22362869 0.40506329 0.08016878 0.11814346)(0.13333333 0.20000000 0.46666667 0.06666667 0.13333333)(0.2 0.2 0.2 0.2 0.2)(0.256 0.184 0.232 0.112 0.216)(0.11508951 0.07672634 0.48081841 0.12787724 0.19948849))((0.1780488 0.0000000 0.3170732 0.3902439 0.1146341)(0.09814324 0.16180371 0.27055703 0.22281167 0.24668435)(0.1007194 0.1402878 0.2625899 0.2050360 0.2913669)(0.1034483 0.2068966 0.2068966 0.2413793 0.2413793)(0.1173246 0.2072368 0.2412281 0.1885965 0.2456140)(0.1004274 0.2179487 0.2649573 0.2072650 0.2094017)(0.2 0.2 0.2 0.2 0.2)(0.1275862 0.1862069 0.2310345 0.2482759 0.2068966)(0.1044304 0.1898734 0.2705696 0.2231013 0.2120253))((0.2222222 0.0000000 0.1851852 0.3333333 0.2592593)(0.1042945 0.0797546 0.3251534 0.2269939 0.2638037)(0.08064516 0.12903226 0.17204301 0.16666667 0.45161290)(0.0000000 0.2857143 0.0000000 0.0000000 0.7142857)(0.2 0.2 0.2 0.2 0.2)(0.12676056 0.05633803 0.30985915 0.23943662 0.26760563)(0.2 0.2 0.2 0.2 0.2)(0.03448276 0.13793103 0.65517241 0.17241379 0.00000000)(0.2 0.2 0.2 0.2 0.2))((0.1935484 0.0000000 0.2795699 0.2795699 0.2473118)(0.2 0.2 0.2 0.2 0.2)(0.2 0.2 0.2 0.2 0.2)(0.2 0.2 0.2 0.2 0.2)(0.27272727 0.09090909 0.36363636 0.18181818 0.09090909)(0.1005291 0.1693122 0.2222222 0.1428571 0.3650794)(0.2 0.2 0.2 0.2 0.2)(0.1463415 0.1951220 0.1951220 0.1707317 0.2926829)(0.0000000 0.0000000 0.1428571 0.4285714 0.4285714))((0.3333333 0.0000000 0.3333333 0.3333333 0.0000000)(0.2 0.2 0.2 0.2 0.2)(0.2 0.2 0.2 0.2 0.2)(0.2 0.2 0.2 0.2 0.2)(0.00 0.25 0.00 0.25 0.50)(0.0 0.0 0.4 0.0 0.6)(0.2 0.2 0.2 0.2 0.2)(0.2 0.2 0.2 0.2 0.2)(0.0 0.0 0.0 1.0 0.0))((0.1428571 0.0000000 0.0000000 0.7142857 0.1428571)(0.2 0.2 0.2 0.2 0.2)(0.2 0.2 0.2 0.2 0.2)(0.2 0.2 0.2 0.2 0.2)(0.2 0.2 0.2 0.2 0.2)(0.05263158 0.13157895 0.23684211 0.26315789 0.31578947)(0.2 0.2 0.2 0.2 0.2)(0.18181818 0.27272727 0.09090909 0.09090909 0.36363636)(0.0 0.0 0.0 1.0 0.0))((0.0 0.0 0.0 0.0 1.0)(0.2 0.2 0.2 0.2 0.2)(0.2 0.2 0.2 0.2 0.2)(0.2 0.2 0.2 0.2 0.2)(0.0 0.0 1.0 0.0 0.0)(0.2 0.2 0.2 0.2 0.2)(0.2 0.2 0.2 0.2 0.2)(0.2 0.2 0.2 0.2 0.2)(0.2 0.2 0.2 0.2 0.2))((0.0 0.0 0.0 1.0 0.0)(0.2 0.2 0.2 0.2 0.2)(0.2 0.2 0.2 0.2 0.2)(0.2 0.2 0.2 0.2 0.2)(0.1509434 0.0754717 0.1886792 0.2641509 0.3207547)(0.0000000 0.2222222 0.2222222 0.2222222 0.3333333)(0.2 0.2 0.2 0.2 0.2)(0.25 0.10 0.15 0.30 0.20)(0.0 0.0 0.0 0.0 1.0))((0.0 0.0 0.5 0.5 0.0)(0.2 0.2 0.2 0.2 0.2)(0.2 0.2 0.2 0.2 0.2)(0.2 0.2 0.2 0.2 0.2)(0.1111111 0.1904762 0.2380952 0.1269841 0.3333333)(0.0000000 0.0000000 0.3333333 0.0000000 0.6666667)(0.2 0.2 0.2 0.2 0.2)(0.00 0.25 0.50 0.25 0.00)(0.0 0.0 0.0 0.5 0.5))((0.2222222 0.0000000 0.1666667 0.5000000 0.1111111)(0.2 0.2 0.2 0.2 0.2)(0.2 0.2 0.2 0.2 0.2)(0.2 0.2 0.2 0.2 0.2)(0.1007752 0.1705426 0.2170543 0.1782946 0.3333333)(0.04615385 0.21538462 0.24615385 0.15384615 0.33846154)(0.2 0.2 0.2 0.2 0.2)(0.1666667 0.2222222 0.2777778 0.1666667 0.1666667)(0.1026786 0.1250000 0.2232143 0.1696429 0.3794643))((0.2 0.2 0.2 0.2 0.2)(0.2 0.2 0.2 0.2 0.2)(0.2 0.2 0.2 0.2 0.2)(0.2 0.2 0.2 0.2 0.2)(0.2 0.2 0.2 0.2 0.2)(0.2 0.2 0.2 0.2 0.2)(0.08542714 0.13768844 0.30150754 0.14874372 0.32663317)(0.2 0.2 0.2 0.2 0.2)(0.2 0.2 0.2 0.2 0.2)))(((0.2 0.2 0.2 0.2 0.2)(0.2 0.2 0.2 0.2 0.2)(0.2 0.2 0.2 0.2 0.2)(0.2 0.2 0.2 0.2 0.2)(0.2 0.2 0.2 0.2 0.2)(0.2 0.2 0.2 0.2 0.2)(0.2 0.2 0.2 0.2 0.2)(0.2 0.2 0.2 0.2 0.2)(0.2 0.2 0.2 0.2 0.2))((0.2 0.2 0.2 0.2 0.2)(0.2 0.2 0.2 0.2 0.2)(0.2 0.2 0.2 0.2 0.2)(0.2 0.2 0.2 0.2 0.2)(0.2 0.2 0.2 0.2 0.2)(0.2 0.2 0.2 0.2 0.2)(0.2 0.2 0.2 0.2 0.2)(0.2 0.2 0.2 0.2 0.2)(0.2 0.2 0.2 0.2 0.2))((0.2 0.2 0.2 0.2 0.2)(0.2 0.2 0.2 0.2 0.2)(0.2 0.2 0.2 0.2 0.2)(0.2 0.2 0.2 0.2 0.2)(0.2 0.2 0.2 0.2 0.2)(0.2 0.2 0.2 0.2 0.2)(0.2 0.2 0.2 0.2 0.2)(0.2 0.2 0.2 0.2 0.2)(0.2 0.2 0.2 0.2 0.2))((0.2 0.2 0.2 0.2 0.2)(0.2 0.2 0.2 0.2 0.2)(0.2 0.2 0.2 0.2 0.2)(0.2 0.2 0.2 0.2 0.2)(0.2 0.2 0.2 0.2 0.2)(0.2 0.2 0.2 0.2 0.2)(0.2 0.2 0.2 0.2 0.2)(0.2 0.2 0.2 0.2 0.2)(0.2 0.2 0.2 0.2 0.2))((0.2 0.2 0.2 0.2 0.2)(0.2 0.2 0.2 0.2 0.2)(0.2 0.2 0.2 0.2 0.2)(0.2 0.2 0.2 0.2 0.2)(0.2 0.2 0.2 0.2 0.2)(0.2 0.2 0.2 0.2 0.2)(0.2 0.2 0.2 0.2 0.2)(0.2 0.2 0.2 0.2 0.2)(0.2 0.2 0.2 0.2 0.2))((0.2 0.2 0.2 0.2 0.2)(0.2 0.2 0.2 0.2 0.2)(0.2 0.2 0.2 0.2 0.2)(0.2 0.2 0.2 0.2 0.2)(0.2 0.2 0.2 0.2 0.2)(0.2 0.2 0.2 0.2 0.2)(0.2 0.2 0.2 0.2 0.2)(0.2 0.2 0.2 0.2 0.2)(0.2 0.2 0.2 0.2 0.2))((0.2 0.2 0.2 0.2 0.2)(0.2 0.2 0.2 0.2 0.2)(0.2 0.2 0.2 0.2 0.2)(0.2 0.2 0.2 0.2 0.2)(0.2 0.2 0.2 0.2 0.2)(0.2 0.2 0.2 0.2 0.2)(0.2 0.2 0.2 0.2 0.2)(0.2 0.2 0.2 0.2 0.2)(0.2 0.2 0.2 0.2 0.2))((0.2 0.2 0.2 0.2 0.2)(0.2 0.2 0.2 0.2 0.2)(0.2 0.2 0.2 0.2 0.2)(0.2 0.2 0.2 0.2 0.2)(0.2 0.2 0.2 0.2 0.2)(0.2 0.2 0.2 0.2 0.2)(0.2 0.2 0.2 0.2 0.2)(0.2 0.2 0.2 0.2 0.2)(0.2 0.2 0.2 0.2 0.2))((0.2 0.2 0.2 0.2 0.2)(0.2 0.2 0.2 0.2 0.2)(0.2 0.2 0.2 0.2 0.2)(0.2 0.2 0.2 0.2 0.2)(0.2 0.2 0.2 0.2 0.2)(0.2 0.2 0.2 0.2 0.2)(0.2 0.2 0.2 0.2 0.2)(0.2 0.2 0.2 0.2 0.2)(0.2 0.2 0.2 0.2 0.2))((0.2 0.2 0.2 0.2 0.2)(0.2 0.2 0.2 0.2 0.2)(0.2 0.2 0.2 0.2 0.2)(0.2 0.2 0.2 0.2 0.2)(0.2 0.2 0.2 0.2 0.2)(0.2 0.2 0.2 0.2 0.2)(0.2 0.2 0.2 0.2 0.2)(0.2 0.2 0.2 0.2 0.2)(0.2 0.2 0.2 0.2 0.2))((0.2 0.2 0.2 0.2 0.2)(0.2 0.2 0.2 0.2 0.2)(0.2 0.2 0.2 0.2 0.2)(0.2 0.2 0.2 0.2 0.2)(0.2 0.2 0.2 0.2 0.2)(0.2 0.2 0.2 0.2 0.2)(0.2 0.2 0.2 0.2 0.2)(0.2 0.2 0.2 0.2 0.2)(0.2 0.2 0.2 0.2 0.2)))(((0.2 0.2 0.2 0.2 0.2)(0.2 0.2 0.2 0.2 0.2)(0.2 0.2 0.2 0.2 0.2)(0.2 0.2 0.2 0.2 0.2)(0.2 0.2 0.2 0.2 0.2)(0.2 0.2 0.2 0.2 0.2)(0.2 0.2 0.2 0.2 0.2)(0.2 0.2 0.2 0.2 0.2)(0.2 0.2 0.2 0.2 0.2))((0.2 0.2 0.2 0.2 0.2)(0.2 0.2 0.2 0.2 0.2)(0.2 0.2 0.2 0.2 0.2)(0.2 0.2 0.2 0.2 0.2)(0.2 0.2 0.2 0.2 0.2)(0.2 0.2 0.2 0.2 0.2)(0.2 0.2 0.2 0.2 0.2)(0.2 0.2 0.2 0.2 0.2)(0.2 0.2 0.2 0.2 0.2))((0.2 0.2 0.2 0.2 0.2)(0.2 0.2 0.2 0.2 0.2)(0.2 0.2 0.2 0.2 0.2)(0.2 0.2 0.2 0.2 0.2)(0.2 0.2 0.2 0.2 0.2)(0.2 0.2 0.2 0.2 0.2)(0.2 0.2 0.2 0.2 0.2)(0.2 0.2 0.2 0.2 0.2)(0.2 0.2 0.2 0.2 0.2))((0.2 0.2 0.2 0.2 0.2)(0.2 0.2 0.2 0.2 0.2)(0.2 0.2 0.2 0.2 0.2)(0.2 0.2 0.2 0.2 0.2)(0.2 0.2 0.2 0.2 0.2)(0.2 0.2 0.2 0.2 0.2)(0.2 0.2 0.2 0.2 0.2)(0.2 0.2 0.2 0.2 0.2)(0.2 0.2 0.2 0.2 0.2))((0.2 0.2 0.2 0.2 0.2)(0.2 0.2 0.2 0.2 0.2)(0.2 0.2 0.2 0.2 0.2)(0.2 0.2 0.2 0.2 0.2)(0.2 0.2 0.2 0.2 0.2)(0.2 0.2 0.2 0.2 0.2)(0.2 0.2 0.2 0.2 0.2)(0.2 0.2 0.2 0.2 0.2)(0.2 0.2 0.2 0.2 0.2))((0.2 0.2 0.2 0.2 0.2)(0.2 0.2 0.2 0.2 0.2)(0.2 0.2 0.2 0.2 0.2)(0.2 0.2 0.2 0.2 0.2)(0.2 0.2 0.2 0.2 0.2)(0.2 0.2 0.2 0.2 0.2)(0.2 0.2 0.2 0.2 0.2)(0.2 0.2 0.2 0.2 0.2)(0.2 0.2 0.2 0.2 0.2))((0.2 0.2 0.2 0.2 0.2)(0.2 0.2 0.2 0.2 0.2)(0.2 0.2 0.2 0.2 0.2)(0.2 0.2 0.2 0.2 0.2)(0.2 0.2 0.2 0.2 0.2)(0.2 0.2 0.2 0.2 0.2)(0.2 0.2 0.2 0.2 0.2)(0.2 0.2 0.2 0.2 0.2)(0.2 0.2 0.2 0.2 0.2))((0.2 0.2 0.2 0.2 0.2)(0.2 0.2 0.2 0.2 0.2)(0.2 0.2 0.2 0.2 0.2)(0.2 0.2 0.2 0.2 0.2)(0.2 0.2 0.2 0.2 0.2)(0.2 0.2 0.2 0.2 0.2)(0.2 0.2 0.2 0.2 0.2)(0.2 0.2 0.2 0.2 0.2)(0.2 0.2 0.2 0.2 0.2))((0.2 0.2 0.2 0.2 0.2)(0.2 0.2 0.2 0.2 0.2)(0.2 0.2 0.2 0.2 0.2)(0.2 0.2 0.2 0.2 0.2)(0.2 0.2 0.2 0.2 0.2)(0.2 0.2 0.2 0.2 0.2)(0.2 0.2 0.2 0.2 0.2)(0.2 0.2 0.2 0.2 0.2)(0.2 0.2 0.2 0.2 0.2))((0.2 0.2 0.2 0.2 0.2)(0.2 0.2 0.2 0.2 0.2)(0.2 0.2 0.2 0.2 0.2)(0.2 0.2 0.2 0.2 0.2)(0.2 0.2 0.2 0.2 0.2)(0.2 0.2 0.2 0.2 0.2)(0.2 0.2 0.2 0.2 0.2)(0.2 0.2 0.2 0.2 0.2)(0.2 0.2 0.2 0.2 0.2))((0.2 0.2 0.2 0.2 0.2)(0.2 0.2 0.2 0.2 0.2)(0.2 0.2 0.2 0.2 0.2)(0.2 0.2 0.2 0.2 0.2)(0.2 0.2 0.2 0.2 0.2)(0.2 0.2 0.2 0.2 0.2)(0.2 0.2 0.2 0.2 0.2)(0.2 0.2 0.2 0.2 0.2)(0.2 0.2 0.2 0.2 0.2)))(((0.2 0.2 0.2 0.2 0.2)(0.2 0.2 0.2 0.2 0.2)(0.2 0.2 0.2 0.2 0.2)(0.2 0.2 0.2 0.2 0.2)(1.0 0.0 0.0 0.0 0.0)(0.6 0.0 0.2 0.2 0.0)(0.2 0.2 0.2 0.2 0.2)(0.2 0.2 0.2 0.2 0.2)(0.0 0.0 0.0 0.0 1.0))((0.2 0.2 0.2 0.2 0.2)(0.0 1.0 0.0 0.0 0.0)(0.2 0.2 0.2 0.2 0.2)(0.0 1.0 0.0 0.0 0.0)(0.0 0.0 0.5 0.0 0.5)(0.1 0.1 0.3 0.3 0.2)(0.2 0.2 0.2 0.2 0.2)(0.0 0.5 0.5 0.0 0.0)(0.1666667 0.1666667 0.3333333 0.3333333 0.0000000))((1.0 0.0 0.0 0.0 0.0)(0.2 0.2 0.2 0.2 0.2)(0.2 0.2 0.2 0.2 0.2)(0.2 0.2 0.2 0.2 0.2)(0.2 0.2 0.2 0.2 0.2)(0.2 0.2 0.2 0.2 0.2)(0.2 0.2 0.2 0.2 0.2)(0.2 0.2 0.2 0.2 0.2)(0.2 0.2 0.2 0.2 0.2))((0.2 0.2 0.2 0.2 0.2)(0.2 0.2 0.2 0.2 0.2)(0.2 0.2 0.2 0.2 0.2)(0.2 0.2 0.2 0.2 0.2)(0.2 0.2 0.2 0.2 0.2)(0.2 0.2 0.2 0.2 0.2)(0.2 0.2 0.2 0.2 0.2)(0.2 0.2 0.2 0.2 0.2)(0.0 1.0 0.0 0.0 0.0))((0.2 0.2 0.2 0.2 0.2)(0.2 0.2 0.2 0.2 0.2)(0.2 0.2 0.2 0.2 0.2)(0.2 0.2 0.2 0.2 0.2)(0.0 0.0 1.0 0.0 0.0)(0.2 0.2 0.2 0.2 0.2)(0.2 0.2 0.2 0.2 0.2)(0.2 0.2 0.2 0.2 0.2)(0.0 0.0 0.0 0.0 1.0))((0.0 0.0 0.0 1.0 0.0)(0.2 0.2 0.2 0.2 0.2)(0.2 0.2 0.2 0.2 0.2)(0.2 0.2 0.2 0.2 0.2)(0.0 0.0 0.0 0.0 1.0)(0.25 0.00 0.00 0.25 0.50)(0.2 0.2 0.2 0.2 0.2)(0.0 0.0 0.0 0.0 1.0)(0.2 0.2 0.2 0.2 0.2))((0.2 0.2 0.2 0.2 0.2)(0.2 0.2 0.2 0.2 0.2)(0.2 0.2 0.2 0.2 0.2)(0.2 0.2 0.2 0.2 0.2)(0.2 0.2 0.2 0.2 0.2)(0.2 0.2 0.2 0.2 0.2)(0.2 0.2 0.2 0.2 0.2)(0.2 0.2 0.2 0.2 0.2)(0.2 0.2 0.2 0.2 0.2))((0.2 0.2 0.2 0.2 0.2)(0.2 0.2 0.2 0.2 0.2)(0.2 0.2 0.2 0.2 0.2)(0.2 0.2 0.2 0.2 0.2)(0.2 0.2 0.2 0.2 0.2)(0.2 0.2 0.2 0.2 0.2)(0.2 0.2 0.2 0.2 0.2)(0.2 0.2 0.2 0.2 0.2)(0.2 0.2 0.2 0.2 0.2))((0.2 0.2 0.2 0.2 0.2)(0.2 0.2 0.2 0.2 0.2)(0.2 0.2 0.2 0.2 0.2)(0.2 0.2 0.2 0.2 0.2)(0.2 0.2 0.2 0.2 0.2)(0.2 0.2 0.2 0.2 0.2)(0.2 0.2 0.2 0.2 0.2)(0.2 0.2 0.2 0.2 0.2)(0.2 0.2 0.2 0.2 0.2))((0.2 0.2 0.2 0.2 0.2)(0.2 0.2 0.2 0.2 0.2)(0.2 0.2 0.2 0.2 0.2)(0.2 0.2 0.2 0.2 0.2)(0.2 0.2 0.2 0.2 0.2)(0.0 0.0 0.0 0.0 1.0)(0.2 0.2 0.2 0.2 0.2)(0.0 0.0 0.0 0.0 1.0)(1.0 0.0 0.0 0.0 0.0))((0.2 0.2 0.2 0.2 0.2)(0.2 0.2 0.2 0.2 0.2)(0.2 0.2 0.2 0.2 0.2)(0.2 0.2 0.2 0.2 0.2)(0.2 0.2 0.2 0.2 0.2)(0.2 0.2 0.2 0.2 0.2)(0.4444444 0.0000000 0.2222222 0.1111111 0.2222222)(0.2 0.2 0.2 0.2 0.2)(0.2 0.2 0.2 0.2 0.2)))(((0.2 0.2 0.2 0.2 0.2)(0.2 0.2 0.2 0.2 0.2)(0.2 0.2 0.2 0.2 0.2)(0.2 0.2 0.2 0.2 0.2)(0.2 0.2 0.2 0.2 0.2)(0.2 0.2 0.2 0.2 0.2)(0.2 0.2 0.2 0.2 0.2)(0.2 0.2 0.2 0.2 0.2)(0.2 0.2 0.2 0.2 0.2))((0.2 0.2 0.2 0.2 0.2)(0.2 0.2 0.2 0.2 0.2)(0.2 0.2 0.2 0.2 0.2)(0.2 0.2 0.2 0.2 0.2)(0.2 0.2 0.2 0.2 0.2)(0.2 0.2 0.2 0.2 0.2)(0.2 0.2 0.2 0.2 0.2)(0.2 0.2 0.2 0.2 0.2)(0.2 0.2 0.2 0.2 0.2))((0.2 0.2 0.2 0.2 0.2)(0.2 0.2 0.2 0.2 0.2)(0.2 0.2 0.2 0.2 0.2)(0.2 0.2 0.2 0.2 0.2)(0.2 0.2 0.2 0.2 0.2)(0.2 0.2 0.2 0.2 0.2)(0.2 0.2 0.2 0.2 0.2)(0.2 0.2 0.2 0.2 0.2)(0.2 0.2 0.2 0.2 0.2))((0.2 0.2 0.2 0.2 0.2)(0.2 0.2 0.2 0.2 0.2)(0.2 0.2 0.2 0.2 0.2)(0.2 0.2 0.2 0.2 0.2)(0.2 0.2 0.2 0.2 0.2)(0.2 0.2 0.2 0.2 0.2)(0.2 0.2 0.2 0.2 0.2)(0.2 0.2 0.2 0.2 0.2)(0.2 0.2 0.2 0.2 0.2))((0.2 0.2 0.2 0.2 0.2)(0.2 0.2 0.2 0.2 0.2)(0.2 0.2 0.2 0.2 0.2)(0.2 0.2 0.2 0.2 0.2)(0.2 0.2 0.2 0.2 0.2)(0.2 0.2 0.2 0.2 0.2)(0.2 0.2 0.2 0.2 0.2)(0.2 0.2 0.2 0.2 0.2)(0.2 0.2 0.2 0.2 0.2))((0.2 0.2 0.2 0.2 0.2)(0.2 0.2 0.2 0.2 0.2)(0.2 0.2 0.2 0.2 0.2)(0.2 0.2 0.2 0.2 0.2)(0.2 0.2 0.2 0.2 0.2)(0.2 0.2 0.2 0.2 0.2)(0.2 0.2 0.2 0.2 0.2)(0.2 0.2 0.2 0.2 0.2)(0.2 0.2 0.2 0.2 0.2))((0.2 0.2 0.2 0.2 0.2)(0.2 0.2 0.2 0.2 0.2)(0.2 0.2 0.2 0.2 0.2)(0.2 0.2 0.2 0.2 0.2)(0.2 0.2 0.2 0.2 0.2)(0.2 0.2 0.2 0.2 0.2)(0.2 0.2 0.2 0.2 0.2)(0.2 0.2 0.2 0.2 0.2)(0.2 0.2 0.2 0.2 0.2))((0.2 0.2 0.2 0.2 0.2)(0.2 0.2 0.2 0.2 0.2)(0.2 0.2 0.2 0.2 0.2)(0.2 0.2 0.2 0.2 0.2)(0.2 0.2 0.2 0.2 0.2)(0.2 0.2 0.2 0.2 0.2)(0.2 0.2 0.2 0.2 0.2)(0.2 0.2 0.2 0.2 0.2)(0.2 0.2 0.2 0.2 0.2))((0.2 0.2 0.2 0.2 0.2)(0.2 0.2 0.2 0.2 0.2)(0.2 0.2 0.2 0.2 0.2)(0.2 0.2 0.2 0.2 0.2)(0.2 0.2 0.2 0.2 0.2)(0.2 0.2 0.2 0.2 0.2)(0.2 0.2 0.2 0.2 0.2)(0.2 0.2 0.2 0.2 0.2)(0.2 0.2 0.2 0.2 0.2))((0.2 0.2 0.2 0.2 0.2)(0.2 0.2 0.2 0.2 0.2)(0.2 0.2 0.2 0.2 0.2)(0.2 0.2 0.2 0.2 0.2)(0.2 0.2 0.2 0.2 0.2)(0.2 0.2 0.2 0.2 0.2)(0.2 0.2 0.2 0.2 0.2)(0.2 0.2 0.2 0.2 0.2)(0.2 0.2 0.2 0.2 0.2))((0.2 0.2 0.2 0.2 0.2)(0.2 0.2 0.2 0.2 0.2)(0.2 0.2 0.2 0.2 0.2)(0.2 0.2 0.2 0.2 0.2)(0.2 0.2 0.2 0.2 0.2)(0.2 0.2 0.2 0.2 0.2)(0.2 0.2 0.2 0.2 0.2)(0.2 0.2 0.2 0.2 0.2)(0.2 0.2 0.2 0.2 0.2)))(((0.2 0.2 0.2 0.2 0.2)(0.3 0.0 0.3 0.0 0.4)(0.2 0.2 0.2 0.2 0.2)(0.39090909 0.10000000 0.26363636 0.09090909 0.15454545)(0.2 0.2 0.2 0.2 0.2)(0.2 0.2 0.2 0.2 0.2)(0.2 0.2 0.2 0.2 0.2)(0.4 0.4 0.2 0.0 0.0)(0.2 0.2 0.2 0.2 0.2))((0.0 0.0 1.0 0.0 0.0)(0.1685393 0.1498127 0.2134831 0.2546816 0.2134831)(0.0000000 0.1666667 0.3333333 0.5000000 0.0000000)(0.1264368 0.1293103 0.2270115 0.2078544 0.3093870)(0.2380952 0.1904762 0.3333333 0.2380952 0.0000000)(0.1666667 0.0000000 0.5000000 0.3333333 0.0000000)(0.2 0.2 0.2 0.2 0.2)(0.250 0.250 0.375 0.125 0.000)(0.08333333 0.08333333 0.50000000 0.25000000 0.08333333))((0.1345708 0.0000000 0.2018561 0.2923434 0.3712297)(0.11051693 0.09447415 0.19073084 0.19251337 0.41176471)(0.0 0.0 0.0 1.0 0.0)(0.1574924 0.1116208 0.1880734 0.1100917 0.4327217)(0.2 0.2 0.2 0.2 0.2)(0.1244541 0.1637555 0.2248908 0.1572052 0.3296943)(0.2 0.2 0.2 0.2 0.2)(0.08284024 0.08284024 0.57988166 0.10650888 0.14792899)(0.2 0.2 0.2 0.2 0.2))((0.2 0.2 0.2 0.2 0.2)(0.2 0.2 0.2 0.2 0.2)(0.2 0.2 0.2 0.2 0.2)(0.2 0.2 0.2 0.2 0.2)(0.00 0.00 0.75 0.00 0.25)(0.2 0.2 0.2 0.2 0.2)(0.2 0.2 0.2 0.2 0.2)(0.0 0.0 0.0 0.0 1.0)(0.0 0.0 0.0 0.0 1.0))((0.2 0.2 0.2 0.2 0.2)(0.2 0.2 0.2 0.2 0.2)(0.2 0.2 0.2 0.2 0.2)(0.2 0.2 0.2 0.2 0.2)(0.2 0.2 0.2 0.2 0.2)(0.2 0.2 0.2 0.2 0.2)(0.2 0.2 0.2 0.2 0.2)(0.2 0.2 0.2 0.2 0.2)(0.2 0.2 0.2 0.2 0.2))((0.2 0.2 0.2 0.2 0.2)(0.2 0.2 0.2 0.2 0.2)(0.2 0.2 0.2 0.2 0.2)(0.2 0.2 0.2 0.2 0.2)(0.2 0.2 0.2 0.2 0.2)(0.2 0.2 0.2 0.2 0.2)(0.2 0.2 0.2 0.2 0.2)(0.0 0.5 0.5 0.0 0.0)(0.2 0.2 0.2 0.2 0.2))((0.2 0.2 0.2 0.2 0.2)(0.2 0.2 0.2 0.2 0.2)(0.2 0.2 0.2 0.2 0.2)(0.2 0.2 0.2 0.2 0.2)(0.2 0.2 0.2 0.2 0.2)(0.2 0.2 0.2 0.2 0.2)(0.2 0.2 0.2 0.2 0.2)(0.2 0.2 0.2 0.2 0.2)(0.2 0.2 0.2 0.2 0.2))((0.2 0.2 0.2 0.2 0.2)(0.2 0.2 0.2 0.2 0.2)(0.2 0.2 0.2 0.2 0.2)(0.2 0.2 0.2 0.2 0.2)(0.2 0.2 0.2 0.2 0.2)(0.2 0.2 0.2 0.2 0.2)(0.2 0.2 0.2 0.2 0.2)(0.2 0.2 0.2 0.2 0.2)(0.2 0.2 0.2 0.2 0.2))((0.2 0.2 0.2 0.2 0.2)(0.2 0.2 0.2 0.2 0.2)(0.2 0.2 0.2 0.2 0.2)(0.2 0.2 0.2 0.2 0.2)(0.2 0.2 0.2 0.2 0.2)(0.2 0.2 0.2 0.2 0.2)(0.2 0.2 0.2 0.2 0.2)(0.2 0.2 0.2 0.2 0.2)(0.2 0.2 0.2 0.2 0.2))((0.2 0.2 0.2 0.2 0.2)(0.2 0.2 0.2 0.2 0.2)(0.2 0.2 0.2 0.2 0.2)(0.2 0.2 0.2 0.2 0.2)(0.0 0.0 0.0 0.0 1.0)(0.2 0.2 0.2 0.2 0.2)(0.2 0.2 0.2 0.2 0.2)(0.2 0.2 0.2 0.2 0.2)(0.0 0.2 0.6 0.0 0.2))((0.2 0.2 0.2 0.2 0.2)(0.2 0.2 0.2 0.2 0.2)(0.2 0.2 0.2 0.2 0.2)(0.2 0.2 0.2 0.2 0.2)(0.2 0.2 0.2 0.2 0.2)(0.2 0.2 0.2 0.2 0.2)(0.08333333 0.00000000 0.25000000 0.08333333 0.58333333)(0.2 0.2 0.2 0.2 0.2)(0.2 0.2 0.2 0.2 0.2))))((((0.2 0.2 0.2 0.2 0.2)(0.2 0.2 0.2 0.2 0.2)(0.2 0.2 0.2 0.2 0.2)(0.2 0.2 0.2 0.2 0.2)(0.2 0.2 0.2 0.2 0.2)(0.2 0.2 0.2 0.2 0.2)(0.2 0.2 0.2 0.2 0.2)(0.2 0.2 0.2 0.2 0.2)(0.2 0.2 0.2 0.2 0.2))((0.2 0.2 0.2 0.2 0.2)(0.2 0.2 0.2 0.2 0.2)(0.2 0.2 0.2 0.2 0.2)(0.2 0.2 0.2 0.2 0.2)(0.2 0.2 0.2 0.2 0.2)(0.2 0.2 0.2 0.2 0.2)(0.2 0.2 0.2 0.2 0.2)(0.2 0.2 0.2 0.2 0.2)(0.2 0.2 0.2 0.2 0.2))((0.2 0.2 0.2 0.2 0.2)(0.2 0.2 0.2 0.2 0.2)(0.2 0.2 0.2 0.2 0.2)(0.2 0.2 0.2 0.2 0.2)(0.2 0.2 0.2 0.2 0.2)(0.2 0.2 0.2 0.2 0.2)(0.2 0.2 0.2 0.2 0.2)(0.2 0.2 0.2 0.2 0.2)(0.2 0.2 0.2 0.2 0.2))((0.2 0.2 0.2 0.2 0.2)(0.2 0.2 0.2 0.2 0.2)(0.2 0.2 0.2 0.2 0.2)(0.2 0.2 0.2 0.2 0.2)(0.2 0.2 0.2 0.2 0.2)(0.2 0.2 0.2 0.2 0.2)(0.2 0.2 0.2 0.2 0.2)(0.2 0.2 0.2 0.2 0.2)(0.2 0.2 0.2 0.2 0.2))((0.2 0.2 0.2 0.2 0.2)(0.2 0.2 0.2 0.2 0.2)(0.2 0.2 0.2 0.2 0.2)(0.2 0.2 0.2 0.2 0.2)(0.2 0.2 0.2 0.2 0.2)(0.2 0.2 0.2 0.2 0.2)(0.2 0.2 0.2 0.2 0.2)(0.2 0.2 0.2 0.2 0.2)(0.2 0.2 0.2 0.2 0.2))((0.2 0.2 0.2 0.2 0.2)(0.2 0.2 0.2 0.2 0.2)(0.2 0.2 0.2 0.2 0.2)(0.2 0.2 0.2 0.2 0.2)(0.2 0.2 0.2 0.2 0.2)(0.2 0.2 0.2 0.2 0.2)(0.2 0.2 0.2 0.2 0.2)(0.2 0.2 0.2 0.2 0.2)(0.2 0.2 0.2 0.2 0.2))((0.2 0.2 0.2 0.2 0.2)(0.2 0.2 0.2 0.2 0.2)(0.2 0.2 0.2 0.2 0.2)(0.2 0.2 0.2 0.2 0.2)(0.2 0.2 0.2 0.2 0.2)(0.2 0.2 0.2 0.2 0.2)(0.2 0.2 0.2 0.2 0.2)(0.2 0.2 0.2 0.2 0.2)(0.2 0.2 0.2 0.2 0.2))((0.2 0.2 0.2 0.2 0.2)(0.2 0.2 0.2 0.2 0.2)(0.2 0.2 0.2 0.2 0.2)(0.2 0.2 0.2 0.2 0.2)(0.2 0.2 0.2 0.2 0.2)(0.2 0.2 0.2 0.2 0.2)(0.2 0.2 0.2 0.2 0.2)(0.2 0.2 0.2 0.2 0.2)(0.2 0.2 0.2 0.2 0.2))((0.2 0.2 0.2 0.2 0.2)(0.2 0.2 0.2 0.2 0.2)(0.2 0.2 0.2 0.2 0.2)(0.2 0.2 0.2 0.2 0.2)(0.2 0.2 