<?xml version='1.0' encoding='utf-8'?>
<BIF VERSION="0.3">
  <NETWORK>
    <NAME>UNTITLED</NAME>
    <VARIABLE TYPE="nature">
      <NAME>APRESENTACAO_ADMISSAO</NAME>
      <OUTCOME>0_0</OUTCOME>
      <OUTCOME>1_0</OUTCOME>
      <OUTCOME>2_0</OUTCOME>
      <OUTCOME>3_0</OUTCOME>
      <OUTCOME>4_0</OUTCOME>
      <OUTCOME>5_0</OUTCOME>
      <OUTCOME>6_0</OUTCOME>
      <PROPERTY>weight = None</PROPERTY>
    </VARIABLE>
    <VARIABLE TYPE="nature">
      <NAME>APRESENTACAO_NO_PARTO</NAME>
      <OUTCOME>0_0</OUTCOME>
      <OUTCOME>1_0</OUTCOME>
      <OUTCOME>2_0</OUTCOME>
      <OUTCOME>3_0</OUTCOME>
      <OUTCOME>4_0</OUTCOME>
      <PROPERTY>weight = None</PROPERTY>
    </VARIABLE>
    <VARIABLE TYPE="nature">
      <NAME>A_GESTA</NAME>
      <OUTCOME>0_0</OUTCOME>
      <OUTCOME>1_0</OUTCOME>
      <OUTCOME>2_0</OUTCOME>
      <PROPERTY>weight = None</PROPERTY>
    </VARIABLE>
    <VARIABLE TYPE="nature">
      <NAME>A_PARA</NAME>
      <OUTCOME>0_0</OUTCOME>
      <OUTCOME>1_0</OUTCOME>
      <PROPERTY>weight = None</PROPERTY>
    </VARIABLE>
    <VARIABLE TYPE="nature">
      <NAME>CESARIANAS_ANTERIOR</NAME>
      <OUTCOME>0_0</OUTCOME>
      <OUTCOME>1_0</OUTCOME>
      <PROPERTY>weight = None</PROPERTY>
    </VARIABLE>
    <VARIABLE TYPE="nature">
      <NAME>EUTOCITO_ANTERIOR</NAME>
      <OUTCOME>0_0</OUTCOME>
      <OUTCOME>1_0</OUTCOME>
      <PROPERTY>weight = None</PROPERTY>
    </VARIABLE>
    <VARIABLE TYPE="nature">
      <NAME>GRUPO_ROBSON</NAME>
      <OUTCOME>0_0</OUTCOME>
      <OUTCOME>1_0</OUTCOME>
      <OUTCOME>2_0</OUTCOME>
      <OUTCOME>3_0</OUTCOME>
      <OUTCOME>4_0</OUTCOME>
      <OUTCOME>5_0</OUTCOME>
      <OUTCOME>6_0</OUTCOME>
      <OUTCOME>7_0</OUTCOME>
      <OUTCOME>8_0</OUTCOME>
      <OUTCOME>9_0</OUTCOME>
      <OUTCOME>10_0</OUTCOME>
      <PROPERTY>weight = None</PROPERTY>
    </VARIABLE>
    <VARIABLE TYPE="nature">
      <NAME>GS</NAME>
      <OUTCOME>0_0</OUTCOME>
      <OUTCOME>1_0</OUTCOME>
      <OUTCOME>2_0</OUTCOME>
      <OUTCOME>3_0</OUTCOME>
      <OUTCOME>4_0</OUTCOME>
      <OUTCOME>5_0</OUTCOME>
      <OUTCOME>6_0</OUTCOME>
      <OUTCOME>7_0</OUTCOME>
      <OUTCOME>8_0</OUTCOME>
      <OUTCOME>9_0</OUTCOME>
      <OUTCOME>10_0</OUTCOME>
      <OUTCOME>11_0</OUTCOME>
      <OUTCOME>12_0</OUTCOME>
      <OUTCOME>13_0</OUTCOME>
      <PROPERTY>weight = None</PROPERTY>
    </VARIABLE>
    <VARIABLE TYPE="nature">
      <NAME>IDADE_GESTACIONAL_ADMISSAO</NAME>
      <OUTCOME>0_0</OUTCOME>
      <OUTCOME>1_0</OUTCOME>
      <OUTCOME>2_0</OUTCOME>
      <OUTCOME>3_0</OUTCOME>
      <OUTCOME>4_0</OUTCOME>
      <PROPERTY>weight = None</PROPERTY>
    </VARIABLE>
    <VARIABLE TYPE="nature">
      <NAME>IDADE_MATERNA</NAME>
      <OUTCOME>0_0</OUTCOME>
      <OUTCOME>1_0</OUTCOME>
      <OUTCOME>2_0</OUTCOME>
      <OUTCOME>3_0</OUTCOME>
      <OUTCOME>4_0</OUTCOME>
      <PROPERTY>weight = None</PROPERTY>
    </VARIABLE>
    <VARIABLE TYPE="nature">
      <NAME>IMC</NAME>
      <OUTCOME>0_0</OUTCOME>
      <OUTCOME>1_0</OUTCOME>
      <OUTCOME>2_0</OUTCOME>
      <OUTCOME>3_0</OUTCOME>
      <OUTCOME>4_0</OUTCOME>
      <PROPERTY>weight = None</PROPERTY>
    </VARIABLE>
    <VARIABLE TYPE="nature">
      <NAME>NUMERO_CONSULTAS_PRE_NATAL</NAME>
      <OUTCOME>0_0</OUTCOME>
      <OUTCOME>1_0</OUTCOME>
      <OUTCOME>2_0</OUTCOME>
      <OUTCOME>3_0</OUTCOME>
      <PROPERTY>weight = None</PROPERTY>
    </VARIABLE>
    <VARIABLE TYPE="nature">
      <NAME>PESO_INICIAL</NAME>
      <OUTCOME>0_0</OUTCOME>
      <OUTCOME>1_0</OUTCOME>
      <OUTCOME>2_0</OUTCOME>
      <OUTCOME>3_0</OUTCOME>
      <OUTCOME>4_0</OUTCOME>
      <PROPERTY>weight = None</PROPERTY>
    </VARIABLE>
    <VARIABLE TYPE="nature">
      <NAME>SEMANAS_GESTACAO_PARTO</NAME>
      <OUTCOME>0_0</OUTCOME>
      <OUTCOME>1_0</OUTCOME>
      <OUTCOME>2_0</OUTCOME>
      <OUTCOME>3_0</OUTCOME>
      <OUTCOME>4_0</OUTCOME>
      <PROPERTY>weight = None</PROPERTY>
    </VARIABLE>
    <VARIABLE TYPE="nature">
      <NAME>TIPO_GRAVIDEZ</NAME>
      <OUTCOME>0_0</OUTCOME>
      <OUTCOME>1_0</OUTCOME>
      <OUTCOME>2_0</OUTCOME>
      <OUTCOME>3_0</OUTCOME>
      <OUTCOME>4_0</OUTCOME>
      <OUTCOME>5_0</OUTCOME>
      <OUTCOME>6_0</OUTCOME>
      <PROPERTY>weight = None</PROPERTY>
    </VARIABLE>
    <VARIABLE TYPE="nature">
      <NAME>TIPO_PARTO</NAME>
      <OUTCOME>0_0</OUTCOME>
      <OUTCOME>1_0</OUTCOME>
      <OUTCOME>2_0</OUTCOME>
      <OUTCOME>3_0</OUTCOME>
      <OUTCOME>4_0</OUTCOME>
      <OUTCOME>5_0</OUTCOME>
      <OUTCOME>6_0</OUTCOME>
      <OUTCOME>7_0</OUTCOME>
      <PROPERTY>weight = None</PROPERTY>
    </VARIABLE>
    <VARIABLE TYPE="nature">
      <NAME>TRAB_PARTO_ENTRADA_ESPONTANEO</NAME>
      <OUTCOME>0_0</OUTCOME>
      <OUTCOME>1_0</OUTCOME>
      <PROPERTY>weight = None</PROPERTY>
    </VARIABLE>
    <VARIABLE TYPE="nature">
      <NAME>TRAB_PARTO_NO_PARTO</NAME>
      <OUTCOME>0_0</OUTCOME>
      <OUTCOME>1_0</OUTCOME>
      <OUTCOME>2_0</OUTCOME>
      <OUTCOME>3_0</OUTCOME>
      <OUTCOME>4_0</OUTCOME>
      <OUTCOME>5_0</OUTCOME>
      <OUTCOME>6_0</OUTCOME>
      <OUTCOME>7_0</OUTCOME>
      <OUTCOME>8_0</OUTCOME>
      <OUTCOME>9_0</OUTCOME>
      <OUTCOME>10_0</OUTCOME>
      <PROPERTY>weight = None</PROPERTY>
    </VARIABLE>
    <VARIABLE TYPE="nature">
      <NAME>VENTOSAS_ANTERIOR</NAME>
      <OUTCOME>0_0</OUTCOME>
      <PROPERTY>weight = None</PROPERTY>
    </VARIABLE>
    <VARIABLE TYPE="nature">
      <NAME>VIGIADA</NAME>
      <OUTCOME>0_0</OUTCOME>
      <OUTCOME>1_0</OUTCOME>
      <OUTCOME>2_0</OUTCOME>
      <OUTCOME>3_0</OUTCOME>
      <PROPERTY>weight = None</PROPERTY>
    </VARIABLE>
    <VARIABLE TYPE="nature">
      <NAME>VIGIADA_CENTRO_SAUDE</NAME>
      <OUTCOME>0_0</OUTCOME>
      <OUTCOME>1_0</OUTCOME>
      <PROPERTY>weight = None</PROPERTY>
    </VARIABLE>
    <VARIABLE TYPE="nature">
      <NAME>VIGIADA_NESTE_HOSPITAL</NAME>
      <OUTCOME>0_0</OUTCOME>
      <OUTCOME>1_0</OUTCOME>
      <PROPERTY>weight = None</PROPERTY>
    </VARIABLE>
    <VARIABLE TYPE="nature">
      <NAME>VIGIADA_PARICULAR</NAME>
      <OUTCOME>0_0</OUTCOME>
      <OUTCOME>1_0</OUTCOME>
      <PROPERTY>weight = None</PROPERTY>
    </VARIABLE>
    <VARIABLE TYPE="nature">
      <NAME>silo</NAME>
      <OUTCOME>0_0</OUTCOME>
      <OUTCOME>1_0</OUTCOME>
      <OUTCOME>2_0</OUTCOME>
      <OUTCOME>3_0</OUTCOME>
      <OUTCOME>4_0</OUTCOME>
      <OUTCOME>5_0</OUTCOME>
      <OUTCOME>6_0</OUTCOME>
      <OUTCOME>7_0</OUTCOME>
      <OUTCOME>8_0</OUTCOME>
      <PROPERTY>weight = None</PROPERTY>
    </VARIABLE>
    <DEFINITION>
      <FOR>APRESENTACAO_ADMISSAO</FOR>
      <GIVEN>APRESENTACAO_NO_PARTO</GIVEN>
      <GIVEN>CESARIANAS_ANTERIOR</GIVEN>
      <GIVEN>silo</GIVEN>
      <TABLE>0.3333333333333333 0.0 0.0 0.0 0.0 0.0 0.6666666666666666 0.4135737009544008 0.0 0.0 0.0 0.0010604453870625664 0.0 0.5853658536585366 0.5 0.0 0.0 0.0 0.0 0.0 0.5 0.0 0.0 0.0 0.0 0.0 0.0 1.0 0.45119252520285225 0.0004917629702483403 0.0007376444553725104 0.0 0.0024588148512417014 0.0 0.5451192525202853 0.21744791666666666 0.0 0.0 0.0 0.0013020833333333333 0.0006510416666666666 0.7805989583333334 0.7234314980793854 0.0 0.0012804097311139564 0.0 0.0012804097311139564 0.0 0.2740076824583867 0.20103092783505155 0.0 0.0 0.0 0.0 0.0 0.7989690721649485 0.2470414201183432 0.0 0.0 0.0 0.0 0.0 0.7529585798816568 0.1276908023483366 0.0 0.00016307893020221786 0.0 0.0006523157208088715 0.00016307893020221786 0.8713307240704501 0.20655633354551242 0.00031826861871419476 0.000795671546785487 0.0 0.0009548058561425843 0.0006365372374283895 0.7907383831954169 0.5426509186351706 0.0004374453193350831 0.0015310586176727908 0.0 0.0015310586176727908 0.0008748906386701663 0.45297462817147854 0.038651685393258424 0.0 0.0 0.0 0.0 0.0 0.9613483146067415 0.23026493039964077 0.0001796138302649304 0.0007184553210597216 0.0 0.000898069151324652 8.98069151324652e-05 0.7678491243825775 0.15075981196020552 0.00010932546190007652 0.00021865092380015305 0.0 0.0007652782333005357 0.0007652782333005357 0.8473816551874932 0.650351789538085 0.00015295197308045274 0.0 0.0003059039461609055 0.0010706638115631692 0.0 0.34811869073111046 0.11254019292604502 0.0 0.0003572704537334762 0.0 0.0001786352268667381 0.0 0.8869239013933548 0.25587606837606836 0.0 0.00021367521367521368 0.0 0.0008547008547008547 0.0 0.7430555555555556 0.14285714285714285 0.14285714285714285 0.14285714285714285 0.14285714285714285 0.14285714285714285 0.14285714285714285 0.14285714285714285 0.0 0.5 0.0 0.0 0.0 0.0 0.5 0.14285714285714285 0.14285714285714285 0.14285714285714285 0.14285714285714285 0.14285714285714285 0.14285714285714285 0.14285714285714285 0.14285714285714285 0.14285714285714285 0.14285714285714285 0.14285714285714285 0.14285714285714285 0.14285714285714285 0.14285714285714285 0.0 0.0 1.0 0.0 0.0 0.0 0.0 0.0 0.0 0.0 0.0 0.0 0.0 1.0 0.0 0.0 0.0 0.0 0.0 0.0 1.0 0.14285714285714285 0.14285714285714285 0.14285714285714285 0.14285714285714285 0.14285714285714285 0.14285714285714285 0.14285714285714285 0.14285714285714285 0.14285714285714285 0.14285714285714285 0.14285714285714285 0.14285714285714285 0.14285714285714285 0.14285714285714285 0.0 0.0 0.0 0.0 0.0 0.0 1.0 0.0625 0.0 0.0 0.0 0.0625 0.0 0.875 0.0 0.0 0.0 0.0 0.3333333333333333 0.0 0.6666666666666666 0.0 0.0 0.0 0.0 0.0 0.0 1.0 0.125 0.0 0.0 0.0 0.0 0.125 0.75 0.0 0.0 0.0 0.0 0.0 0.2857142857142857 0.7142857142857143 0.125 0.0 0.125 0.0 0.0 0.125 0.625 0.0 0.0 0.0 0.0 0.0 0.0 1.0 0.0 0.0 0.16666666666666666 0.0 0.0 0.0 0.8333333333333334 0.14285714285714285 0.14285714285714285 0.14285714285714285 0.14285714285714285 0.14285714285714285 0.14285714285714285 0.14285714285714285 0.0 0.0 0.0 0.0 0.0 0.0 1.0 0.14285714285714285 0.14285714285714285 0.14285714285714285 0.14285714285714285 0.14285714285714285 0.14285714285714285 0.14285714285714285 0.14285714285714285 0.14285714285714285 0.14285714285714285 0.14285714285714285 0.14285714285714285 0.14285714285714285 0.14285714285714285 0.0 0.0 0.0 0.0 0.0 0.0 1.0 0.0 0.0 0.0 0.0 0.0 0.0 1.0 1.0 0.0 0.0 0.0 0.0 0.0 0.0 0.14285714285714285 0.14285714285714285 0.14285714285714285 0.14285714285714285 0.14285714285714285 0.14285714285714285 0.14285714285714285 0.0 0.0 0.0 0.0 0.0 0.0 1.0 0.0 0.0 0.0 0.0 0.0 0.0 1.0 0.18181818181818182 0.0 0.0 0.0 0.0 0.0 0.8181818181818182 0.6666666666666666 0.0 0.0 0.0 0.0 0.0 0.3333333333333333 0.0 0.0 0.0 0.0 0.0 0.0 1.0 0.4 0.0 0.0 0.0 0.0 0.0 0.6 0.0 0.0 0.0 0.0 0.0 0.0 1.0 0.0 0.0 0.0 0.0 0.3333333333333333 0.0 0.6666666666666666 0.2 0.0 0.0 0.0 0.0 0.0 0.8 0.125 0.0 0.0 0.0 0.0 0.0 0.875 0.14285714285714285 0.14285714285714285 0.14285714285714285 0.14285714285714285 0.14285714285714285 0.14285714285714285 0.14285714285714285 0.0 0.0 0.0 0.0 0.3793103448275862 0.0 0.6206896551724138 0.14285714285714285 0.14285714285714285 0.14285714285714285 0.14285714285714285 0.14285714285714285 0.14285714285714285 0.14285714285714285 0.14285714285714285 0.14285714285714285 0.14285714285714285 0.14285714285714285 0.14285714285714285 0.14285714285714285 0.14285714285714285 0.022058823529411766 0.0 0.0 0.0 0.39705882352941174 0.007352941176470588 0.5735294117647058 0.01020408163265306 0.0 0.0 0.0 0.11224489795918367 0.0 0.8775510204081632 0.05128205128205128 0.0 0.0 0.0 0.5897435897435898 0.0 0.358974358974359 0.0 0.0 0.0 0.0 0.0 0.0 1.0 0.0 0.0 0.0 0.0 0.2222222222222222 0.0 0.7777777777777778 0.011142061281337047 0.0 0.0 0.0 0.07520891364902507 0.0 0.9136490250696379 0.005917159763313609 0.0 0.0 0.0 0.15384615384615385 0.0029585798816568047 0.8372781065088757 0.03070175438596491 0.0 0.0 0.0 0.32456140350877194 0.0043859649122807015 0.6403508771929824 0.010869565217391304 0.0 0.0 0.0 0.06521739130434782 0.0 0.9239130434782609 0.013054830287206266 0.0 0.0 0.0 0.10052219321148825 0.005221932114882507 0.881201044386423 0.009708737864077669 0.0 0.0 0.0 0.08576051779935275 0.0 0.9045307443365695 0.05263157894736842 0.0 0.008310249307479225 0.0 0.4487534626038781 0.00554016620498615 0.48476454293628807 0.0032258064516129032 0.0 0.0 0.0 0.041935483870967745 0.0032258064516129032 0.9516129032258065 0.0430327868852459 0.0 0.0020491803278688526 0.0 0.27049180327868855 0.0 0.6844262295081968 0.14285714285714285 0.14285714285714285 0.14285714285714285 0.14285714285714285 0.14285714285714285 0.14285714285714285 0.14285714285714285 0.14285714285714285 0.14285714285714285 0.14285714285714285 0.14285714285714285 0.14285714285714285 0.14285714285714285 0.14285714285714285 0.14285714285714285 0.14285714285714285 0.14285714285714285 0.14285714285714285 0.14285714285714285 0.14285714285714285 0.14285714285714285 0.14285714285714285 0.14285714285714285 0.14285714285714285 0.14285714285714285 0.14285714285714285 0.14285714285714285 0.14285714285714285 0.0 0.0 0.0 0.0 0.0 0.0 1.0 0.0 0.0 0.0 0.0 0.0 0.0 1.0 0.0 0.0 0.0 0.0 0.0 0.0 1.0 0.0 0.0 0.0 0.0 0.0 0.0 1.0 0.14285714285714285 0.14285714285714285 0.14285714285714285 0.14285714285714285 0.14285714285714285 0.14285714285714285 0.14285714285714285 0.13636363636363635 0.0 0.0 0.0 0.0 0.0 0.8636363636363636 0.0 0.0 0.0 0.0 0.0 0.0 1.0 0.0 0.0 0.0 0.0 0.6 0.0 0.4 0.1111111111111111 0.0 0.0 0.0 0.0 0.0 0.8888888888888888 0.0 0.0 0.0 0.0 0.0 0.0 1.0 0.07317073170731707 0.0 0.0 0.0 0.024390243902439025 0.0 0.9024390243902439 0.75 0.0 0.0 0.0 0.0 0.0 0.25 0.0 0.0 0.0 0.0 0.0 0.0 1.0 0.041666666666666664 0.0 0.0 0.0 0.08333333333333333 0.0 0.875 </TABLE>
    </DEFINITION>
    <DEFINITION>
      <FOR>APRESENTACAO_NO_PARTO</FOR>
      <GIVEN>GRUPO_ROBSON</GIVEN>
      <TABLE>1.0 0.0 0.0 0.0 0.0 1.0 0.0 0.0 0.0 0.0 1.0 0.0 0.0 0.0 0.0 1.0 0.0 0.0 0.0 0.0 1.0 0.0 0.0 0.0 0.0 1.0 0.0 0.0 0.0 0.0 0.0 0.0 0.0 1.0 0.0 0.0 0.0 0.0 1.0 0.0 0.9473684210526315 0.0 0.0 0.05263157894736842 0.0 0.0 1.0 0.0 0.0 0.0 0.930992141453831 0.0002455795677799607 0.01768172888015717 0.02038310412573674 0.030697445972495088 </TABLE>
    </DEFINITION>
    <DEFINITION>
      <FOR>A_GESTA</FOR>
      <GIVEN>A_PARA</GIVEN>
      <GIVEN>CESARIANAS_ANTERIOR</GIVEN>
      <GIVEN>GRUPO_ROBSON</GIVEN>
      <TABLE>0.0008254230293025176 0.800660338423442 0.19851423854725547 0.004016064257028112 0.7188755020080321 0.27710843373493976 0.0025974025974025974 0.7783549783549784 0.21904761904761905 0.0 1.0 0.0 0.0 0.5 0.5 0.0 1.0 0.0 0.0 0.8088235294117647 0.19117647058823528 0.3333333333333333 0.3333333333333333 0.3333333333333333 0.0 0.7692307692307693 0.23076923076923078 0.0 0.5 0.5 0.0 0.8223140495867769 0.17768595041322313 0.000576036866359447 0.8732718894009217 0.1261520737327189 0.0 0.8366666666666667 0.16333333333333333 0.0 0.8549757281553398 0.14502427184466019 0.0 1.0 0.0 0.0 1.0 0.0 0.3333333333333333 0.3333333333333333 0.3333333333333333 0.0 0.8463949843260188 0.1536050156739812 0.3333333333333333 0.3333333333333333 0.3333333333333333 0.0 1.0 0.0 0.0 1.0 0.0 0.0 0.8044280442804428 0.19557195571955718 0.0 0.0 1.0 0.0 0.014285714285714285 0.9857142857142858 0.0 0.6 0.4 0.0 0.002446696959105208 0.9975533030408948 0.0 0.0036855036855036856 0.9963144963144963 0.3333333333333333 0.3333333333333333 0.3333333333333333 0.3333333333333333 0.3333333333333333 0.3333333333333333 0.0 0.0 1.0 0.0 0.0 1.0 0.0 0.0 1.0 0.0 0.007936507936507936 0.9920634920634921 0.0001424197108879869 0.8300932849106316 0.1697642953784804 0.0 0.4277519803332423 0.5722480196667578 0.00031709121657330094 0.8056230842405665 0.19405982454286017 0.0 0.0010938354558949917 0.998906164544105 0.0 0.0013067624959163672 0.9986932375040837 0.0 0.0017809439002671415 0.9982190560997328 0.0005546311702717693 0.817526344980588 0.18191902384914033 0.0 0.0007326007326007326 0.9992673992673993 0.0 0.23529411764705882 0.7647058823529411 0.0 0.16666666666666666 0.8333333333333334 0.0 0.4175990323556093 0.5824009676443906 </TABLE>
    </DEFINITION>
    <DEFINITION>
      <FOR>A_PARA</FOR>
      <GIVEN>GRUPO_ROBSON</GIVEN>
      <GIVEN>silo</GIVEN>
      <TABLE>0.06999391357273281 0.9300060864272672 0.14276846679081315 0.8572315332091869 0.4227156276686593 0.5772843723313408 0.2236024844720497 0.7763975155279503 0.3657726085924519 0.634227391407548 0.2857592942659105 0.7142407057340895 0.1731253145445395 0.8268746854554605 0.191800878477306 0.808199121522694 0.07959680222453945 0.9204031977754605 0.058426966292134834 0.9415730337078652 0.12307692307692308 0.8769230769230769 0.2508591065292096 0.7491408934707904 0.046511627906976744 0.9534883720930233 0.16567036720751493 0.8343296327924851 0.11424731182795698 0.885752688172043 0.10982658959537572 0.8901734104046243 0.1330166270783848 0.8669833729216152 0.04745166959578207 0.9525483304042179 0.07331975560081466 0.9266802443991853 0.14241960183767227 0.8575803981623277 0.41289592760180993 0.5871040723981901 0.10526315789473684 0.8947368421052632 0.3495409724583475 0.6504590275416525 0.2798573975044563 0.7201426024955436 0.16895874263261296 0.831041257367387 0.20848845867460908 0.7915115413253909 0.08901515151515152 0.9109848484848485 0.0 1.0 0.0006720430107526882 0.9993279569892473 0.0 1.0 0.0 1.0 0.00027739251040221914 0.9997226074895977 0.0 1.0 0.0 1.0 0.0 1.0 0.0 1.0 0.0 1.0 0.0 1.0 0.0034602076124567475 0.9965397923875432 0.0 1.0 0.0005467468562055768 0.9994532531437944 0.0015151515151515152 0.9984848484848485 0.0 1.0 0.0 1.0 0.0 1.0 0.0 1.0 0.0 1.0 0.0 1.0 0.0 1.0 0.0007092198581560284 0.999290780141844 0.0 1.0 0.0010050251256281408 0.9989949748743718 0.0 1.0 0.0 1.0 0.0947867298578199 0.9052132701421801 0.11737089201877934 0.8826291079812206 0.5413533834586466 0.45864661654135336 0.1875 0.8125 0.3543046357615894 0.6456953642384106 0.23702031602708803 0.7629796839729119 0.14473684210526316 0.8552631578947368 0.1782178217821782 0.8217821782178217 0.05434782608695652 0.9456521739130435 0.0 1.0 0.0 1.0 0.0 1.0 0.0 1.0 0.0 1.0 0.0 1.0 0.0 1.0 0.0 1.0 0.0 1.0 0.0 1.0 0.0 1.0 0.5 0.5 0.0 1.0 0.14285714285714285 0.8571428571428571 0.4782608695652174 0.5217391304347826 0.2222222222222222 0.7777777777777778 0.25 0.75 0.3 0.7 0.0 1.0 0.1111111111111111 0.8888888888888888 0.6666666666666666 0.3333333333333333 0.5 0.5 0.2222222222222222 0.7777777777777778 0.25 0.75 0.0 1.0 0.0 1.0 0.0 1.0 0.029978586723768737 0.9700214132762313 0.2918108419838524 0.7081891580161477 0.13333333333333333 0.8666666666666667 0.08647214854111406 0.9135278514588859 0.2 0.8 0.08030592734225621 0.9196940726577438 0.06666666666666667 0.9333333333333333 0.12307692307692308 0.8769230769230769 0.10909090909090909 0.8909090909090909 </TABLE>
    </DEFINITION>
    <DEFINITION>
      <FOR>CESARIANAS_ANTERIOR</FOR>
      <GIVEN>A_PARA</GIVEN>
      <GIVEN>GRUPO_ROBSON</GIVEN>
      <GIVEN>silo</GIVEN>
      <TABLE>0.008695652173913044 0.991304347826087 0.4434782608695652 0.5565217391304348 0.00202020202020202 0.997979797979798 0.0 1.0 0.9059052563270603 0.09409474367293964 0.6152149944873209 0.38478500551267913 0.6017441860465116 0.39825581395348836 0.10687022900763359 0.8931297709923665 0.5676855895196506 0.43231441048034935 0.0 1.0 0.3541666666666667 0.6458333333333334 0.0 1.0 0.0 1.0 0.8041237113402062 0.1958762886597938 0.4823529411764706 0.5176470588235295 0.5789473684210527 0.42105263157894735 0.017857142857142856 0.9821428571428571 0.4444444444444444 0.5555555555555556 0.0 1.0 0.3978494623655914 0.6021505376344086 0.0027397260273972603 0.9972602739726028 0.5 0.5 0.5233463035019456 0.4766536964980545 0.5817409766454352 0.4182590233545648 0.6046511627906976 0.3953488372093023 0.11071428571428571 0.8892857142857142 0.5673758865248227 0.4326241134751773 0.5 0.5 0.0 1.0 0.5 0.5 0.5 0.5 1.0 0.0 0.5 0.5 0.5 0.5 0.5 0.5 0.5 0.5 0.5 0.5 0.5 0.5 0.0 1.0 0.5 0.5 1.0 0.0 1.0 0.0 0.5 0.5 0.5 0.5 0.5 0.5 0.5 0.5 0.5 0.5 0.5 0.5 0.5 0.5 1.0 0.0 0.5 0.5 1.0 0.0 0.5 0.5 0.5 0.5 0.0 1.0 0.28 0.72 0.0 1.0 0.0 1.0 0.46261682242990654 0.5373831775700935 0.638095238095238 0.3619047619047619 0.6060606060606061 0.3939393939393939 0.05555555555555555 0.9444444444444444 0.6 0.4 0.5 0.5 0.5 0.5 0.5 0.5 0.5 0.5 0.5 0.5 0.5 0.5 0.5 0.5 0.5 0.5 0.5 0.5 0.5 0.5 0.5 0.5 0.5 0.5 0.5 0.5 1.0 0.0 0.6363636363636364 0.36363636363636365 1.0 0.0 0.0 1.0 1.0 0.0 0.5 0.5 0.5 0.5 0.0 1.0 0.5 0.5 0.0 1.0 0.5 0.5 0.5 0.5 0.5 0.5 0.5 0.5 0.0 1.0 0.8972332015810277 0.10276679841897234 0.0 1.0 0.006134969325153374 0.9938650306748467 0.7142857142857143 0.2857142857142857 0.047619047619047616 0.9523809523809523 1.0 0.0 0.041666666666666664 0.9583333333333334 0.6666666666666666 0.3333333333333333 0.0 1.0 0.0 1.0 0.0 1.0 0.0 1.0 0.00037425149700598805 0.999625748502994 0.0 1.0 0.0 1.0 0.0 1.0 0.0 1.0 0.0 1.0 0.03508771929824561 0.9649122807017544 0.0 1.0 0.0 1.0 0.11156601842374617 0.8884339815762539 0.06828528072837632 0.9317147192716236 0.05519480519480519 0.9448051948051948 0.0136986301369863 0.9863013698630136 0.04059040590405904 0.959409594095941 0.0 1.0 0.0 1.0 0.0 1.0 0.0 1.0 0.0015682174594877157 0.9984317825405122 0.0008250825082508251 0.9991749174917491 0.0007880220646178094 0.9992119779353822 0.0 1.0 0.0 1.0 0.0007451564828614009 0.9992548435171386 0.14996637525218562 0.8500336247478144 0.0036596523330283625 0.9963403476669717 0.007352941176470588 0.9926470588235294 0.42147613762486125 0.5785238623751388 0.19361525704809288 0.8063847429519071 0.15450121654501217 0.8454987834549879 0.07058823529411765 0.9294117647058824 0.11068029608741628 0.8893197039125837 0.0015384615384615385 0.9984615384615385 0.13295615275813297 0.867043847241867 0.0 1.0 0.0 1.0 0.18107221006564553 0.8189277899343544 0.17298937784522003 0.8270106221547799 0.1476846057571965 0.8523153942428036 0.06144578313253012 0.9385542168674699 0.11931818181818182 0.8806818181818182 0.0 1.0 0.0 1.0 0.0 1.0 0.0 1.0 0.0 1.0 0.0 1.0 0.0 1.0 0.0 1.0 0.0 1.0 0.0 1.0 0.0 1.0 0.0 1.0 0.0 1.0 0.0 1.0 0.0 1.0 0.0 1.0 0.0 1.0 0.0 1.0 0.0 1.0 0.07142857142857142 0.9285714285714286 0.0 1.0 0.0 1.0 0.12416107382550336 0.8758389261744967 0.11152416356877323 0.8884758364312267 0.11046511627906977 0.8895348837209303 0.017857142857142856 0.9821428571428571 0.07627118644067797 0.923728813559322 0.0 1.0 0.0 1.0 0.5 0.5 0.0 1.0 0.16666666666666666 0.8333333333333334 0.0 1.0 0.2857142857142857 0.7142857142857143 0.0 1.0 0.2857142857142857 0.7142857142857143 0.0 1.0 0.0625 0.9375 0.0 1.0 0.5 0.5 0.14285714285714285 0.8571428571428571 0.0 1.0 0.1111111111111111 0.8888888888888888 0.0 1.0 0.0 1.0 0.0 1.0 0.33876221498371334 0.6612377850162866 0.0 1.0 0.0011614401858304297 0.9988385598141696 0.21428571428571427 0.7857142857142857 0.060291060291060294 0.9397089397089398 0.07142857142857142 0.9285714285714286 0.0 1.0 0.10204081632653061 0.8979591836734694 </TABLE>
    </DEFINITION>
    <DEFINITION>
      <FOR>EUTOCITO_ANTERIOR</FOR>
      <GIVEN>A_PARA</GIVEN>
      <GIVEN>CESARIANAS_ANTERIOR</GIVEN>
      <GIVEN>GRUPO_ROBSON</GIVEN>
      <GIVEN>silo</GIVEN>
      <TABLE>1.0 0.0 1.0 0.0 1.0 0.0 0.5 0.5 0.9992836676217765 0.0007163323782234957 1.0 0.0 1.0 0.0 1.0 0.0 1.0 0.0 0.5 0.5 1.0 0.0 0.5 0.5 0.5 0.5 1.0 0.0 1.0 0.0 1.0 0.0 1.0 0.0 1.0 0.0 0.5 0.5 1.0 0.0 1.0 0.0 1.0 0.0 1.0 0.0 0.9963503649635036 0.0036496350364963502 0.9935897435897436 0.00641025641025641 1.0 0.0 1.0 0.0 0.5 0.5 0.5 0.5 0.5 0.5 0.5 0.5 1.0 0.0 0.5 0.5 0.5 0.5 0.5 0.5 0.5 0.5 0.5 0.5 0.5 0.5 0.5 0.5 0.5 0.5 1.0 0.0 1.0 0.0 0.5 0.5 0.5 0.5 0.5 0.5 0.5 0.5 0.5 0.5 0.5 0.5 0.5 0.5 1.0 0.0 0.5 0.5 1.0 0.0 0.5 0.5 0.5 0.5 0.5 0.5 1.0 0.0 0.5 0.5 0.5 0.5 1.0 0.0 0.9850746268656716 0.014925373134328358 1.0 0.0 1.0 0.0 1.0 0.0 0.5 0.5 0.5 0.5 0.5 0.5 0.5 0.5 0.5 0.5 0.5 0.5 0.5 0.5 0.5 0.5 0.5 0.5 0.5 0.5 0.5 0.5 0.5 0.5 0.5 0.5 1.0 0.0 1.0 0.0 1.0 0.0 0.5 0.5 1.0 0.0 0.5 0.5 1.0 0.0 0.5 0.5 0.5 0.5 0.5 0.5 1.0 0.0 0.5 0.5 0.5 0.5 0.5 0.5 0.5 0.5 1.0 0.0 0.5 0.5 1.0 0.0 1.0 0.0 1.0 0.0 1.0 0.0 1.0 0.0 1.0 0.0 0.0 1.0 0.0 1.0 0.0 1.0 0.0 1.0 0.14482758620689656 0.8551724137931035 0.014326647564469915 0.9856733524355301 0.0 1.0 0.0 1.0 0.0 1.0 0.0 1.0 0.0 1.0 0.0 1.0 0.0 1.0 0.34210526315789475 0.6578947368421053 0.045454545454545456 0.9545454545454546 0.0 1.0 0.01818181818181818 0.9818181818181818 0.0 1.0 0.0 1.0 0.0 1.0 0.0 1.0 0.0 1.0 0.8530612244897959 0.1469387755102041 0.030456852791878174 0.9695431472081218 0.0 1.0 0.004016064257028112 0.9959839357429718 0.0 1.0 0.5 0.5 0.0 1.0 0.5 0.5 0.5 0.5 0.5 0.5 0.5 0.5 0.5 0.5 0.5 0.5 0.5 0.5 0.5 0.5 0.5 0.5 0.0 1.0 0.5 0.5 0.5 0.5 0.5 0.5 0.5 0.5 0.5 0.5 0.5 0.5 0.5 0.5 0.5 0.5 0.5 0.5 0.5 0.5 0.5 0.5 0.5 0.5 0.5 0.5 0.5 0.5 0.5 0.5 0.0 1.0 0.0 1.0 0.0 1.0 0.0 1.0 0.8521739130434782 0.14782608695652175 0.05263157894736842 0.9473684210526315 0.07692307692307693 0.9230769230769231 0.058823529411764705 0.9411764705882353 0.0 1.0 0.5 0.5 0.5 0.5 0.5 0.5 0.5 0.5 0.5 0.5 0.5 0.5 0.5 0.5 0.5 0.5 0.5 0.5 0.5 0.5 0.5 0.5 0.5 0.5 0.5 0.5 0.5 0.5 0.0 1.0 0.5 0.5 0.0 1.0 0.5 0.5 0.5 0.5 0.0 1.0 0.0 1.0 0.5 0.5 1.0 0.0 0.0 1.0 0.5 0.5 0.5 0.5 0.5 0.5 0.0 1.0 0.0 1.0 0.0 1.0 0.0 1.0 0.5 0.5 0.025 0.975 0.5 0.5 0.0 1.0 0.0 1.0 0.5 0.5 0.5 0.5 0.5 0.5 0.5 0.5 0.0 1.0 0.5 0.5 0.5 0.5 0.5 0.5 0.5 0.5 0.5 0.5 0.25 0.75 0.5 0.5 0.5 0.5 0.23853211009174313 0.7614678899082569 0.08888888888888889 0.9111111111111111 0.17647058823529413 0.8235294117647058 0.4 0.6 0.13636363636363635 0.8636363636363636 0.5 0.5 0.5 0.5 0.5 0.5 0.5 0.5 1.0 0.0 0.0 1.0 0.0 1.0 0.5 0.5 0.5 0.5 0.0 1.0 0.18385650224215247 0.8161434977578476 0.25 0.75 1.0 0.0 0.2672811059907834 0.7327188940092166 0.15845824411134904 0.841541755888651 0.16141732283464566 0.8385826771653543 0.19230769230769232 0.8076923076923077 0.2356687898089172 0.7643312101910829 0.0 1.0 0.1702127659574468 0.8297872340425532 0.5 0.5 0.5 0.5 0.2809667673716012 0.7190332326283988 0.13157894736842105 0.868421052631579 0.19491525423728814 0.8050847457627118 0.3137254901960784 0.6862745098039216 0.2 0.8 0.5 0.5 0.5 0.5 0.5 0.5 0.5 0.5 0.5 0.5 0.5 0.5 0.5 0.5 0.5 0.5 0.5 0.5 0.5 0.5 0.5 0.5 0.5 0.5 0.5 0.5 0.5 0.5 0.5 0.5 0.5 0.5 0.5 0.5 0.5 0.5 0.5 0.5 0.1 0.9 0.5 0.5 0.5 0.5 0.2702702702702703 0.7297297297297297 0.06666666666666667 0.9333333333333333 0.2631578947368421 0.7368421052631579 0.0 1.0 0.2777777777777778 0.7222222222222222 0.5 0.5 0.5 0.5 0.5 0.5 0.5 0.5 0.0 1.0 0.5 0.5 0.0 1.0 0.5 0.5 0.5 0.5 0.5 0.5 0.0 1.0 0.5 0.5 0.5 0.5 0.0 1.0 0.5 0.5 0.0 1.0 0.5 0.5 0.5 0.5 0.5 0.5 0.17307692307692307 0.8269230769230769 0.5 0.5 0.0 1.0 0.3333333333333333 0.6666666666666666 0.27586206896551724 0.7241379310344828 0.0 1.0 0.5 0.5 0.0 1.0 0.0 1.0 0.0 1.0 0.0 1.0 0.0 1.0 0.0007487832272557095 0.9992512167727443 0.0004411116012351125 0.9995588883987648 0.0 1.0 0.0 1.0 0.0 1.0 0.0 1.0 0.01818181818181818 0.9818181818181818 0.0 1.0 0.0 1.0 0.052995391705069124 0.9470046082949308 0.019543973941368076 0.9804560260586319 0.01718213058419244 0.9828178694158075 0.002777777777777778 0.9972222222222222 0.009615384615384616 0.9903846153846154 0.0 1.0 0.0 1.0 0.0 1.0 0.0 1.0 0.0005235602094240838 0.9994764397905759 0.0 1.0 0.0 1.0 0.0 1.0 0.0 1.0 0.0022371364653243847 0.9977628635346756 0.003955696202531646 0.9960443037974683 0.0018365472910927456 0.9981634527089073 0.007407407407407408 0.9925925925925926 0.013908872901678656 0.9860911270983214 0.0015424164524421595 0.9984575835475579 0.004316546762589928 0.99568345323741 0.004868549172346641 0.9951314508276533 0.0035671819262782403 0.9964328180737217 0.0015408320493066256 0.9984591679506933 0.0016313213703099511 0.99836867862969 0.003472222222222222 0.9965277777777778 0.0 1.0 0.21576486305945225 0.7842351369405478 0.0 1.0 0.002936857562408223 0.9970631424375918 0.026957637997432605 0.9730423620025674 0.005161290322580645 0.9948387096774194 0.0 1.0 0.13205417607223477 0.8679458239277652 0.0018050541516245488 0.9981949458483754 0.0 1.0 0.36124911284599004 0.63875088715401 0.20052424639580602 0.799475753604194 0.1619718309859155 0.8380281690140845 0.05762081784386617 0.9423791821561338 0.10158730158730159 0.8984126984126984 0.0 1.0 0.0 1.0 0.0 1.0 0.0 1.0 0.0 1.0 0.0 1.0 0.0 1.0 0.0 1.0 0.0 1.0 0.0 1.0 0.038461538461538464 0.9615384615384616 0.0 1.0 0.0 1.0 0.21455938697318008 0.7854406130268199 0.0794979079497908 0.9205020920502092 0.05228758169934641 0.9477124183006536 0.02727272727272727 0.9727272727272728 0.03211009174311927 0.9678899082568807 0.0 1.0 0.0 1.0 0.5 0.5 0.0 1.0 0.0 1.0 0.4166666666666667 0.5833333333333334 0.2 0.8 0.0 1.0 0.0 1.0 0.0 1.0 0.0 1.0 0.0 1.0 0.5 0.5 0.0 1.0 0.3333333333333333 0.6666666666666666 0.125 0.875 0.0 1.0 0.0 1.0 0.0 1.0 0.11822660098522167 0.8817733990147784 0.0 1.0 0.0 1.0 0.18181818181818182 0.8181818181818182 0.00663716814159292 0.9933628318584071 0.07692307692307693 0.9230769230769231 0.017543859649122806 0.9824561403508771 0.045454545454545456 0.9545454545454546 </TABLE>
    </DEFINITION>
    <DEFINITION>
      <FOR>GRUPO_ROBSON</FOR>
      <GIVEN>TIPO_PARTO</GIVEN>
      <TABLE>0.1421501792657678 0.0658991061960309 0.23400494874513963 0.025602181487653385 0.07342321870423674 0.21617936676261174 0.11518456799474827 0.07089834873504014 0.001262434984598293 0.00292884916426804 0.05246679795990507 0.0 0.0 0.0 0.0 0.0 0.0 0.6 0.4 0.0 0.0 0.0 0.3817733990147783 0.08374384236453201 0.19704433497536947 0.08866995073891626 0.04187192118226601 0.11083743842364532 0.0 0.0 0.0012315270935960591 0.0 0.09482758620689655 0.40195875577626045 0.03648527484654114 0.24008552313952686 0.10393820263466445 0.057314297537761225 0.10435202427753638 0.0 0.0 0.0009655838333678184 0.0 0.054900337954341676 0.24299753008565872 0.06613589784013874 0.1049450838194335 0.356666141152977 0.12139366230490305 0.05199957958904829 5.255136896316149e-05 7.882705344474224e-05 0.00044668663618687267 2.6275684481580744e-05 0.055257764464764304 0.0 0.0 0.0 0.007874015748031496 0.007874015748031496 0.0 0.31496062992125984 0.5669291338582677 0.0 0.0 0.10236220472440945 0.0 0.0 0.0 0.0 0.0 0.0 0.0 0.0 0.0 0.0 1.0 0.043478260869565216 0.021739130434782608 0.0 0.021739130434782608 0.0 0.0 0.0 0.0 0.0 0.0 0.9130434782608695 </TABLE>
    </DEFINITION>
    <DEFINITION>
      <FOR>GS</FOR>
      <GIVEN>VIGIADA</GIVEN>
      <TABLE>0.0 0.0 0.0 0.0 0.0 0.0 0.0 0.0 0.0 1.0 0.0 0.0 0.0 0.0 0.0 0.0 0.074002574002574 0.38545688545688545 0.0 0.005791505791505791 0.032175032175032175 0.0 0.010939510939510939 0.08236808236808237 0.0006435006435006435 0.055341055341055344 0.3204633204633205 0.032818532818532815 1.395400759098013e-05 5.581603036392052e-05 0.07791917838803304 0.3975636302746149 1.395400759098013e-05 0.006209533377986158 0.03036392051797276 1.395400759098013e-05 0.012753962938155838 0.06979794597008261 9.76780531368609e-05 0.06513730743469524 0.33789629381558384 0.00216287117660192 0.0 0.0 0.09022556390977443 0.2706766917293233 0.0 0.0 0.05263157894736842 0.0 0.015037593984962405 0.09022556390977443 0.0 0.05263157894736842 0.3233082706766917 0.10526315789473684 </TABLE>
    </DEFINITION>
    <DEFINITION>
      <FOR>IDADE_GESTACIONAL_ADMISSAO</FOR>
      <GIVEN>SEMANAS_GESTACAO_PARTO</GIVEN>
      <GIVEN>TRAB_PARTO_ENTRADA_ESPONTANEO</GIVEN>
      <GIVEN>silo</GIVEN>
      <TABLE>0.329700272479564 0.6566757493188011 0.013623978201634877 0.0 0.0 0.8543307086614174 0.13385826771653545 0.011811023622047244 0.0 0.0 0.8888888888888888 0.10606060606060606 0.005050505050505051 0.0 0.0 0.7866666666666666 0.10666666666666667 0.09333333333333334 0.0 0.013333333333333334 0.8631452581032413 0.11284513805522209 0.021608643457382955 0.0012004801920768306 0.0012004801920768306 0.8460111317254174 0.150278293135436 0.0037105751391465678 0.0 0.0 0.9122137404580153 0.07633587786259542 0.007633587786259542 0.003816793893129771 0.0 0.9088235294117647 0.08235294117647059 0.008823529411764706 0.0 0.0 0.8637200736648251 0.1289134438305709 0.007366482504604052 0.0 0.0 0.6363636363636364 0.3522727272727273 0.011363636363636364 0.0 0.0 0.9153061224489796 0.07755102040816327 0.007142857142857143 0.0 0.0 0.9272151898734177 0.06487341772151899 0.007911392405063292 0.0 0.0 0.9065155807365439 0.031161473087818695 0.06232294617563739 0.0 0.0 0.9415992812219227 0.04043126684636118 0.017969451931716084 0.0 0.0 0.9152647975077881 0.06292834890965732 0.02118380062305296 0.0006230529595015577 0.0 0.9448818897637795 0.051181102362204724 0.003937007874015748 0.0 0.0 0.9314420803782506 0.05319148936170213 0.015366430260047281 0.0 0.0 0.9384384384384384 0.0533033033033033 0.008258258258258258 0.0 0.0 0.2 0.2 0.2 0.2 0.2 0.002898550724637681 0.9971014492753624 0.0 0.0 0.0 0.007575757575757576 0.9924242424242424 0.0 0.0 0.0 0.017391304347826087 0.9391304347826087 0.02608695652173913 0.008695652173913044 0.008695652173913044 0.0016501650165016502 0.9851485148514851 0.012376237623762377 0.0008250825082508251 0.0 0.0020512820512820513 0.9948717948717949 0.003076923076923077 0.0 0.0 0.004618937644341801 0.9953810623556582 0.0 0.0 0.0 0.005988023952095809 0.9920159680638723 0.001996007984031936 0.0 0.0 0.001321003963011889 0.9960369881109643 0.002642007926023778 0.0 0.0 0.2 0.2 0.2 0.2 0.2 0.007122507122507123 0.99002849002849 0.002849002849002849 0.0 0.0 0.06622516556291391 0.9315673289183223 0.0 0.0 0.002207505518763797 0.1358695652173913 0.8260869565217391 0.03804347826086957 0.0 0.0 0.13642384105960265 0.8483443708609272 0.01390728476821192 0.0013245033112582781 0.0 0.020015396458814474 0.9576597382602001 0.02155504234026174 0.0007698229407236335 0.0 0.03374777975133215 0.9609236234458259 0.0053285968028419185 0.0 0.0 0.056962025316455694 0.9382911392405063 0.004746835443037975 0.0 0.0 0.010976948408342482 0.986827661909989 0.0021953896816684962 0.0 0.0 0.0 0.03303303303303303 0.9654654654654654 0.0015015015015015015 0.0 0.0 0.055248618784530384 0.7863720073664825 0.15837937384898712 0.0 0.0021929824561403508 0.05482456140350877 0.7697368421052632 0.17105263157894737 0.0021929824561403508 0.010101010101010102 0.05555555555555555 0.8080808080808081 0.11616161616161616 0.010101010101010102 0.0 0.04153147306943543 0.7962362102530824 0.16158338741077222 0.0006489292667099286 0.0 0.061637534498620056 0.7819687212511499 0.15639374425023 0.0 0.0 0.07704160246533127 0.7750385208012327 0.14791987673343607 0.0 0.0 0.05018587360594796 0.8085501858736059 0.1412639405204461 0.0 0.0009746588693957114 0.04483430799220273 0.7875243664717348 0.16666666666666666 0.0 0.004472271914132379 0.11896243291592129 0.8747763864042933 0.0017889087656529517 0.0 0.0006830601092896175 0.0471311475409836 0.8456284153005464 0.10587431693989072 0.0006830601092896175 0.07883211678832117 0.11386861313868613 0.7226277372262774 0.08321167883211679 0.00145985401459854 0.04713804713804714 0.24579124579124578 0.6430976430976431 0.06397306397306397 0.0 0.12245762711864407 0.2648305084745763 0.551271186440678 0.06059322033898305 0.000847457627118644 0.0010438413361169101 0.06732776617954071 0.848643006263048 0.08298538622129437 0.0 0.0017777777777777779 0.06311111111111112 0.8773333333333333 0.05688888888888889 0.0008888888888888889 0.03715415019762846 0.1075098814229249 0.808695652173913 0.0466403162055336 0.0 0.0005730659025787965 0.07220630372492837 0.8613180515759312 0.0659025787965616 0.0 0.0 0.0 0.056105610561056105 0.9427942794279428 0.0011001100110011 0.0 0.004651162790697674 0.004651162790697674 0.9906976744186047 0.0 0.0 0.00234192037470726 0.0117096018735363 0.9859484777517564 0.0 0.0 0.010471204188481676 0.03664921465968586 0.9476439790575916 0.005235602094240838 0.0 0.0 0.006379585326953748 0.9920255183413078 0.001594896331738437 0.0 0.0 0.009615384615384616 0.9879807692307693 0.002403846153846154 0.0 0.0 0.004411764705882353 0.9941176470588236 0.0014705882352941176 0.0 0.0 0.007556675062972292 0.9924433249370277 0.0 0.0 0.0 0.0 0.9988193624557261 0.0011806375442739079 0.0 0.0017667844522968198 0.13604240282685512 0.8613074204946997 0.0008833922261484099 0.0 0.0 0.017117117117117116 0.981081081081081 0.0018018018018018018 0.0 0.011976047904191617 0.05389221556886228 0.9321357285429142 0.001996007984031936 0.0 0.020618556701030927 0.10309278350515463 0.865979381443299 0.010309278350515464 0.015396458814472672 0.07929176289453425 0.1147036181678214 0.7882986913010007 0.0023094688221709007 0.000949667616334283 0.0 0.0389363722697056 0.9582146248812915 0.001899335232668566 0.0 0.0 0.0319634703196347 0.9665144596651446 0.0015220700152207 0.0087527352297593 0.019693654266958426 0.05470459518599562 0.9168490153172867 0.0 0.0 0.0010111223458038423 0.008088978766430738 0.9878665318503539 0.003033367037411527 0.0 0.0 0.0 0.16535433070866143 0.8346456692913385 0.0 0.0 0.0022988505747126436 0.08045977011494253 0.9172413793103448 0.0 0.0 0.0027100271002710027 0.08672086720867209 0.9105691056910569 0.0 0.0 0.01556420233463035 0.07392996108949416 0.9105058365758755 0.0 0.0 0.004037685060565276 0.06056527590847914 0.9353970390309556 0.0 0.0 0.00425531914893617 0.08794326241134752 0.9078014184397163 0.0 0.0 0.0 0.08934707903780069 0.9106529209621993 0.0 0.0 0.0 0.06142506142506143 0.9385749385749386 0.0 0.0 0.0 0.056179775280898875 0.9438202247191011 0.0 0.0 0.00468384074941452 0.27400468384074944 0.7213114754098361 0.0 0.0 0.004398826979472141 0.09310850439882698 0.9024926686217009 0.0 0.001201923076923077 0.008413461538461538 0.0985576923076923 0.8918269230769231 0.0 0.006382978723404255 0.03829787234042553 0.16595744680851063 0.7893617021276595 0.0012494793835901709 0.023323615160349854 0.059142024156601414 0.2611411911703457 0.6551436901291129 0.0 0.0 0.011004126547455296 0.07634112792297111 0.9126547455295736 0.0 0.0 0.001722158438576349 0.10218140068886337 0.8960964408725602 0.001358695652173913 0.004076086956521739 0.016304347826086956 0.11005434782608696 0.8682065217391305 0.0 0.0 0.0012903225806451613 0.045806451612903226 0.9529032258064516 </TABLE>
    </DEFINITION>
    <DEFINITION>
      <FOR>IDADE_MATERNA</FOR>
      <GIVEN>A_GESTA</GIVEN>
      <GIVEN>GRUPO_ROBSON</GIVEN>
      <GIVEN>TIPO_GRAVIDEZ</GIVEN>
      <GIVEN>VIGIADA_PARICULAR</GIVEN>
      <TABLE>0.2 0.2 0.2 0.2 0.2 0.25 0.25 0.25 0.0 0.25 0.2 0.2 0.2 0.2 0.2 0.2 0.2 0.2 0.2 0.2 0.2 0.2 0.2 0.2 0.2 0.0 0.0 0.0 0.0 1.0 0.2 0.2 0.2 0.2 0.2 0.2 0.2 0.2 0.2 0.2 0.2 0.2 0.2 0.2 0.2 0.2 0.2 0.2 0.2 0.2 0.2 0.2 0.2 0.2 0.2 0.2 0.2 0.2 0.2 0.2 0.2 0.2 0.2 0.2 0.2 0.2 0.2 0.2 0.2 0.2 0.2 0.2 0.2 0.2 0.2 0.2 0.2 0.2 0.2 0.2 0.2 0.2 0.2 0.2 0.2 0.2 0.2 0.2 0.2 0.2 0.2 0.2 0.2 0.2 0.2 0.2 0.2 0.2 0.2 0.2 0.2 0.2 0.2 0.2 0.2 0.2 0.2 0.2 0.2 0.2 0.2 0.2 0.2 0.2 0.2 0.2 0.2 0.2 0.2 0.2 0.2 0.2 0.2 0.2 0.2 0.2 0.2 0.2 0.2 0.2 0.2 0.2 0.2 0.2 0.2 0.0 0.0 1.0 0.0 0.0 0.0 0.0 0.0 1.0 0.0 0.2 0.2 0.2 0.2 0.2 0.2 0.2 0.2 0.2 0.2 0.2 0.2 0.2 0.2 0.2 0.2 0.2 0.2 0.2 0.2 0.2 0.2 0.2 0.2 0.2 0.0 0.0 0.0 0.0 1.0 0.2 0.2 0.2 0.2 0.2 0.2 0.2 0.2 0.2 0.2 0.2 0.2 0.2 0.2 0.2 0.2 0.2 0.2 0.2 0.2 0.2 0.2 0.2 0.2 0.2 0.0 0.0 0.0 1.0 0.0 0.3333333333333333 0.3333333333333333 0.0 0.3333333333333333 0.0 0.2 0.2 0.2 0.2 0.2 0.2 0.2 0.2 0.2 0.2 0.2 0.2 0.2 0.2 0.2 0.2 0.2 0.2 0.2 0.2 0.2 0.2 0.2 0.2 0.2 0.2 0.2 0.2 0.2 0.2 0.2 0.2 0.2 0.2 0.2 0.2 0.2 0.2 0.2 0.2 0.2 0.2 0.2 0.2 0.2 0.2 0.2 0.2 0.2 0.2 0.2 0.2 0.2 0.2 0.2 0.2 0.2 0.2 0.2 0.2 0.2 0.2 0.2 0.2 0.2 0.2 0.2 0.2 0.2 0.2 0.2 0.2 0.2 0.2 0.2 0.2 0.2 0.2 0.2 0.2 0.2 0.2 0.2 0.2 0.2 0.2 0.2 0.2 0.2 0.2 0.2 0.2 0.2 0.2 0.2 0.2 0.2 0.2 0.2 0.2 0.2 0.2 0.2 0.2 0.2 0.2 0.2 0.2 0.2 0.2 0.2 0.2 0.2 0.2 0.2 0.2 0.2 0.2 0.2 0.2 0.2 0.2 0.2 0.2 0.2 0.2 0.2 0.2 0.2 0.2 0.2 0.2 0.2 0.2 0.2 0.2 0.2 0.2 0.2 0.2 0.2 0.2 0.2 0.2 0.2 0.2 0.2 0.2 0.2 0.2 0.2 0.2 0.2 0.2 0.2 0.2 0.2 0.2 0.2 0.2 0.2 0.2 0.2 0.2 0.2 0.2 0.2 0.2 0.2 0.2 0.2 0.2 0.2 0.2 0.2 0.2 0.2 0.2 0.2 0.2 0.2 0.2 0.2 0.2 0.2 0.2 0.2 0.2 0.2 0.2 0.2 0.2 0.2 0.2 0.2 0.2 0.2 0.2 0.2 0.2 0.2 0.2 0.2 0.2 0.2 0.2 0.2 0.2 0.2 0.2 0.2 0.2 0.2 0.2 0.2 1.0 0.0 0.0 0.0 0.0 0.2 0.2 0.2 0.2 0.2 0.2 0.2 0.2 0.2 0.2 0.2 0.2 0.2 0.2 0.2 0.2 0.2 0.2 0.2 0.2 0.2 0.2 0.2 0.2 0.2 0.2 0.2 0.2 0.2 0.2 0.2 0.2 0.2 0.2 0.2 0.2 0.2 0.2 0.2 0.2 0.2 0.2 0.2 0.2 0.2 0.2 0.2 0.2 0.2 0.2 0.2 0.2 0.2 0.2 0.2 0.2 0.2 0.2 0.2 0.2 0.2 0.2 0.2 0.2 0.2 0.2 0.2 0.2 0.2 0.2 0.2 0.2 0.2 0.2 0.2 0.2 0.2 0.2 0.2 0.2 0.2 0.2 0.2 0.2 0.2 0.2 0.2 0.2 0.2 0.2 0.2 0.2 0.2 0.2 0.2 0.2 0.2 0.2 0.2 0.2 0.2 0.2 0.2 0.2 0.2 0.2 0.2 0.2 0.2 0.2 0.2 0.2 0.2 0.2 0.2 0.2 0.2 0.2 0.2 0.2 0.2 0.2 0.2 0.2 0.2 0.2 0.2 0.2 0.2 0.2 0.2 0.2 0.2 0.2 0.2 0.2 0.2 0.2 0.2 0.2 0.2 0.2 0.2 0.2 0.2 0.2 0.2 0.2 0.2 0.2 0.2 0.2 0.2 0.2 0.2 0.2 0.2 0.2 0.2 0.2 0.2 0.2 0.2 0.2 0.2 0.2 0.2 0.2 0.2 0.2 0.2 0.2 0.2 0.2 0.2 0.2 0.2 0.2 0.2 0.2 0.2 0.2 0.2 0.2 0.2 0.2 0.2 0.2 0.2 0.2 0.2 0.2 0.2 0.2 0.2 0.2 0.2 0.2 0.2 0.2 0.2 0.2 0.2 0.2 0.2 0.2 0.2 0.2 0.2 0.2 0.2 0.2 0.2 0.2 0.2 0.2 0.2 0.2 0.2 0.2 0.2 0.2 0.2 0.2 0.2 0.2 0.2 0.2 0.2 0.2 0.2 0.2 0.2 0.2 0.2 0.2 0.2 0.2 0.2 0.2 0.2 0.2 0.2 0.2 0.2 0.2 0.2 0.2 0.2 0.2 0.2 0.2 0.2 0.2 0.2 0.2 0.2 0.2 0.2 0.2 0.2 0.2 0.2 0.2 0.2 0.2 0.2 0.2 0.2 0.2 0.2 0.2 0.2 0.2 0.2 0.2 0.2 0.2 0.2 0.2 0.2 0.2 0.2 0.2 0.2 0.2 0.2 0.2 0.2 0.2 0.2 0.2 0.2 0.2 0.2 0.2 0.2 0.2 0.2 0.2 0.2 0.2 0.2 0.2 0.2 0.2 0.2 0.2 0.2 0.2 0.2 0.2 0.2 0.2 0.2 0.2 0.2 0.2 0.2 0.2 0.2 0.2 0.2 0.2 0.2 0.2 0.2 0.2 0.2 0.2 0.2 0.2 0.2 0.2 0.2 0.2 0.2 0.2 0.2 0.2 0.11198830409356725 0.31198830409356726 0.29210526315789476 0.18391812865497076 0.1 0.3707888462734529 0.2768736394734114 0.18430600186586504 0.1001347569192495 0.06789675546802115 0.03333333333333333 0.3 0.36666666666666664 0.2 0.1 0.11904761904761904 0.30952380952380953 0.2857142857142857 0.14285714285714285 0.14285714285714285 0.0 0.06666666666666667 0.2 0.24444444444444444 0.4888888888888889 0.00641025641025641 0.12179487179487179 0.27564102564102566 0.2692307692307692 0.3269230769230769 0.0 0.08695652173913043 0.17391304347826086 0.34782608695652173 0.391304347826087 0.0379746835443038 0.12658227848101267 0.1518987341772152 0.3291139240506329 0.35443037974683544 0.0 0.1 0.3 0.2 0.4 0.02631578947368421 0.18421052631578946 0.34210526315789475 0.15789473684210525 0.2894736842105263 0.0 0.16666666666666666 0.16666666666666666 0.3333333333333333 0.3333333333333333 0.05263157894736842 0.05263157894736842 0.3157894736842105 0.21052631578947367 0.3684210526315789 0.10465116279069768 0.2558139534883721 0.32848837209302323 0.19767441860465115 0.11337209302325581 0.3524720893141946 0.27910685805422647 0.17862838915470494 0.10925039872408293 0.08054226475279107 0.08061002178649238 0.23965141612200436 0.3115468409586057 0.17429193899782136 0.19389978213507625 0.29048843187660667 0.27335047129391604 0.1893744644387318 0.14481576692373607 0.10197086546700942 0.0 0.4 0.0 0.2 0.4 0.16666666666666666 0.3333333333333333 0.3333333333333333 0.0 0.16666666666666666 0.0 0.07692307692307693 0.0 0.23076923076923078 0.6923076923076923 0.0 0.12 0.16 0.2 0.52 0.0 0.16666666666666666 0.0 0.5 0.3333333333333333 0.041666666666666664 0.08333333333333333 0.25 0.25 0.375 0.0 0.0 0.6666666666666666 0.0 0.3333333333333333 0.0 0.0 0.16666666666666666 0.16666666666666666 0.6666666666666666 0.0 0.0 0.5 0.0 0.5 0.0 0.2 0.0 0.2 0.6 0.047619047619047616 0.20634920634920634 0.38095238095238093 0.14285714285714285 0.2222222222222222 0.3488372093023256 0.24186046511627907 0.16744186046511628 0.10697674418604651 0.13488372093023257 0.09164420485175202 0.24887690925426775 0.2857142857142857 0.22282120395327942 0.1509433962264151 0.29874015748031496 0.26866141732283466 0.1932283464566929 0.1321259842519685 0.10724409448818897 0.05555555555555555 0.3333333333333333 0.2777777777777778 0.05555555555555555 0.2777777777777778 0.08695652173913043 0.2608695652173913 0.30434782608695654 0.1956521739130435 0.15217391304347827 0.0 0.05555555555555555 0.1388888888888889 0.16666666666666666 0.6388888888888888 0.008333333333333333 0.03333333333333333 0.25 0.20833333333333334 0.5 0.0 0.10344827586206896 0.10344827586206896 0.3103448275862069 0.4827586206896552 0.03125 0.052083333333333336 0.22916666666666666 0.2604166666666667 0.4270833333333333 0.0 0.09090909090909091 0.09090909090909091 0.36363636363636365 0.45454545454545453 0.030303030303030304 0.21212121212121213 0.21212121212121213 0.2727272727272727 0.2727272727272727 0.0 0.0 0.0 0.4 0.6 0.043478260869565216 0.043478260869565216 0.13043478260869565 0.34782608695652173 0.43478260869565216 0.07623318385650224 0.27802690582959644 0.25112107623318386 0.242152466367713 0.15246636771300448 0.28870292887029286 0.2510460251046025 0.1896792189679219 0.15481171548117154 0.11576011157601115 0.25 0.5 0.0 0.0 0.25 0.0625 0.375 0.25 0.1875 0.125 0.2 0.2 0.2 0.2 0.2 0.2 0.2 0.2 0.2 0.2 0.2 0.2 0.2 0.2 0.2 0.2 0.2 0.2 0.2 0.2 0.2 0.2 0.2 0.2 0.2 0.2 0.2 0.2 0.2 0.2 0.2 0.2 0.2 0.2 0.2 0.2 0.2 0.2 0.2 0.2 0.2 0.2 0.2 0.2 0.2 0.2 0.2 0.2 0.2 0.2 0.0 0.0 0.0 0.0 1.0 0.0 0.0 1.0 0.0 0.0 0.2 0.4 0.4 0.0 0.0 0.125 0.125 0.125 0.0 0.625 0.2 0.2 0.2 0.2 0.2 0.2 0.2 0.2 0.2 0.2 0.2 0.2 0.2 0.2 0.2 0.2 0.2 0.2 0.2 0.2 0.2 0.2 0.2 0.2 0.2 0.2 0.2 0.2 0.2 0.2 0.2 0.2 0.2 0.2 0.2 0.2 0.2 0.2 0.2 0.2 0.2 0.2 0.2 0.2 0.2 0.2 0.2 0.2 0.2 0.2 0.2 0.2 0.2 0.2 0.2 1.0 0.0 0.0 0.0 0.0 0.0 0.0 0.0 0.4 0.6 0.125 0.0 0.25 0.25 0.375 0.2 0.2 0.2 0.2 0.2 0.2 0.2 0.2 0.2 0.2 0.2 0.2 0.2 0.2 0.2 0.2 0.2 0.2 0.2 0.2 0.2 0.2 0.2 0.2 0.2 0.2 0.2 0.2 0.2 0.2 0.2 0.2 0.2 0.2 0.2 0.2 0.2 0.2 0.2 0.2 0.2 0.2 0.2 0.2 0.2 0.2 0.2 0.2 0.2 0.2 0.0 0.5 0.0 0.5 0.0 0.0 0.0 0.0 0.0 1.0 0.056818181818181816 0.2159090909090909 0.3503787878787879 0.22348484848484848 0.1534090909090909 0.23748862602365786 0.24476797088262056 0.22020018198362148 0.15195632393084624 0.14558689717925385 0.0 0.7142857142857143 0.14285714285714285 0.0 0.14285714285714285 0.0 0.75 0.25 0.0 0.0 0.0 0.0 0.18181818181818182 0.18181818181818182 0.6363636363636364 0.0 0.03125 0.25 0.28125 0.4375 0.0 0.0 0.0 0.5 0.5 0.0 0.06666666666666667 0.3333333333333333 0.26666666666666666 0.3333333333333333 0.0 0.5 0.5 0.0 0.0 0.0 0.0 0.4 0.4 0.2 0.0 0.0 0.0 1.0 0.0 0.0 0.3333333333333333 0.0 0.0 0.6666666666666666 0.0392156862745098 0.19607843137254902 0.3333333333333333 0.3333333333333333 0.09803921568627451 0.23129251700680273 0.23809523809523808 0.21768707482993196 0.16326530612244897 0.14965986394557823 0.0 0.0 0.0 1.0 0.0 0.2 0.2 0.2 0.2 0.2 0.2 0.2 0.2 0.2 0.2 0.2 0.2 0.2 0.2 0.2 0.2 0.2 0.2 0.2 0.2 0.2 0.2 0.2 0.2 0.2 0.2 0.2 0.2 0.2 0.2 0.2 0.2 0.2 0.2 0.2 0.2 0.2 0.2 0.2 0.2 0.2 0.2 0.2 0.2 0.2 0.2 0.2 0.2 0.2 0.2 0.2 0.2 0.2 0.2 0.2 0.2 0.2 0.2 0.2 0.2 0.2 0.2 0.2 0.2 0.2 0.0 0.2 0.6 0.0 0.2 0.46153846153846156 0.07692307692307693 0.23076923076923078 0.15384615384615385 0.07692307692307693 0.2 0.2 0.2 0.2 0.2 0.2 0.2 0.2 0.2 0.2 0.2 0.2 0.2 0.2 0.2 0.0 0.0 1.0 0.0 0.0 0.2 0.2 0.2 0.2 0.2 0.2 0.2 0.2 0.2 0.2 0.2 0.2 0.2 0.2 0.2 0.2 0.2 0.2 0.2 0.2 0.2 0.2 0.2 0.2 0.2 0.2 0.2 0.2 0.2 0.2 0.0 0.0 1.0 0.0 0.0 0.3333333333333333 0.3333333333333333 0.3333333333333333 0.0 0.0 0.0 0.3333333333333333 0.6666666666666666 0.0 0.0 0.1 0.1 0.5 0.0 0.3 0.2 0.2 0.2 0.2 0.2 0.2 0.2 0.2 0.2 0.2 0.2 0.2 0.2 0.2 0.2 0.2 0.2 0.2 0.2 0.2 0.2 0.2 0.2 0.2 0.2 0.0 0.0 0.0 1.0 0.0 0.2 0.2 0.2 0.2 0.2 0.2 0.2 0.2 0.2 0.2 0.2 0.2 0.2 0.2 0.2 0.2 0.2 0.2 0.2 0.2 0.2 0.2 0.2 0.2 0.2 1.0 0.0 0.0 0.0 0.0 0.11764705882352941 0.27941176470588236 0.26176470588235295 0.1676470588235294 0.17352941176470588 0.3333333333333333 0.2747014115092291 0.17155266015200868 0.11183496199782844 0.10857763300760044 0.0 0.3333333333333333 0.0 0.3333333333333333 0.3333333333333333 0.16666666666666666 0.16666666666666666 0.16666666666666666 0.3333333333333333 0.16666666666666666 0.0 0.0 0.08333333333333333 0.16666666666666666 0.75 0.0 0.08823529411764706 0.11764705882352941 0.2647058823529412 0.5294117647058824 0.0 0.16666666666666666 0.16666666666666666 0.16666666666666666 0.5 0.0 0.1 0.0 0.4 0.5 0.0 0.0 0.0 1.0 0.0 0.0 0.16666666666666666 0.16666666666666666 0.3333333333333333 0.3333333333333333 0.0 0.0 0.0 0.0 1.0 0.05555555555555555 0.16666666666666666 0.1111111111111111 0.2777777777777778 0.3888888888888889 0.07142857142857142 0.25510204081632654 0.24489795918367346 0.1836734693877551 0.24489795918367346 0.34502923976608185 0.2631578947368421 0.1695906432748538 0.10526315789473684 0.11695906432748537 0.09826589595375723 0.23121387283236994 0.25 0.21098265895953758 0.20953757225433525 0.29423975090814736 0.2516865594187857 0.1909704203425013 0.13284898806434872 0.1302542812662169 0.0 0.25 0.5833333333333334 0.0 0.16666666666666666 0.0 0.08333333333333333 0.5 0.3333333333333333 0.08333333333333333 0.0 0.0 0.0 0.2857142857142857 0.7142857142857143 0.0 0.07547169811320754 0.20754716981132076 0.2641509433962264 0.4528301886792453 0.0 0.0 0.25 0.25 0.5 0.0 0.05555555555555555 0.0 0.2222222222222222 0.7222222222222222 0.2 0.2 0.2 0.2 0.2 0.0 0.0 0.125 0.125 0.75 0.0 0.0 0.0 0.5 0.5 0.0 0.2857142857142857 0.0 0.2857142857142857 0.42857142857142855 0.07042253521126761 0.15492957746478872 0.23943661971830985 0.2676056338028169 0.2676056338028169 0.2943396226415094 0.25660377358490566 0.2 0.1320754716981132 0.1169811320754717 0.016877637130801686 0.09282700421940929 0.14978902953586498 0.27637130801687765 0.4641350210970464 0.13480885311871227 0.17236753856472167 0.15560026827632462 0.204560697518444 0.33266264252179745 0.0 0.2222222222222222 0.2222222222222222 0.3333333333333333 0.2222222222222222 0.0 0.42857142857142855 0.14285714285714285 0.42857142857142855 0.0 0.0 0.0 0.0 0.11764705882352941 0.8823529411764706 0.0 0.07692307692307693 0.07692307692307693 0.2692307692307692 0.5769230769230769 0.0 0.0 0.0 0.16666666666666666 0.8333333333333334 0.0 0.0 0.0 0.0 1.0 0.2 0.2 0.2 0.2 0.2 0.0 0.3333333333333333 0.0 0.3333333333333333 0.3333333333333333 0.2 0.2 0.2 0.2 0.2 0.0 0.0 0.0 0.3333333333333333 0.6666666666666666 0.0 0.0759493670886076 0.16455696202531644 0.26582278481012656 0.4936708860759494 0.1870748299319728 0.1326530612244898 0.16326530612244897 0.1836734693877551 0.3333333333333333 0.06398537477148081 0.21389396709323583 0.24862888482632542 0.2230347349177331 0.25045703839122485 0.23997185080928923 0.2083040112596763 0.19352568613652357 0.1688951442646024 0.1893033075299085 0.1111111111111111 0.1111111111111111 0.2222222222222222 0.4444444444444444 0.1111111111111111 0.125 0.125 0.25 0.125 0.375 0.0 0.05263157894736842 0.10526315789473684 0.21052631578947367 0.631578947368421 0.0 0.05263157894736842 0.21052631578947367 0.18421052631578946 0.5526315789473685 0.0 0.0 0.0 0.0 1.0 0.0 0.0 0.16 0.24 0.6 0.0 0.0 0.125 0.125 0.75 0.0 0.0 0.5 0.0 0.5 0.0 0.0 0.0 0.0 1.0 0.0 0.1 0.0 0.3 0.6 0.05357142857142857 0.23214285714285715 0.19642857142857142 0.21428571428571427 0.30357142857142855 0.23595505617977527 0.16292134831460675 0.2303370786516854 0.20224719101123595 0.16853932584269662 0.016440088523553588 0.10116977552956054 0.20803035093265887 0.30856781536515965 0.36579196964906735 0.13509405282158465 0.2001710051301539 0.20254607638229147 0.21204636139084174 0.25014250427512824 0.08333333333333333 0.08333333333333333 0.08333333333333333 0.25 0.5 0.058823529411764705 0.17647058823529413 0.17647058823529413 0.23529411764705882 0.35294117647058826 0.0 0.0 0.1111111111111111 0.2222222222222222 0.6666666666666666 0.06896551724137931 0.06896551724137931 0.2413793103448276 0.2413793103448276 0.3793103448275862 0.0 0.0 0.0 0.0 1.0 0.0 0.0 0.16666666666666666 0.08333333333333333 0.75 0.0 0.0 0.0 0.3333333333333333 0.6666666666666666 0.0 0.0 0.2 0.2 0.6 0.0 0.0 0.0 0.0 1.0 0.0 0.07142857142857142 0.21428571428571427 0.21428571428571427 0.5 0.019553072625698324 0.0670391061452514 0.19273743016759776 0.3687150837988827 0.35195530726256985 0.1672285906945381 0.196223870532704 0.1894807821982468 0.22454484153742413 0.222521915037087 0.011764705882352941 0.08627450980392157 0.17568627450980392 0.30196078431372547 0.4243137254901961 0.08961771464382703 0.171715061625235 0.19260497179862127 0.21286818466680593 0.33319406726551076 0.0 0.0 0.0 0.25 0.75 0.0 0.2857142857142857 0.14285714285714285 0.35714285714285715 0.21428571428571427 0.0 0.0 0.0 0.08333333333333333 0.9166666666666666 0.0 0.0 0.0 0.13333333333333333 0.8666666666666667 0.0 0.0 0.0 0.0 1.0 0.0 0.07142857142857142 0.21428571428571427 0.2857142857142857 0.42857142857142855 0.2 0.2 0.2 0.2 0.2 0.0 0.0 0.0 0.0 1.0 0.2 0.2 0.2 0.2 0.2 0.0 0.0 0.2 0.0 0.8 0.01744186046511628 0.09883720930232558 0.22674418604651161 0.22674418604651161 0.43023255813953487 0.09935897435897435 0.1362179487179487 0.1907051282051282 0.26282051282051283 0.3108974358974359 0.013097949886104784 0.06890660592255125 0.1571753986332574 0.3223234624145786 0.438496583143508 0.07263447192775814 0.15056929721240675 0.19434628975265017 0.24401256380054967 0.33843737730663526 0.0 0.0 0.25 0.25 0.5 0.0 0.0 0.14285714285714285 0.42857142857142855 0.42857142857142855 0.0 0.0 0.0 0.4 0.6 0.041666666666666664 0.08333333333333333 0.0 0.16666666666666666 0.7083333333333334 0.0 0.0 0.0 0.16666666666666666 0.8333333333333334 0.0 0.0 0.0 0.3333333333333333 0.6666666666666666 0.0 0.0 0.3333333333333333 0.0 0.6666666666666666 0.0 0.0 0.25 0.375 0.375 0.0 0.0 0.0 0.0 1.0 0.0 0.0 0.2 0.2 0.6 0.016042780748663103 0.0748663101604278 0.1497326203208556 0.25133689839572193 0.5080213903743316 0.08653846153846154 0.16071428571428573 0.17582417582417584 0.2623626373626374 0.31456043956043955 0.05102040816326531 0.19387755102040816 0.2653061224489796 0.2755102040816326 0.21428571428571427 0.16371681415929204 0.14601769911504425 0.17256637168141592 0.22123893805309736 0.29646017699115046 0.0 0.5 0.0 0.5 0.0 0.0 0.0 0.0 1.0 0.0 0.0 0.0 0.125 0.375 0.5 0.0 0.0 0.21428571428571427 0.21428571428571427 0.5714285714285714 0.2 0.2 0.2 0.2 0.2 0.0 0.0 0.0 0.5 0.5 0.2 0.2 0.2 0.2 0.2 0.0 0.0 0.0 0.0 1.0 0.2 0.2 0.2 0.2 0.2 0.0 0.0 0.0 0.3333333333333333 0.6666666666666666 0.2 0.0 0.2 0.06666666666666667 0.5333333333333333 0.18181818181818182 0.3181818181818182 0.06818181818181818 0.1590909090909091 0.2727272727272727 0.0029585798816568047 0.05029585798816568 0.1390532544378698 0.34911242603550297 0.45857988165680474 0.05609492988133765 0.14347357065803668 0.15318230852211434 0.2481121898597627 0.39913700107874867 0.2 0.2 0.2 0.2 0.2 0.0 0.0 1.0 0.0 0.0 0.0 0.0 0.0 0.0 1.0 0.0 0.0 0.14285714285714285 0.0 0.8571428571428571 0.2 0.2 0.2 0.2 0.2 0.0 0.0 0.0 0.0 1.0 0.2 0.2 0.2 0.2 0.2 0.0 0.0 0.0 0.0 1.0 0.0 0.0 0.0 1.0 0.0 0.0 0.0 0.5 0.0 0.5 0.0 0.030303030303030304 0.15151515151515152 0.3333333333333333 0.48484848484848486 0.0963855421686747 0.1566265060240964 0.2289156626506024 0.1927710843373494 0.3253012048192771 0.0 0.1111111111111111 0.4444444444444444 0.1111111111111111 0.3333333333333333 0.1 0.1 0.4 0.1 0.3 0.2 0.2 0.2 0.2 0.2 0.2 0.2 0.2 0.2 0.2 0.2 0.2 0.2 0.2 0.2 0.0 0.0 1.0 0.0 0.0 0.2 0.2 0.2 0.2 0.2 0.2 0.2 0.2 0.2 0.2 0.2 0.2 0.2 0.2 0.2 0.2 0.2 0.2 0.2 0.2 0.2 0.2 0.2 0.2 0.2 0.2 0.2 0.2 0.2 0.2 1.0 0.0 0.0 0.0 0.0 0.3333333333333333 0.0 0.6666666666666666 0.0 0.0 0.0 0.0 0.2 0.4 0.4 0.0625 0.09375 0.125 0.15625 0.5625 0.0 0.0 0.0 0.0 1.0 0.2 0.2 0.2 0.2 0.2 0.2 0.2 0.2 0.2 0.2 0.2 0.2 0.2 0.2 0.2 0.2 0.2 0.2 0.2 0.2 0.2 0.2 0.2 0.2 0.2 0.2 0.2 0.2 0.2 0.2 0.2 0.2 0.2 0.2 0.2 0.2 0.2 0.2 0.2 0.2 0.2 0.2 0.2 0.2 0.2 0.2 0.2 0.2 0.2 0.2 0.0 0.0 0.0 0.16666666666666666 0.8333333333333334 0.036923076923076927 0.1076923076923077 0.14461538461538462 0.29846153846153844 0.4123076923076923 0.14910226385636222 0.20062451209992194 0.17798594847775176 0.15846994535519127 0.31381733021077285 0.0 0.16666666666666666 0.16666666666666666 0.16666666666666666 0.5 0.0 0.0 0.5 0.0 0.5 0.0 0.0 0.0 0.0 1.0 0.0 0.05263157894736842 0.05263157894736842 0.21052631578947367 0.6842105263157895 0.0 0.0 0.0 0.0 1.0 0.0 0.08333333333333333 0.0 0.3333333333333333 0.5833333333333334 0.0 0.0 0.0 0.0 1.0 0.0 0.0 0.0 1.0 0.0 0.0 0.0 0.0 0.0 1.0 0.06666666666666667 0.13333333333333333 0.06666666666666667 0.4 0.3333333333333333 0.008928571428571428 0.11607142857142858 0.15178571428571427 0.29464285714285715 0.42857142857142855 0.18200408997955012 0.18404907975460122 0.20245398773006135 0.1738241308793456 0.25766871165644173 </TABLE>
    </DEFINITION>
    <DEFINITION>
      <FOR>IMC</FOR>
      <GIVEN>PESO_INICIAL</GIVEN>
      <GIVEN>VIGIADA_NESTE_HOSPITAL</GIVEN>
      <GIVEN>silo</GIVEN>
      <TABLE>0.7598326359832636 0.20669456066945607 0.02510460251046025 0.008368200836820083 0.0 0.7066276803118908 0.19103313840155944 0.09064327485380116 0.009746588693957114 0.001949317738791423 0.7502601456815817 0.2133194588969823 0.027055150884495317 0.009365244536940686 0.0 0.7773279352226721 0.20647773279352227 0.004048582995951417 0.012145748987854251 0.0 0.7360367253251722 0.22570772762050498 0.029074215761285386 0.009181331293037491 0.0 0.7116564417177914 0.2331288343558282 0.03374233128834356 0.019938650306748466 0.0015337423312883436 0.7335984095427436 0.2286282306163022 0.0268389662027833 0.008946322067594433 0.0019880715705765406 0.7605042016806722 0.20588235294117646 0.028361344537815126 0.004201680672268907 0.0010504201680672268 0.6947815533980582 0.24696601941747573 0.04975728155339806 0.00849514563106796 0.0 0.7333333333333333 0.23333333333333334 0.02666666666666667 0.006666666666666667 0.0 0.7028824833702882 0.22394678492239467 0.06430155210643015 0.0066518847006651885 0.0022172949002217295 0.7157360406091371 0.25380710659898476 0.025380710659898477 0.0 0.005076142131979695 0.7925170068027211 0.18027210884353742 0.02040816326530612 0.003401360544217687 0.003401360544217687 0.7644787644787645 0.1833976833976834 0.04826254826254826 0.0028957528957528956 0.0009652509652509653 0.7001102535832414 0.25689084895259096 0.03197353914002205 0.011025358324145534 0.0 0.7591623036649214 0.2111692844677138 0.02617801047120419 0.0034904013961605585 0.0 0.8288288288288288 0.15765765765765766 0.013513513513513514 0.0 0.0 0.6963788300835655 0.26740947075208915 0.027855153203342618 0.008356545961002786 0.0 0.23435948361469713 0.5183714001986097 0.11221449851042702 0.13406156901688182 0.0009930486593843098 0.2104733131923464 0.5427995971802618 0.13293051359516617 0.11278952668680765 0.0010070493454179255 0.19695044472681067 0.5222363405336722 0.12198221092757307 0.156289707750953 0.0025412960609911056 0.24154589371980675 0.5265700483091788 0.10144927536231885 0.12077294685990338 0.00966183574879227 0.23195661243220692 0.5214851898206091 0.10554860241969129 0.13725490196078433 0.0037546933667083854 0.21894409937888198 0.5170807453416149 0.12111801242236025 0.13975155279503104 0.003105590062111801 0.2599243856332703 0.5482041587901701 0.08223062381852551 0.10775047258979206 0.001890359168241966 0.2564389697648376 0.5431131019036954 0.0940649496080627 0.1019036954087346 0.004479283314669653 0.20012239902080783 0.5281517747858017 0.1230110159118727 0.14504283965728273 0.0036719706242350062 0.2987012987012987 0.461038961038961 0.12337662337662338 0.11038961038961038 0.006493506493506494 0.2200488997555012 0.49144254278728605 0.15403422982885084 0.13202933985330073 0.0024449877750611247 0.3118811881188119 0.4603960396039604 0.11386138613861387 0.11386138613861387 0.0 0.3176895306859206 0.4981949458483754 0.09025270758122744 0.09025270758122744 0.0036101083032490976 0.271259418729817 0.5188374596340151 0.09472551130247578 0.11194833153928956 0.0032292787944025836 0.23793103448275862 0.5494252873563218 0.09195402298850575 0.1206896551724138 0.0 0.28526148969889065 0.5103011093502378 0.1045958795562599 0.09984152139461172 0.0 0.3463203463203463 0.4588744588744589 0.10822510822510822 0.08658008658008658 0.0 0.22625698324022347 0.5223463687150838 0.12011173184357542 0.12849162011173185 0.002793296089385475 0.034220532319391636 0.311787072243346 0.3973384030418251 0.23954372623574144 0.017110266159695818 0.01584786053882726 0.10935023771790808 0.7916006339144216 0.07923930269413629 0.003961965134706815 0.03292181069958848 0.37448559670781895 0.23045267489711935 0.3333333333333333 0.02880658436213992 0.02654867256637168 0.2831858407079646 0.4778761061946903 0.20353982300884957 0.008849557522123894 0.043968432919954906 0.3754227733934611 0.23900789177001128 0.32356257046223225 0.018038331454340473 0.008528784648187633 0.06396588486140725 0.8557213930348259 0.06609808102345416 0.005685856432125089 0.04507042253521127 0.4253521126760563 0.22253521126760564 0.28732394366197184 0.01971830985915493 0.04938271604938271 0.4351851851851852 0.2345679012345679 0.26851851851851855 0.012345679012345678 0.022660098522167486 0.20886699507389161 0.5527093596059113 0.20098522167487684 0.014778325123152709 0.0106951871657754 0.06684491978609626 0.8850267379679144 0.0374331550802139 0.0 0.02185792349726776 0.1284153005464481 0.7540983606557377 0.09562841530054644 0.0 0.017241379310344827 0.05603448275862069 0.8275862068965517 0.09051724137931035 0.008620689655172414 0.04216867469879518 0.14457831325301204 0.6265060240963856 0.1686746987951807 0.018072289156626505 0.015447154471544716 0.11788617886178862 0.8097560975609757 0.04715447154471545 0.00975609756097561 0.004224980195405334 0.029310800105624504 0.9408502772643254 0.023765513599155005 0.0018484288354898336 0.03409090909090909 0.19128787878787878 0.6837121212121212 0.08522727272727272 0.005681818181818182 0.004508566275924256 0.0387736699729486 0.9458972046889089 0.010820559062218215 0.0 0.004032258064516129 0.09879032258064516 0.7963709677419355 0.0967741935483871 0.004032258064516129 0.007575757575757576 0.15289256198347106 0.11501377410468319 0.5633608815426997 0.16115702479338842 0.008382229673093043 0.12321877619446772 0.16848281642917015 0.5498742665549036 0.15004191114836546 0.008648648648648649 0.10486486486486486 0.12 0.5762162162162162 0.19027027027027027 0.00851063829787234 0.13617021276595745 0.10212765957446808 0.6042553191489362 0.14893617021276595 0.01406926406926407 0.14898989898989898 0.11544011544011544 0.5642135642135642 0.15728715728715728 0.017721518987341773 0.12658227848101267 0.13291139240506328 0.5620253164556962 0.16075949367088607 0.012658227848101266 0.15274261603375527 0.1350210970464135 0.5518987341772152 0.14767932489451477 0.012909632571996028 0.15690168818272096 0.12015888778550149 0.5809334657398213 0.12909632571996027 0.008021390374331552 0.11898395721925134 0.13146167557932265 0.5628342245989305 0.178698752228164 0.006993006993006993 0.14685314685314685 0.06993006993006994 0.6433566433566433 0.13286713286713286 0.007317073170731708 0.11707317073170732 0.15609756097560976 0.5756097560975609 0.14390243902439023 0.02027027027027027 0.1891891891891892 0.16216216216216217 0.44594594594594594 0.18243243243243243 0.027131782945736434 0.16666666666666666 0.16279069767441862 0.5232558139534884 0.12015503875968993 0.02348993288590604 0.16331096196868009 0.15100671140939598 0.5246085011185683 0.13758389261744966 0.012320328542094456 0.162217659137577 0.1406570841889117 0.5544147843942505 0.13039014373716631 0.012139605462822459 0.17754172989377845 0.13960546282245828 0.5523520485584219 0.11836115326251896 0.017167381974248927 0.16738197424892703 0.19313304721030042 0.5321888412017167 0.09012875536480687 0.008595988538681949 0.12320916905444126 0.1318051575931232 0.6246418338108882 0.11174785100286533 0.0 0.0007107320540156361 0.0021321961620469083 0.16204690831556504 0.8351101634683724 0.0 0.0016652789342214821 0.02497918401332223 0.16819317235636969 0.8051623646960866 0.0 0.002028397565922921 0.016227180527383367 0.13387423935091278 0.847870182555781 0.0 0.0 0.009708737864077669 0.15210355987055016 0.8381877022653722 0.0 0.0021929824561403508 0.008771929824561403 0.13267543859649122 0.856359649122807 0.0 0.00375 0.0075 0.14625 0.8425 0.0 0.0007763975155279503 0.010869565217391304 0.14906832298136646 0.8392857142857143 0.0 0.003083247687564234 0.009249743062692703 0.16238437821171633 0.8252826310380267 0.0 0.001374885426214482 0.01924839596700275 0.13428047662694775 0.845096241979835 0.0 0.0 0.008064516129032258 0.16129032258064516 0.8306451612903226 0.0 0.0 0.06962025316455696 0.16139240506329114 0.7689873417721519 0.0 0.014705882352941176 0.03676470588235294 0.1323529411764706 0.8161764705882353 0.0 0.0 0.0043859649122807015 0.19736842105263158 0.7982456140350878 0.0 0.004784688995215311 0.011164274322169059 0.16108452950558214 0.8229665071770335 0.0 0.0031545741324921135 0.025236593059936908 0.17981072555205047 0.7917981072555205 0.0 0.0021598272138228943 0.01511879049676026 0.20950323974082075 0.7732181425485961 0.0 0.0 0.022857142857142857 0.25142857142857145 0.7257142857142858 0.0 0.009836065573770493 0.013114754098360656 0.19672131147540983 0.780327868852459 </TABLE>
    </DEFINITION>
    <DEFINITION>
      <FOR>NUMERO_CONSULTAS_PRE_NATAL</FOR>
      <GIVEN>CESARIANAS_ANTERIOR</GIVEN>
      <GIVEN>VIGIADA</GIVEN>
      <GIVEN>VIGIADA_CENTRO_SAUDE</GIVEN>
      <GIVEN>VIGIADA_NESTE_HOSPITAL</GIVEN>
      <GIVEN>VIGIADA_PARICULAR</GIVEN>
      <GIVEN>silo</GIVEN>
      <TABLE>0.25 0.25 0.25 0.25 0.25 0.25 0.25 0.25 0.25 0.25 0.25 0.25 0.25 0.25 0.25 0.25 0.25 0.25 0.25 0.25 0.25 0.25 0.25 0.25 0.25 0.25 0.25 0.25 0.25 0.25 0.25 0.25 0.25 0.25 0.25 0.25 0.25 0.25 0.25 0.25 0.25 0.25 0.25 0.25 0.25 0.25 0.25 0.25 0.25 0.25 0.25 0.25 0.25 0.25 0.25 0.25 0.25 0.25 0.25 0.25 0.25 0.25 0.25 0.25 0.25 0.25 0.25 0.25 0.25 0.25 0.25 0.25 0.25 0.25 0.25 0.25 0.25 0.25 0.25 0.25 0.25 0.25 0.25 0.25 0.25 0.25 0.25 0.25 0.25 0.25 0.25 0.25 0.25 0.25 0.25 0.25 0.25 0.25 0.25 0.25 0.25 0.25 0.25 0.25 0.25 0.25 0.25 0.25 0.25 0.25 0.25 0.25 0.25 0.25 0.25 0.25 0.25 0.25 0.25 0.25 0.25 0.25 0.25 0.25 0.25 0.25 0.25 0.25 0.25 0.25 0.25 0.25 0.25 0.25 0.25 0.25 0.25 0.25 0.25 0.25 0.25 0.25 0.25 0.25 0.25 0.25 0.25 0.25 0.25 0.25 0.25 0.25 0.25 0.25 0.25 0.25 0.25 0.25 0.25 0.25 0.25 0.25 0.25 0.25 0.25 0.25 0.25 0.25 0.25 0.25 0.25 0.25 0.25 0.25 0.25 0.25 0.25 0.25 0.25 0.25 0.25 0.25 0.25 0.25 0.25 0.25 0.25 0.25 0.25 0.25 0.25 0.25 0.25 0.25 0.25 0.25 0.25 0.25 0.25 0.25 0.25 0.25 0.25 0.25 0.25 0.25 0.25 0.25 0.25 0.25 0.25 0.25 0.25 0.25 0.25 0.25 0.25 0.25 0.25 0.25 0.25 0.25 0.25 0.25 0.25 0.25 0.25 0.25 0.25 0.25 0.25 0.25 0.25 0.25 0.25 0.25 0.25 0.25 0.25 0.25 0.25 0.25 0.25 0.25 0.25 0.25 0.25 0.25 0.25 0.25 0.25 0.25 0.25 0.25 0.25 0.25 0.25 0.25 0.25 0.25 0.25 0.25 0.25 0.25 0.25 0.25 0.25 0.25 0.25 0.25 0.25 0.25 0.25 0.25 0.25 0.25 0.25 0.25 0.25 0.25 0.25 0.25 0.25 0.25 0.25 0.25 0.25 0.25 0.25 0.25 0.25 0.25 0.25 0.25 0.25 0.25 0.25 0.25 0.25 0.25 0.25 0.25 0.25 0.25 0.25 0.25 0.25 0.25 0.25 0.25 0.25 0.25 0.25 0.25 0.25 0.25 0.25 0.25 0.25 0.25 0.25 0.25 0.25 0.25 0.25 0.25 0.25 0.25 0.25 0.25 0.25 0.25 0.25 0.25 0.25 0.25 0.25 0.25 0.25 0.25 0.25 0.25 0.25 0.25 0.25 0.25 0.25 0.25 0.25 0.25 0.25 0.25 0.25 0.25 0.25 0.25 0.25 0.25 0.25 0.25 0.25 0.25 0.25 0.25 0.25 0.25 0.25 0.25 0.25 0.25 0.25 0.25 0.25 0.25 0.25 0.25 0.25 0.25 0.25 0.25 0.25 0.25 0.25 0.25 0.25 0.25 0.25 0.25 0.25 0.25 0.25 0.25 0.25 0.25 0.25 0.25 0.25 0.25 0.25 0.25 0.25 0.25 0.25 0.25 0.25 0.25 0.25 0.25 0.25 0.25 0.25 0.25 0.25 0.25 0.25 0.25 0.25 0.25 0.25 0.25 0.25 0.25 0.25 0.25 0.25 0.25 0.25 0.25 0.25 0.25 0.25 0.25 0.25 0.25 0.25 0.25 0.25 0.25 0.25 0.25 0.25 0.25 0.25 0.25 0.25 0.25 0.25 0.25 0.25 0.25 0.25 0.25 0.25 0.25 0.25 0.25 0.25 0.25 0.25 0.25 0.25 0.25 0.25 0.25 0.25 0.25 0.25 0.25 0.25 0.25 0.25 0.25 0.25 0.25 0.25 0.25 0.25 0.25 0.25 0.25 0.25 0.25 0.25 0.25 0.25 0.25 0.25 0.25 0.25 0.25 0.25 0.25 0.25 0.25 0.25 0.25 0.25 0.25 0.25 0.25 0.25 0.25 0.25 0.25 0.25 0.25 0.25 0.25 0.25 0.25 0.25 0.25 0.25 0.25 0.25 0.25 0.25 0.25 0.25 0.25 0.25 0.25 0.25 0.25 0.25 0.25 0.25 0.25 0.25 0.25 0.25 0.25 0.25 0.25 0.25 0.25 0.25 0.25 0.25 0.25 0.25 0.25 0.25 0.25 0.0 0.0 1.0 0.0 0.25 0.25 0.25 0.25 0.25 0.25 0.25 0.25 0.02631578947368421 0.02631578947368421 0.9473684210526315 0.0 0.0 0.0 1.0 0.0 0.0 0.0 1.0 0.0 0.0 0.0 1.0 0.0 0.0 0.0 1.0 0.0 0.0 0.0 1.0 0.0 0.5428571428571428 0.17142857142857143 0.02857142857142857 0.2571428571428571 1.0 0.0 0.0 0.0 0.25 0.25 0.25 0.25 0.055232558139534885 0.10755813953488372 0.22965116279069767 0.6075581395348837 0.3548387096774194 0.043010752688172046 0.07526881720430108 0.5268817204301075 0.18867924528301888 0.1509433962264151 0.22641509433962265 0.4339622641509434 0.3333333333333333 0.0 0.2222222222222222 0.4444444444444444 0.24358974358974358 0.21794871794871795 0.11538461538461539 0.4230769230769231 0.0 1.0 0.0 0.0 0.506993006993007 0.1993006993006993 0.16783216783216784 0.1258741258741259 0.0 1.0 0.0 0.0 0.25 0.25 0.25 0.25 0.08354955889984432 0.23975090814737934 0.3020238713025428 0.3746756616502335 0.4913294797687861 0.16473988439306358 0.15028901734104047 0.1936416184971098 0.14893617021276595 0.2198581560283688 0.3723404255319149 0.25886524822695034 0.19791666666666666 0.14583333333333334 0.13541666666666666 0.5208333333333334 0.3235294117647059 0.20833333333333334 0.14215686274509803 0.32598039215686275 0.25 0.25 0.25 0.25 0.0 0.03225806451612903 0.7741935483870968 0.1935483870967742 0.0 0.0 0.0 1.0 0.25 0.25 0.25 0.25 0.062146892655367235 0.22598870056497175 0.3389830508474576 0.3728813559322034 0.006172839506172839 0.018518518518518517 0.6358024691358025 0.3395061728395062 0.025 0.2875 0.375 0.3125 0.0 0.25 0.5 0.25 0.4 0.1 0.45 0.05 0.25 0.25 0.25 0.25 0.07874015748031496 0.11811023622047244 0.7322834645669292 0.07086614173228346 0.25 0.25 0.25 0.25 0.0 0.3333333333333333 0.6666666666666666 0.0 0.15959252971137522 0.5500848896434635 0.22410865874363328 0.06621392190152801 0.025510204081632654 0.08163265306122448 0.7397959183673469 0.15306122448979592 0.05511811023622047 0.3425196850393701 0.4448818897637795 0.15748031496062992 0.19047619047619047 0.19047619047619047 0.5714285714285714 0.047619047619047616 0.5211267605633803 0.14084507042253522 0.30985915492957744 0.028169014084507043 0.25 0.25 0.25 0.25 0.6216216216216216 0.21621621621621623 0.05405405405405406 0.10810810810810811 0.25 0.25 0.25 0.25 0.25 0.25 0.25 0.25 0.1461187214611872 0.1735159817351598 0.2420091324200913 0.4383561643835616 0.6344086021505376 0.12903225806451613 0.08602150537634409 0.15053763440860216 0.5 0.1 0.2 0.2 0.2727272727272727 0.18181818181818182 0.09090909090909091 0.45454545454545453 0.42857142857142855 0.0 0.2857142857142857 0.2857142857142857 0.0 0.0 0.0 1.0 0.5521885521885522 0.15824915824915825 0.12121212121212122 0.16835016835016836 0.5 0.5 0.0 0.0 0.0 0.0 1.0 0.0 0.10865561694290976 0.18047882136279927 0.22283609576427257 0.4880294659300184 0.5384615384615384 0.23076923076923078 0.10576923076923077 0.125 0.25333333333333335 0.24 0.21333333333333335 0.29333333333333333 0.1836734693877551 0.1836734693877551 0.2857142857142857 0.3469387755102041 0.3804347826086957 0.11956521739130435 0.09782608695652174 0.40217391304347827 0.25 0.25 0.25 0.25 0.04878048780487805 0.07317073170731707 0.7560975609756098 0.12195121951219512 0.25 0.25 0.25 0.25 0.0 1.0 0.0 0.0 0.04262295081967213 0.22295081967213115 0.45901639344262296 0.2754098360655738 0.004975124378109453 0.04975124378109453 0.9203980099502488 0.024875621890547265 0.02127659574468085 0.2127659574468085 0.5106382978723404 0.2553191489361702 0.0 0.0 1.0 0.0 0.14285714285714285 0.14285714285714285 0.7142857142857143 0.0 0.25 0.25 0.25 0.25 0.05263157894736842 0.0 0.8947368421052632 0.05263157894736842 0.25 0.25 0.25 0.25 0.25 0.25 0.25 0.25 0.13114754098360656 0.11475409836065574 0.6065573770491803 0.14754098360655737 0.10526315789473684 0.1111111111111111 0.7485380116959064 0.03508771929824561 0.0 0.15 0.7 0.15 0.5 0.0 0.5 0.0 0.125 0.0 0.875 0.0 0.25 0.25 0.25 0.25 0.25 0.25 0.25 0.25 0.25 0.25 0.25 0.25 0.25 0.25 0.25 0.25 0.25 0.25 0.25 0.25 0.25 0.25 0.25 0.25 0.25 0.25 0.25 0.25 0.25 0.25 0.25 0.25 0.25 0.25 0.25 0.25 0.25 0.25 0.25 0.25 0.25 0.25 0.25 0.25 0.25 0.25 0.25 0.25 0.25 0.25 0.25 0.25 0.25 0.25 0.25 0.25 0.25 0.25 0.25 0.25 0.25 0.25 0.25 0.25 0.25 0.25 0.25 0.25 0.25 0.25 0.25 0.25 0.25 0.25 0.25 0.25 0.25 0.25 0.25 0.25 0.25 0.25 0.25 0.25 0.25 0.25 0.25 0.25 0.25 0.25 0.25 0.25 0.25 0.25 0.25 0.25 0.25 0.25 0.25 0.25 0.25 0.25 0.25 0.25 0.25 0.25 0.25 0.25 0.25 0.25 0.25 0.25 0.25 0.25 0.25 0.25 0.25 0.25 0.25 0.25 0.25 0.25 0.25 0.25 0.25 0.25 0.25 0.25 0.0 0.0 1.0 0.0 0.25 0.25 0.25 0.25 0.25 0.25 0.25 0.25 0.25 0.25 0.25 0.25 0.25 0.25 0.25 0.25 0.25 0.25 0.25 0.25 0.25 0.25 0.25 0.25 0.25 0.25 0.25 0.25 0.25 0.25 0.25 0.25 0.25 0.25 0.25 0.25 0.25 0.25 0.25 0.25 0.25 0.25 0.25 0.25 0.25 0.25 0.25 0.25 0.25 0.25 0.25 0.25 0.25 0.25 0.25 0.25 0.25 0.25 0.25 0.25 0.25 0.25 0.25 0.25 0.25 0.25 0.25 0.25 0.25 0.25 0.25 0.25 0.25 0.25 0.25 0.25 0.25 0.25 0.25 0.25 0.25 0.25 0.25 0.25 0.25 0.25 0.25 0.25 0.25 0.25 0.25 0.25 0.25 0.25 0.25 0.25 0.25 0.25 0.25 0.25 0.25 0.25 0.25 0.25 0.25 0.25 0.25 0.25 0.25 0.25 0.25 0.25 0.25 0.25 0.25 0.25 0.25 0.25 0.25 0.25 0.25 0.25 0.25 0.25 0.0 0.0 1.0 0.0 0.25 0.25 0.25 0.25 0.25 0.25 0.25 0.25 0.0 0.0 1.0 0.0 0.0 0.0 1.0 0.0 0.25 0.25 0.25 0.25 0.25 0.25 0.25 0.25 0.0 0.0 1.0 0.0 0.25 0.25 0.25 0.25 0.25 0.25 0.25 0.25 0.25 0.25 0.25 0.25 0.25 0.25 0.25 0.25 0.25 0.25 0.25 0.25 0.25 0.25 0.25 0.25 0.25 0.25 0.25 0.25 0.25 0.25 0.25 0.25 0.25 0.25 0.25 0.25 0.25 0.25 0.25 0.25 0.25 0.25 0.25 0.25 0.25 0.25 0.25 0.25 0.25 0.25 0.25 0.25 0.25 0.25 0.25 0.25 0.25 0.25 0.25 0.25 0.25 0.25 0.25 0.25 0.25 0.25 0.25 0.25 0.25 0.25 0.25 0.25 0.25 0.25 0.25 0.25 0.25 0.25 0.25 0.25 0.25 0.25 0.25 0.25 0.25 0.25 0.25 0.25 0.25 0.25 0.25 0.25 0.25 0.25 0.25 0.25 0.25 0.25 0.25 0.25 0.25 0.25 0.25 0.25 0.25 0.25 0.25 0.25 0.25 0.25 0.25 0.25 0.25 0.25 0.25 0.25 0.25 0.25 0.25 0.25 0.25 0.25 0.25 0.25 0.25 0.25 0.25 0.25 0.25 0.25 0.25 0.25 0.25 0.25 0.25 0.25 0.25 0.25 0.25 0.25 0.25 0.25 0.25 0.25 0.25 0.25 0.25 0.25 0.25 0.25 0.25 0.25 0.25 0.25 0.25 0.25 0.25 0.25 0.25 0.25 0.25 0.25 0.25 0.25 0.25 0.25 0.25 0.25 0.25 0.25 0.25 0.25 0.25 0.25 0.25 0.25 0.25 0.25 0.25 0.25 0.25 0.25 0.25 0.25 0.25 0.25 0.25 0.25 0.25 0.25 0.25 0.25 0.25 0.25 0.25 0.25 0.25 0.25 0.25 0.25 0.25 0.25 0.25 0.25 0.25 0.25 0.25 0.25 0.25 0.25 0.25 0.25 0.25 0.25 0.25 0.25 0.25 0.25 0.25 0.25 0.25 0.25 0.25 0.25 0.25 0.25 0.25 0.25 0.25 0.25 0.25 0.25 0.25 0.25 0.25 0.25 0.25 0.25 0.25 0.25 0.25 0.25 0.25 0.25 0.25 0.25 0.25 0.25 0.25 0.25 0.25 0.25 0.25 0.25 0.25 0.25 0.0 0.0 1.0 0.0 0.25 0.25 0.25 0.25 0.25 0.25 0.25 0.25 0.25 0.25 0.25 0.25 0.25 0.25 0.25 0.25 0.25 0.25 0.25 0.25 0.25 0.25 0.25 0.25 0.25 0.25 0.25 0.25 0.25 0.25 0.25 0.25 0.25 0.25 0.25 0.25 0.25 0.25 0.25 0.25 0.25 0.25 0.25 0.25 0.25 0.25 0.25 0.25 0.25 0.25 0.25 0.25 0.25 0.25 0.25 0.25 0.25 0.25 0.25 0.25 0.25 0.25 0.25 0.25 0.25 0.25 0.25 0.25 0.25 0.25 0.25 0.25 0.25 0.25 0.25 0.25 0.25 0.25 0.25 0.25 0.25 0.25 0.25 0.25 0.25 0.25 0.25 0.25 0.25 0.25 0.25 0.25 0.0 0.0 0.0 1.0 0.25 0.25 0.25 0.25 0.25 0.25 0.25 0.25 0.25 0.25 0.25 0.25 0.25 0.25 0.25 0.25 0.25 0.25 0.25 0.25 0.25 0.25 0.25 0.25 0.25 0.25 0.25 0.25 0.25 0.25 0.25 0.25 0.25 0.25 0.25 0.25 0.25 0.25 0.25 0.25 0.25 0.25 0.25 0.25 0.25 0.25 0.25 0.25 0.25 0.25 0.25 0.25 0.25 0.25 0.25 0.25 0.25 0.25 0.25 0.25 0.25 0.25 0.25 0.25 0.25 0.25 0.25 0.25 0.25 0.25 0.25 0.25 0.25 0.25 0.25 0.25 0.25 0.25 0.25 0.25 0.25 0.25 0.25 0.25 0.25 0.25 0.25 0.25 0.25 0.25 0.25 0.25 0.25 0.25 0.25 0.25 0.25 0.25 0.25 0.25 0.25 0.25 0.25 0.25 0.25 0.25 0.25 0.25 0.25 0.25 0.25 0.25 0.25 0.25 0.25 0.25 0.25 0.25 0.25 0.25 0.25 0.25 0.25 0.25 0.25 0.25 0.25 0.25 0.25 0.25 0.25 0.25 0.25 0.25 0.25 0.25 0.25 0.25 0.25 0.25 0.25 0.25 0.25 0.25 0.25 0.25 0.25 0.25 0.25 0.25 0.25 0.25 0.25 0.25 0.25 0.25 0.25 0.25 0.25 0.25 0.25 0.25 0.25 0.25 0.25 0.25 0.25 0.25 0.25 0.25 0.25 0.25 0.25 0.25 0.25 0.25 0.25 0.25 0.25 0.25 0.25 0.25 0.25 0.25 0.0 0.0 1.0 0.0 0.00390625 0.001953125 0.994140625 0.0 0.0 0.0 1.0 0.0 0.0 0.0 1.0 0.0 0.019417475728155338 0.009708737864077669 0.970873786407767 0.0 0.0 0.0033783783783783786 0.9966216216216216 0.0 0.025 0.0 0.975 0.0 0.008849557522123894 0.008849557522123894 0.9823008849557522 0.0 0.0 0.0 1.0 0.0 0.5319148936170213 0.1356382978723404 0.14893617021276595 0.18351063829787234 0.5033112582781457 0.10154525386313466 0.13024282560706402 0.26490066225165565 0.35517241379310344 0.33448275862068966 0.1482758620689655 0.16206896551724137 0.5862068965517241 0.10344827586206896 0.1724137931034483 0.13793103448275862 0.05893358278765201 0.0626753975678204 0.14593077642656688 0.7324602432179607 0.4017412935323383 0.13805970149253732 0.15920398009950248 0.3009950248756219 0.13318534961154274 0.18756936736958935 0.31076581576026635 0.36847946725860153 0.18038528896672504 0.08581436077057793 0.1295971978984238 0.6042031523642732 0.15488629379225569 0.19422249539028888 0.14812538414259374 0.5027658266748617 0.33517763541059986 0.2119976703552708 0.21578334304018637 0.23704135119394293 0.49363867684478374 0.11620016963528414 0.1183206106870229 0.27184054283290926 0.3264094955489614 0.39136168809759314 0.11902406857896472 0.1632047477744807 0.47237076648841353 0.22459893048128343 0.1836007130124777 0.11942959001782531 0.07815141837309787 0.1095247041142213 0.18654893856847643 0.6257749389442044 0.3508887425938117 0.19618169848584596 0.20803159973666885 0.24489795918367346 0.1561483409238777 0.2690305790500976 0.30644111906310995 0.2683799609629148 0.17264386989157632 0.11718098415346122 0.17306088407005837 0.5371142618849041 0.21604162928404808 0.18105149829535258 0.16292840480890006 0.4399784676116993 0.0 0.13095238095238096 0.7857142857142857 0.08333333333333333 0.0228310502283105 0.1324200913242009 0.8082191780821918 0.0365296803652968 0.06565656565656566 0.045454545454545456 0.8585858585858586 0.030303030303030304 0.0 0.08823529411764706 0.8823529411764706 0.029411764705882353 0.06042884990253411 0.17348927875243664 0.35477582846003897 0.41130604288499023 0.007617728531855956 0.07686980609418283 0.7340720221606648 0.1814404432132964 0.09388335704125178 0.34281650071123754 0.37268847795163584 0.1906116642958748 0.028688524590163935 0.19262295081967212 0.610655737704918 0.1680327868852459 0.44522144522144524 0.16783216783216784 0.27505827505827507 0.11188811188811189 0.05045871559633028 0.15137614678899083 0.7935779816513762 0.0045871559633027525 0.02702702702702703 0.07927927927927927 0.8792792792792793 0.014414414414414415 0.09251101321585903 0.06167400881057269 0.8237885462555066 0.022026431718061675 0.05253623188405797 0.11594202898550725 0.8206521739130435 0.010869565217391304 0.14285714285714285 0.41798941798941797 0.3257747543461829 0.11337868480725624 0.026537997587454766 0.13630880579010857 0.7430639324487334 0.09408926417370325 0.127750177430802 0.3860894251242016 0.3910574875798439 0.09510290986515259 0.05927342256214149 0.25047801147227533 0.6481835564053537 0.04206500956022945 0.42527582748244735 0.2156469408224674 0.3410230692076229 0.01805416248746239 0.5089820359281437 0.15868263473053892 0.1347305389221557 0.19760479041916168 0.5879828326180258 0.12017167381974249 0.0944206008583691 0.19742489270386265 0.5308641975308642 0.2962962962962963 0.09876543209876543 0.07407407407407407 0.5950413223140496 0.19834710743801653 0.12396694214876033 0.08264462809917356 0.08521739130434783 0.1426086956521739 0.1443478260869565 0.6278260869565218 0.49230769230769234 0.21025641025641026 0.14871794871794872 0.14871794871794872 0.2608695652173913 0.2826086956521739 0.18115942028985507 0.2753623188405797 0.2661596958174905 0.11026615969581749 0.1444866920152091 0.4790874524714829 0.32575757575757575 0.17424242424242425 0.11363636363636363 0.38636363636363635 0.2152777777777778 0.30833333333333335 0.2388888888888889 0.2375 0.6022267206477733 0.09868421052631579 0.07540485829959515 0.2236842105263158 0.4117647058823529 0.3367139959432049 0.1075050709939148 0.1440162271805274 0.3208020050125313 0.24060150375939848 0.2832080200501253 0.15538847117794485 0.10953058321479374 0.06827880512091039 0.10241820768136557 0.7197724039829303 0.3673469387755102 0.24704618689581095 0.1836734693877551 0.20193340494092374 0.2590529247910863 0.28133704735376047 0.18662952646239556 0.27298050139275765 0.31424766977363516 0.13049267643142476 0.12516644474034622 0.43009320905459386 0.3325062034739454 0.11290322580645161 0.09801488833746898 0.456575682382134 0.014705882352941176 0.0784313725490196 0.8333333333333334 0.07352941176470588 0.015957446808510637 0.0425531914893617 0.9308510638297872 0.010638297872340425 0.010638297872340425 0.05319148936170213 0.8776595744680851 0.05851063829787234 0.00967741935483871 0.035483870967741936 0.9258064516129032 0.02903225806451613 0.03904170363797693 0.2129547471162378 0.42324755989352264 0.32475598935226263 0.012517385257301807 0.054242002781641166 0.8845618915159944 0.048678720445062586 0.04597701149425287 0.20114942528735633 0.5459770114942529 0.20689655172413793 0.016304347826086956 0.12771739130434784 0.6970108695652174 0.15896739130434784 0.2235294117647059 0.07058823529411765 0.6352941176470588 0.07058823529411765 0.031055900621118012 0.043478260869565216 0.9006211180124224 0.024844720496894408 0.014598540145985401 0.0072992700729927005 0.948905109489051 0.029197080291970802 0.028169014084507043 0.028169014084507043 0.8873239436619719 0.056338028169014086 0.005235602094240838 0.03664921465968586 0.9476439790575916 0.010471204188481676 0.08333333333333333 0.16441441441441443 0.5630630630630631 0.1891891891891892 0.16412089697757556 0.12057198570035749 0.5576860578485537 0.15762105947351315 0.07377049180327869 0.1885245901639344 0.6557377049180327 0.08196721311475409 0.013513513513513514 0.07094594594594594 0.8445945945945946 0.07094594594594594 0.08074534161490683 0.055900621118012424 0.8385093167701864 0.024844720496894408 0.25 0.25 0.25 0.25 0.25 0.25 0.25 0.25 0.25 0.25 0.25 0.25 0.25 0.25 0.25 0.25 0.25 0.25 0.25 0.25 0.25 0.25 0.25 0.25 0.25 0.25 0.25 0.25 0.25 0.25 0.25 0.25 0.25 0.25 0.25 0.25 0.25 0.25 0.25 0.25 0.25 0.25 0.25 0.25 0.25 0.25 0.25 0.25 0.25 0.25 0.25 0.25 0.25 0.25 0.25 0.25 0.25 0.25 0.25 0.25 0.25 0.25 0.25 0.25 0.25 0.25 0.25 0.25 0.25 0.25 0.25 0.25 0.25 0.25 0.25 0.25 0.25 0.25 0.25 0.25 0.25 0.25 0.25 0.25 0.25 0.25 0.25 0.25 0.25 0.25 0.25 0.25 0.25 0.25 0.25 0.25 0.25 0.25 0.25 0.25 0.25 0.25 0.25 0.25 0.25 0.25 0.25 0.25 0.25 0.25 0.25 0.25 0.25 0.25 0.25 0.25 0.25 0.25 0.25 0.25 0.25 0.25 0.25 0.25 0.25 0.25 0.25 0.25 0.25 0.25 0.25 0.25 0.25 0.25 0.25 0.25 0.25 0.25 0.25 0.25 0.25 0.25 0.25 0.25 0.25 0.25 0.25 0.25 0.25 0.25 0.25 0.25 0.25 0.25 0.25 0.25 0.25 0.25 0.25 0.25 0.25 0.25 0.25 0.25 0.25 0.25 0.25 0.25 0.25 0.25 0.25 0.25 0.25 0.25 0.25 0.25 0.25 0.25 0.25 0.25 0.25 0.25 0.25 0.25 0.25 0.25 0.25 0.25 0.25 0.25 0.25 0.25 0.25 0.25 0.25 0.25 0.25 0.25 0.25 0.25 0.25 0.25 0.25 0.25 0.25 0.25 0.25 0.25 0.25 0.25 0.25 0.25 0.25 0.25 0.25 0.25 0.25 0.25 0.25 0.25 0.25 0.25 0.25 0.25 0.25 0.25 0.25 0.25 0.25 0.25 0.25 0.25 0.25 0.25 0.25 0.25 0.25 0.25 0.25 0.25 0.25 0.25 0.25 0.25 0.25 0.25 0.25 0.25 0.25 0.25 0.25 0.25 0.0 0.0 1.0 0.0 0.0 0.05263157894736842 0.9473684210526315 0.0 0.0 0.0 1.0 0.0 0.0 0.0 1.0 0.0 0.0 0.0 1.0 0.0 0.0 0.0 1.0 0.0 0.0 0.0 1.0 0.0 0.0 0.0 1.0 0.0 0.0 0.0 1.0 0.0 </TABLE>
    </DEFINITION>
    <DEFINITION>
      <FOR>PESO_INICIAL</FOR>
      <GIVEN>CESARIANAS_ANTERIOR</GIVEN>
      <GIVEN>GRUPO_ROBSON</GIVEN>
      <GIVEN>silo</GIVEN>
      <TABLE>0.0 0.0 0.0 1.0 0.0 0.3431372549019608 0.18627450980392157 0.06862745098039216 0.24509803921568626 0.1568627450980392 0.0 0.0 0.0 1.0 0.0 0.2 0.2 0.2 0.2 0.2 0.2949176807444524 0.22405153901216893 0.11381531853972798 0.23192555476020044 0.13528990694345025 0.25089605734767023 0.2132616487455197 0.21505376344086022 0.1917562724014337 0.12903225806451613 0.2028985507246377 0.3140096618357488 0.1497584541062802 0.15942028985507245 0.17391304347826086 0.21428571428571427 0.14285714285714285 0.10714285714285714 0.25 0.2857142857142857 0.26153846153846155 0.2 0.13076923076923078 0.2076923076923077 0.2 0.2 0.2 0.2 0.2 0.2 0.2413793103448276 0.20689655172413793 0.13793103448275862 0.20689655172413793 0.20689655172413793 0.2 0.2 0.2 0.2 0.2 0.2 0.2 0.2 0.2 0.2 0.28679245283018867 0.2 0.15849056603773584 0.16981132075471697 0.18490566037735848 0.23255813953488372 0.06976744186046512 0.4186046511627907 0.1511627906976744 0.12790697674418605 0.23076923076923078 0.1794871794871795 0.23076923076923078 0.2564102564102564 0.10256410256410256 0.16666666666666666 0.0 0.5 0.0 0.3333333333333333 0.35294117647058826 0.058823529411764705 0.08823529411764706 0.20588235294117646 0.29411764705882354 0.2 0.2 0.2 0.2 0.2 0.17567567567567569 0.2972972972972973 0.0945945945945946 0.24324324324324326 0.1891891891891892 0.0 0.0 0.0 1.0 0.0 0.0 0.0 1.0 0.0 0.0 0.19408502772643252 0.23105360443622922 0.10166358595194085 0.2513863216266174 0.22181146025878004 0.1890909090909091 0.17454545454545456 0.18181818181818182 0.26181818181818184 0.19272727272727272 0.17834394904458598 0.21656050955414013 0.12738853503184713 0.24203821656050956 0.2356687898089172 0.2903225806451613 0.16129032258064516 0.03225806451612903 0.25806451612903225 0.25806451612903225 0.175 0.15 0.125 0.225 0.325 1.0 0.0 0.0 0.0 0.0 0.21973094170403587 0.20179372197309417 0.08520179372197309 0.23766816143497757 0.2556053811659193 0.25 0.0 0.0 0.75 0.0 0.0 0.0 0.0 0.0 1.0 0.23157894736842105 0.19736842105263158 0.1256578947368421 0.24473684210526317 0.20065789473684212 0.15417558886509636 0.18201284796573874 0.3019271948608137 0.21199143468950749 0.14989293361884368 0.17716535433070865 0.2283464566929134 0.16929133858267717 0.2440944881889764 0.18110236220472442 0.24358974358974358 0.14102564102564102 0.15384615384615385 0.2948717948717949 0.16666666666666666 0.19745222929936307 0.21656050955414013 0.12420382165605096 0.2611464968152866 0.20063694267515925 0.0 0.0 1.0 0.0 0.0 0.1276595744680851 0.09574468085106383 0.23404255319148937 0.2127659574468085 0.32978723404255317 0.2 0.2 0.2 0.2 0.2 0.2 0.2 0.2 0.2 0.2 0.18674698795180722 0.18373493975903615 0.10240963855421686 0.24096385542168675 0.286144578313253 0.19130434782608696 0.1826086956521739 0.08695652173913043 0.26956521739130435 0.26956521739130435 0.17796610169491525 0.16101694915254236 0.13559322033898305 0.23728813559322035 0.288135593220339 0.13725490196078433 0.29411764705882354 0.0784313725490196 0.1568627450980392 0.3333333333333333 0.13333333333333333 0.2 0.11428571428571428 0.17142857142857143 0.38095238095238093 0.2 0.2 0.2 0.2 0.2 0.2 0.2 0.2 0.2 0.2 0.2 0.2 0.2 0.2 0.2 0.2 0.2 0.2 0.2 0.2 0.0 1.0 0.0 0.0 0.0 0.2 0.2 0.2 0.2 0.2 0.0 0.0 0.0 1.0 0.0 0.2 0.2 0.2 0.2 0.2 0.2 0.2 0.2 0.2 0.2 0.2 0.2 0.2 0.2 0.2 0.7142857142857143 0.14285714285714285 0.0 0.0 0.14285714285714285 0.2 0.2 0.2 0.2 0.2 0.2 0.2 0.2 0.2 0.2 0.2727272727272727 0.12121212121212122 0.13131313131313133 0.29292929292929293 0.18181818181818182 0.14925373134328357 0.14925373134328357 0.40298507462686567 0.22388059701492538 0.07462686567164178 0.25 0.3 0.2 0.1 0.15 0.0 0.0 0.5 0.5 0.0 0.1111111111111111 0.3333333333333333 0.1111111111111111 0.1111111111111111 0.3333333333333333 0.2 0.2 0.2 0.2 0.2 0.1 0.2 0.4 0.2 0.1 0.2 0.2 0.2 0.2 0.2 0.2 0.2 0.2 0.2 0.2 0.13513513513513514 0.21621621621621623 0.08108108108108109 0.4594594594594595 0.10810810810810811 0.1 0.13333333333333333 0.36666666666666664 0.2 0.2 0.15789473684210525 0.15789473684210525 0.15789473684210525 0.42105263157894735 0.10526315789473684 0.0 0.0 0.0 1.0 0.0 0.16666666666666666 0.2222222222222222 0.2777777777777778 0.16666666666666666 0.16666666666666666 0.2 0.2 0.2 0.2 0.2 0.2 0.2 0.2 0.2 0.2 0.2 0.2 0.2 0.2 0.2 0.2 0.2 0.2 0.2 0.2 0.5 0.5 0.0 0.0 0.0 0.14285714285714285 0.0 0.2857142857142857 0.2857142857142857 0.2857142857142857 0.0 0.25 0.5 0.25 0.0 0.2 0.2 0.2 0.2 0.2 0.0 0.6 0.0 0.4 0.0 0.2 0.2 0.2 0.2 0.2 0.0 0.0 1.0 0.0 0.0 0.2 0.2 0.2 0.2 0.2 0.2 0.2 0.2 0.2 0.2 0.0 0.0 0.0 0.0 1.0 0.0 0.0 0.0 1.0 0.0 0.0 0.0 0.0 1.0 0.0 0.2 0.2 0.2 0.2 0.2 0.2 0.2 0.2 0.2 0.2 0.2 0.2 0.2 0.2 0.2 0.2045977011494253 0.20229885057471264 0.135632183908046 0.23218390804597702 0.22528735632183908 0.2 0.2 0.2 0.2 0.2 0.3333333333333333 0.6666666666666666 0.0 0.0 0.0 0.5454545454545454 0.09090909090909091 0.09090909090909091 0.09090909090909091 0.18181818181818182 0.12903225806451613 0.03225806451612903 0.7741935483870968 0.03225806451612903 0.03225806451612903 0.25 0.0 0.0 0.25 0.5 0.0 0.0 0.0 1.0 0.0 0.2222222222222222 0.0 0.5555555555555556 0.1111111111111111 0.1111111111111111 0.26004872107186355 0.20158343483556637 0.1315468940316687 0.2320341047503045 0.17478684531059682 0.2803180914512923 0.22332670642809807 0.1272365805168986 0.2253147779986746 0.14380384360503645 0.2982905982905983 0.22393162393162394 0.1 0.2170940170940171 0.1606837606837607 0.2546583850931677 0.22981366459627328 0.2360248447204969 0.14285714285714285 0.13664596273291926 0.26917613636363635 0.22727272727272727 0.1484375 0.20738636363636365 0.14772727272727273 0.15940366972477063 0.14793577981651376 0.452217125382263 0.1437308868501529 0.09671253822629969 0.2646067415730337 0.24775280898876403 0.09775280898876404 0.2398876404494382 0.15 0.2436472346786248 0.21674140508221226 0.2234678624813154 0.19133034379671152 0.12481315396113603 0.2533673097925009 0.2180560611576265 0.14270112850382236 0.2322533673097925 0.15362213323625773 0.15955056179775282 0.15056179775280898 0.28314606741573034 0.20898876404494382 0.19775280898876405 0.23822714681440443 0.19390581717451524 0.16897506925207756 0.23545706371191136 0.1634349030470914 0.21993127147766323 0.18900343642611683 0.16494845360824742 0.1958762886597938 0.23024054982817868 0.2558139534883721 0.16279069767441862 0.2558139534883721 0.20930232558139536 0.11627906976744186 0.24834437086092714 0.17880794701986755 0.20860927152317882 0.18984547461368653 0.17439293598233996 0.09574468085106383 0.07446808510638298 0.6565349544072948 0.08966565349544073 0.08358662613981763 0.1986970684039088 0.18566775244299674 0.18566775244299674 0.2182410423452769 0.21172638436482086 0.1180722891566265 0.13975903614457832 0.41204819277108434 0.15903614457831325 0.1710843373493976 0.19439252336448598 0.17383177570093458 0.2336448598130841 0.19439252336448598 0.20373831775700935 0.2240325865580448 0.17413441955193482 0.13238289205702647 0.24745417515274948 0.2219959266802444 0.1534090909090909 0.1590909090909091 0.3051948051948052 0.19318181818181818 0.1891233766233766 0.23895809739524349 0.217440543601359 0.07361268403171008 0.23782559456398641 0.232163080407701 0.0 0.16666666666666666 0.5555555555555556 0.1111111111111111 0.16666666666666666 0.21041666666666667 0.19375 0.10375 0.23916666666666667 0.2529166666666667 0.12571022727272727 0.14204545454545456 0.4453125 0.14985795454545456 0.13707386363636365 0.19124087591240876 0.2167883211678832 0.09781021897810219 0.227007299270073 0.2671532846715328 0.19435975609756098 0.19283536585365854 0.20579268292682926 0.2111280487804878 0.19588414634146342 0.1622340425531915 0.1768617021276596 0.12167553191489362 0.2566489361702128 0.28257978723404253 0.19910514541387025 0.17225950782997762 0.1372110365398956 0.24757643549589858 0.24384787472035793 0.1984189723320158 0.20948616600790515 0.12569169960474308 0.23794466403162054 0.22845849802371543 0.21120293847566574 0.21763085399449036 0.10009182736455463 0.23140495867768596 0.2396694214876033 0.17037037037037037 0.1259259259259259 0.35555555555555557 0.18518518518518517 0.16296296296296298 0.1971223021582734 0.2081534772182254 0.16498800959232615 0.22829736211031176 0.2014388489208633 0.12802056555269922 0.11876606683804627 0.4632390745501285 0.16709511568123395 0.12287917737789203 0.2093525179856115 0.21007194244604316 0.13237410071942446 0.24172661870503598 0.20647482014388488 0.1966893865628043 0.1801363193768257 0.2599805258033106 0.18403115871470302 0.17916260954235638 0.1791518034086405 0.1902497027348395 0.13991280221957986 0.2615933412604043 0.22909235037653586 0.1386748844375963 0.15716486902927582 0.1140215716486903 0.2357473035439137 0.3543913713405239 0.11419249592169657 0.13213703099510604 0.34910277324632955 0.18760195758564438 0.2169657422512235 0.1782006920415225 0.17301038062283736 0.08996539792387544 0.23529411764705882 0.3235294117647059 0.0 0.0 0.2857142857142857 0.2857142857142857 0.42857142857142855 0.1736806947227789 0.19839679358717435 0.08550434201736808 0.23246492985971945 0.30995323981295925 0.10275229357798166 0.11559633027522936 0.44036697247706424 0.1614678899082569 0.1798165137614679 0.13215859030837004 0.19383259911894274 0.08370044052863436 0.2687224669603524 0.32158590308370044 0.15019255455712452 0.15532734274711169 0.20667522464698332 0.21951219512195122 0.2682926829268293 0.09290322580645162 0.14193548387096774 0.1367741935483871 0.28258064516129033 0.34580645161290324 0.1643192488262911 0.1564945226917058 0.09546165884194054 0.2676056338028169 0.3161189358372457 0.13205417607223477 0.15914221218961624 0.26749435665914223 0.19525959367945825 0.24604966139954854 0.22202166064981949 0.1624548736462094 0.09025270758122744 0.2184115523465704 0.30685920577617326 0.16363636363636364 0.14545454545454545 0.34545454545454546 0.2 0.14545454545454545 0.1760113555713272 0.18452803406671398 0.13484740951029098 0.2370475514549326 0.2675656493967353 0.10943643512450851 0.1310615989515072 0.42660550458715596 0.17234600262123198 0.16055045871559634 0.15392354124748492 0.19114688128772636 0.10865191146881288 0.23843058350100604 0.30784708249496984 0.15427509293680297 0.1579925650557621 0.2527881040892193 0.20260223048327136 0.23234200743494424 0.15634920634920635 0.15317460317460319 0.13412698412698412 0.2373015873015873 0.319047619047619 0.21800947867298578 0.2132701421800948 0.22274881516587677 0.24170616113744076 0.10426540284360189 0.20388349514563106 0.21359223300970873 0.3446601941747573 0.12135922330097088 0.11650485436893204 0.3157894736842105 0.24060150375939848 0.16541353383458646 0.09022556390977443 0.18796992481203006 0.125 0.125 0.3125 0.1875 0.25 0.2594059405940594 0.27722772277227725 0.12277227722772277 0.2079207920792079 0.13267326732673268 0.13829787234042554 0.11170212765957446 0.5558510638297872 0.10106382978723404 0.09308510638297872 0.2692307692307692 0.20673076923076922 0.09134615384615384 0.2644230769230769 0.16826923076923078 0.24 0.22 0.205 0.21 0.125 0.20224719101123595 0.22846441947565543 0.149812734082397 0.23220973782771537 0.18726591760299627 0.16891891891891891 0.21621621621621623 0.16891891891891891 0.23648648648648649 0.20945945945945946 0.16923076923076924 0.13076923076923078 0.2692307692307692 0.18461538461538463 0.24615384615384617 0.2736842105263158 0.2 0.10526315789473684 0.23157894736842105 0.18947368421052632 0.09090909090909091 0.2727272727272727 0.36363636363636365 0.0 0.2727272727272727 0.2222222222222222 0.16091954022988506 0.13409961685823754 0.2413793103448276 0.2413793103448276 0.1087866108786611 0.08368200836820083 0.5648535564853556 0.12552301255230125 0.11715481171548117 0.21568627450980393 0.22875816993464052 0.12418300653594772 0.22875816993464052 0.20261437908496732 0.2 0.15454545454545454 0.2 0.23636363636363636 0.20909090909090908 0.15137614678899083 0.1651376146788991 0.21100917431192662 0.25229357798165136 0.22018348623853212 0.0 0.0 0.5 0.5 0.0 0.0 1.0 0.0 0.0 0.0 0.2 0.2 0.2 0.2 0.2 0.0 1.0 0.0 0.0 0.0 0.0 0.4 0.2 0.0 0.4 0.1875 0.125 0.25 0.1875 0.25 0.4 0.2 0.0 0.0 0.4 0.25 0.5 0.0 0.25 0.0 0.2 0.4 0.4 0.0 0.0 0.0 0.3333333333333333 0.3333333333333333 0.0 0.3333333333333333 0.1875 0.0625 0.25 0.1875 0.3125 0.6666666666666666 0.0 0.0 0.0 0.3333333333333333 0.2 0.2 0.2 0.2 0.2 0.125 0.125 0.0 0.5 0.25 0.2857142857142857 0.0 0.42857142857142855 0.2857142857142857 0.0 0.0 0.375 0.125 0.125 0.375 0.3333333333333333 0.3333333333333333 0.0 0.0 0.3333333333333333 0.0 0.16666666666666666 0.0 0.0 0.8333333333333334 0.19914346895074947 0.1734475374732334 0.0728051391862955 0.28693790149892934 0.2676659528907923 0.14583333333333334 0.13194444444444445 0.3587962962962963 0.1712962962962963 0.19212962962962962 0.4666666666666667 0.13333333333333333 0.13333333333333333 0.26666666666666666 0.0 0.24070138150903295 0.2146652497343252 0.07492029755579172 0.22210414452709884 0.24760892667375134 0.2916666666666667 0.3333333333333333 0.125 0.08333333333333333 0.16666666666666666 0.046747967479674794 0.052845528455284556 0.7886178861788617 0.044715447154471545 0.06707317073170732 0.23076923076923078 0.19230769230769232 0.07692307692307693 0.2692307692307692 0.23076923076923078 0.14432989690721648 0.17010309278350516 0.21649484536082475 0.27319587628865977 0.1958762886597938 0.2608695652173913 0.2608695652173913 0.06521739130434782 0.2391304347826087 0.17391304347826086 </TABLE>
    </DEFINITION>
    <DEFINITION>
      <FOR>SEMANAS_GESTACAO_PARTO</FOR>
      <GIVEN>APRESENTACAO_NO_PARTO</GIVEN>
      <GIVEN>GRUPO_ROBSON</GIVEN>
      <GIVEN>TRAB_PARTO_NO_PARTO</GIVEN>
      <GIVEN>silo</GIVEN>
